{"learner":{"attributes":{"best_iteration":"33","best_score":"0.5534969323344584","scikit_learn":"{\"_estimator_type\": \"regressor\"}"},"feature_names":["away_ev_goals_against_season_avg","away_ev_shots_on_goal_against_last5","home_ev_goals_against_last5","away_ev_shot_attempts_for_last10","home_pp_shot_attempts_against_last5","away_ev_hits_for_last5","away_ev_hits_against_last20","away_ev_shots_on_goal_against_opp_adj_last20","home_ev_hits_for_last20","away_pp_shots_on_goal_against_last10","home_sh_blocked_shots_against_last10","home_ev_blocked_shots_for_last5","away_ev_faceoffs_taken_season_avg","away_sh_shot_attempts_against_last10","home_pp_blocked_shots_against_last10","home_ev_hits_for_last10","away_goals_for_last20","away_sh_penalty_minutes_last5","away_ev_goals_for_last20","home_sh_penalty_minutes_season_avg","away_ev_missed_shots_against_last5","home_sh_shots_on_goal_against_last10","home_pp_shot_attempts_against_last10","home_ev_missed_shots_for_season_avg","away_ev_faceoffs_taken_last20","home_pp_goals_for_last20","home_pp_goals_against_last10","home_ev_missed_shots_against_last20","home_ev_shot_attempts_against_opp_adj_last20","away_ev_takeaways_last10","away_sh_goals_for_season_avg","away_ev_missed_shots_for_last5","home_ev_giveaways_last5","home_goals_against_opp_adj_last5","away_sh_shots_on_goal_for_last20","home_ev_shot_attempts_against_season_avg","away_ev_shots_on_goal_for_last20","home_sh_goals_for_last5","home_sh_goals_for_last10","home_save_pct_last20","away_sh_penalty_minutes_season_avg","home_pp_goals_for_last5","away_ev_missed_shots_against_last20","home_goals_against_season_avg","home_ev_hits_for_season_avg","home_pp_shots_on_goal_for_season_avg","home_sh_penalties_taken_last5","home_pp_shots_on_goal_for_last10","home_sh_blocked_shots_against_season_avg","away_sh_goals_against_season_avg","away_pp_goals_for_last20","away_pp_blocked_shots_against_last5","away_ev_goals_for_season_avg","home_ev_missed_shots_for_last5","home_sh_penalties_taken_season_avg","home_ev_shots_on_goal_against_opp_adj_last10","home_save_pct_current_season","away_pp_blocked_shots_for_last20","away_ev_goals_for_last10","home_ev_faceoffs_taken_last20","away_goals_against_opp_adj_last10","away_sh_shot_attempts_for_last10","away_save_pct_career","away_goals_against_season_avg","away_ev_missed_shots_for_season_avg","home_sh_goals_against_season_avg","away_sh_shots_on_goal_against_last20","home_ev_missed_shots_for_last10","home_ev_goals_against_season_avg","away_ev_shots_on_goal_against_last20","away_sh_blocked_shots_against_last20","away_pp_blocked_shots_against_last10","away_sh_goals_against_last20","away_ev_takeaways_season_avg","away_goals_against_last5","home_ev_blocked_shots_for_last20","away_ev_shot_attempts_against_last5","home_pp_shot_attempts_against_season_avg","away_gsax_per60_career","away_ev_shots_on_goal_against_season_avg"],"feature_types":["float","float","float","float","float","float","float","float","float","float","float","float","float","float","float","float","float","float","float","float","float","float","float","float","float","float","float","float","float","float","float","float","float","float","float","float","float","float","float","float","float","float","float","float","float","float","float","float","float","float","float","float","float","float","float","float","float","float","float","float","float","float","float","float","float","float","float","float","float","float","float","float","float","float","float","float","float","float","float","float"],"gradient_booster":{"model":{"cats":{"enc":[],"feature_segments":[],"sorted_idx":[]},"gbtree_model_param":{"num_parallel_tree":"1","num_trees":"64"},"iteration_indptr":[0,1,2,3,4,5,6,7,8,9,10,11,12,13,14,15,16,17,18,19,20,21,22,23,24,25,26,27,28,29,30,31,32,33,34,35,36,37,38,39,40,41,42,43,44,45,46,47,48,49,50,51,52,53,54,55,56,57,58,59,60,61,62,63,64],"tree_info":[0,0,0,0,0,0,0,0,0,0,0,0,0,0,0,0,0,0,0,0,0,0,0,0,0,0,0,0,0,0,0,0,0,0,0,0,0,0,0,0,0,0,0,0,0,0,0,0,0,0,0,0,0,0,0,0,0,0,0,0,0,0,0,0],"trees":[{"base_weights":[-2.8428736E-3,-6.9967066E-3,3.4092665E-2,-1.7466385E-2,2.5427362E-1,2.0231143E-1,-2.6043762E-2,1.24660656E-1,4.4092663E-2,1.588725E-3,1.8104246E-2,1.295198E-3,-1.4635135E-3,1.685649E-2,-0E0],"categories":[],"categories_nodes":[],"categories_segments":[],"categories_sizes":[],"default_left":[0,0,0,0,0,0,0,0,0,0,0,0,0,0,0],"id":0,"left_children":[1,3,-1,5,7,9,11,13,-1,-1,-1,-1,-1,-1,-1],"loss_changes":[7.8169065E0,4.54617E0,0E0,3.0151405E0,9.740038E0,3.4973187E0,2.4376397E0,3.1873853E0,0E0,0E0,0E0,0E0,0E0,0E0,0E0],"parents":[2147483647,0,0,1,1,3,3,4,4,5,5,6,6,7,7],"right_children":[2,4,-1,6,8,10,12,14,-1,-1,-1,-1,-1,-1,-1],"split_conditions":[1.95E1,4.05E0,3.4092665E-2,-3.752439E0,5.555556E-1,6.205128E0,9.944445E0,-5.2682924E-1,4.4092663E-2,1.588725E-3,1.8104246E-2,1.295198E-3,-1.4635135E-3,1.685649E-2,-0E0],"split_indices":[22,16,0,7,10,45,27,33,0,0,0,0,0,0,0],"split_type":[0,0,0,0,0,0,0,0,0,0,0,0,0,0,0],"sum_hessian":[1.673E3,1.668E3,5E0,1.605E3,6.3E1,5.9E1,1.546E3,5.8E1,5E0,4.4E1,1.5E1,3.81E2,1.165E3,1.2E1,4.6E1],"tree_param":{"num_deleted":"0","num_feature":"80","num_nodes":"15","size_leaf_vector":"1"}},{"base_weights":[-1.6680345E-3,-5.1983516E-3,2.8795235E-2,5.648462E-2,-4.79646E-2,-2.3943823E-2,1.7538449E-1,-5.3750236E-2,1.7190922E-2,-1.1525956E-3,1.2268223E-2,4.2652143E-3,3.3901088E-2,-1.7112147E-3,1.411399E-2],"categories":[],"categories_nodes":[],"categories_segments":[],"categories_sizes":[],"default_left":[0,0,0,0,0,0,0,0,0,0,0,0,0,0,0],"id":1,"left_children":[1,3,-1,5,7,9,11,13,-1,-1,-1,-1,-1,-1,-1],"loss_changes":[5.5680447E0,4.386129E0,0E0,6.5221367E0,3.510646E0,2.5228379E0,8.43089E0,1.6671803E0,0E0,0E0,0E0,0E0,0E0,0E0,0E0],"parents":[2147483647,0,0,1,1,3,3,4,4,5,5,6,6,7,7],"right_children":[2,4,-1,6,8,10,12,14,-1,-1,-1,-1,-1,-1,-1],"split_conditions":[3.1E0,1.0571428E1,2.8795235E-2,2.6984128E-1,1.9E0,5.0039474E1,2.94E1,5.5E0,1.7190922E-2,-1.1525956E-3,1.2268223E-2,4.2652143E-3,3.3901088E-2,-1.7112147E-3,1.411399E-2],"split_indices":[18,27,0,65,66,35,1,74,0,0,0,0,0,0,0],"split_type":[0,0,0,0,0,0,0,0,0,0,0,0,0,0,0],"sum_hessian":[1.666E3,1.661E3,5E0,6.79E2,9.82E2,4.05E2,2.74E2,9.74E2,8E0,3.93E2,1.2E1,2.66E2,8E0,9.69E2,5E0],"tree_param":{"num_deleted":"0","num_feature":"80","num_nodes":"15","size_leaf_vector":"1"}},{"base_weights":[-4.15281E-3,3.3544976E-2,-8.3071655E-3,-1.1836022E-2,2.8211301E-2,5.733364E-2,-5.120021E-2,1.4149013E-3,2.3517296E-2,1.8975915E-2,-1.6556369E-3],"categories":[],"categories_nodes":[],"categories_segments":[],"categories_sizes":[],"default_left":[0,0,0,0,0,0,0,0,0,0,0],"id":2,"left_children":[1,-1,3,5,-1,7,9,-1,-1,-1,-1],"loss_changes":[7.586782E0,0E0,5.4220085E0,4.4650035E0,0E0,4.269266E0,2.8290987E0,0E0,0E0,0E0,0E0],"parents":[2147483647,0,0,2,2,3,3,5,5,6,6],"right_children":[2,-1,4,6,-1,8,10,-1,-1,-1,-1],"split_conditions":[3.86E1,3.3544976E-2,3.05E0,1.04E1,2.8211301E-2,1.647561E0,4.1E1,1.4149013E-3,2.3517296E-2,1.8975915E-2,-1.6556369E-3],"split_indices":[59,0,18,27,0,60,35,0,0,0,0],"split_type":[0,0,0,0,0,0,0,0,0,0,0],"sum_hessian":[1.648E3,5E0,1.643E3,1.638E3,5E0,5.93E2,1.045E3,5.86E2,7E0,5E0,1.04E3],"tree_param":{"num_deleted":"0","num_feature":"80","num_nodes":"11","size_leaf_vector":"1"}},{"base_weights":[-7.7912193E-3,3.0932218E-2,-1.2153936E-2,1.99094E-2,-1.5826585E-2,4.6559583E-2,-4.9818125E-2,-4.748893E-5,5.060006E-3,-1.6786477E-3,7.3744413E-3],"categories":[],"categories_nodes":[],"categories_segments":[],"categories_sizes":[],"default_left":[0,0,0,0,0,0,0,0,0,0,0],"id":3,"left_children":[1,-1,3,-1,5,7,9,-1,-1,-1,-1],"loss_changes":[7.5883117E0,0E0,4.135302E0,0E0,3.5652564E0,3.49708E0,1.9704757E0,0E0,0E0,0E0,0E0],"parents":[2147483647,0,0,2,2,4,4,5,5,6,6],"right_children":[2,-1,4,-1,6,8,10,-1,-1,-1,-1],"split_conditions":[3.86E1,3.0932218E-2,7.8688526E-1,1.99094E-2,1.04E1,3.030303E-1,1.815E1,-4.748893E-5,5.060006E-3,-1.6786477E-3,7.3744413E-3],"split_indices":[59,0,56,0,27,65,75,0,0,0,0],"split_type":[0,0,0,0,0,0,0,0,0,0,0],"sum_hessian":[1.693E3,6E0,1.687E3,8E0,1.679E3,5.91E2,1.088E3,4.24E2,1.67E2,1.067E3,2.1E1],"tree_param":{"num_deleted":"0","num_feature":"80","num_nodes":"11","size_leaf_vector":"1"}},{"base_weights":[3.9266166E-3,-1.5359472E-3,5.4298127E-1,-6.279509E-2,4.030123E-2,3.334563E-2,-2.2433565E-3,-7.174892E-2,3.9098817E-1,2.8585486E-2,4.0935677E-1,-3.6421148E-3,-8.6480123E-4,-5.1700464E-3,2.7382243E-2,3.107115E-3,-5.4810883E-4,9.84068E-4,4.8829064E-2],"categories":[],"categories_nodes":[],"categories_segments":[],"categories_sizes":[],"default_left":[0,0,0,0,0,0,0,0,0,0,0,0,0,0,0,0,0,0,0],"id":4,"left_children":[1,3,5,7,9,-1,-1,11,13,15,17,-1,-1,-1,-1,-1,-1,-1,-1],"loss_changes":[4.9901624E0,4.25921E0,6.1575484E0,2.7387192E0,4.2077317E0,0E0,0E0,1.3945282E0,4.0522413E0,3.3728237E0,1.3543016E1,0E0,0E0,0E0,0E0,0E0,0E0,0E0,0E0],"parents":[2147483647,0,0,1,1,2,2,3,3,4,4,7,7,8,8,9,9,10,10],"right_children":[2,4,6,8,10,-1,-1,12,14,16,18,-1,-1,-1,-1,-1,-1,-1,-1],"split_conditions":[5.085E1,3.0232558E0,-1.901626E0,1.95E0,4.1E0,3.334563E-2,-2.2433565E-3,2E0,-2.2487805E0,1.0571428E1,4.2E0,-3.6421148E-3,-8.6480123E-4,-5.1700464E-3,2.7382243E-2,3.107115E-3,-5.4810883E-4,9.84068E-4,4.8829064E-2],"split_indices":[24,43,28,34,16,0,0,58,55,27,51,0,0,0,0,0,0,0,0],"split_type":[0,0,0,0,0,0,0,0,0,0,0,0,0,0,0,0,0,0,0],"sum_hessian":[1.675E3,1.659E3,1.6E1,6.74E2,9.85E2,8E0,8E0,6.62E2,1.2E1,9.56E2,2.9E1,3.05E2,3.57E2,6E0,6E0,3.68E2,5.88E2,2.3E1,6E0],"tree_param":{"num_deleted":"0","num_feature":"80","num_nodes":"19","size_leaf_vector":"1"}},{"base_weights":[-7.328863E-4,-4.5696823E-3,3.1883422E-2,-1.3466518E-2,2.5817388E-1,-2.1845626E-2,2.2582144E-1,4.1366782E-2,1.0232854E0,1.6286189E-2,-7.537913E-4,1.2079914E-3,3.895272E-2,2.3166243E-2,-2.0870077E-3,6.6709286E-3,5.311437E-2],"categories":[],"categories_nodes":[],"categories_segments":[],"categories_sizes":[],"default_left":[0,0,0,0,0,0,0,0,0,0,0,0,0,0,0,0,0],"id":5,"left_children":[1,3,-1,5,7,9,11,13,15,-1,-1,-1,-1,-1,-1,-1,-1],"loss_changes":[6.811377E0,3.927189E0,0E0,3.2627425E0,8.974693E0,2.8909867E0,1.07603245E1,3.6912816E0,6.5883417E0,0E0,0E0,0E0,0E0,0E0,0E0,0E0,0E0],"parents":[2147483647,0,0,1,1,3,3,4,4,5,5,6,6,7,7,8,8],"right_children":[2,4,-1,6,8,10,12,14,16,-1,-1,-1,-1,-1,-1,-1,-1],"split_conditions":[2E1,4.1E0,3.1883422E-2,1.6E1,2.45E1,7.8688526E-1,2.357143E0,4.3833332E1,2.75E0,1.6286189E-2,-7.537913E-4,1.2079914E-3,3.895272E-2,2.3166243E-2,-2.0870077E-3,6.6709286E-3,5.311437E-2],"split_indices":[4,16,0,32,15,56,18,35,51,0,0,0,0,0,0,0,0],"split_type":[0,0,0,0,0,0,0,0,0,0,0,0,0,0,0,0,0],"sum_hessian":[1.693E3,1.688E3,5E0,1.634E3,5.4E1,1.58E3,5.4E1,4.3E1,1.1E1,8E0,1.572E3,4.7E1,7E0,5E0,3.8E1,6E0,5E0],"tree_param":{"num_deleted":"0","num_feature":"80","num_nodes":"17","size_leaf_vector":"1"}},{"base_weights":[1.6019546E-3,-2.7014841E-3,3.6452245E-2,7.442168E-2,-4.4483285E-2,5.9140157E-2,3.4758575E-2,1.900854E-1,-5.3515118E-2,1.3850486E-3,2.5933532E-2,8.6350803E-4,2.7963314E-2,1.6026378E-2,-1.7426877E-3],"categories":[],"categories_nodes":[],"categories_segments":[],"categories_sizes":[],"default_left":[0,0,0,0,0,0,0,0,0,0,0,0,0,0,0],"id":6,"left_children":[1,3,-1,5,7,9,-1,11,13,-1,-1,-1,-1,-1,-1],"loss_changes":[8.866325E0,5.37841E0,0E0,9.5186615E0,2.293061E0,5.917488E0,0E0,4.6646805E0,2.7929516E0,0E0,0E0,0E0,0E0,0E0,0E0],"parents":[2147483647,0,0,1,1,3,3,4,4,5,5,7,7,8,8],"right_children":[2,4,-1,6,8,10,-1,12,14,-1,-1,-1,-1,-1,-1],"split_conditions":[3.1E0,1.04E1,3.6452245E-2,4E0,1.82E1,2.85E1,3.4758575E-2,3.2564104E0,-4.575047E0,1.3850486E-3,2.5933532E-2,8.6350803E-4,2.7963314E-2,1.6026378E-2,-1.7426877E-3],"split_indices":[18,27,0,17,1,79,0,63,7,0,0,0,0,0,0],"split_type":[0,0,0,0,0,0,0,0,0,0,0,0,0,0,0],"sum_hessian":[1.673E3,1.668E3,5E0,5.85E2,1.083E3,5.78E2,7E0,3.9E1,1.044E3,5.7E2,8E0,3.3E1,6E0,7E0,1.037E3],"tree_param":{"num_deleted":"0","num_feature":"80","num_nodes":"15","size_leaf_vector":"1"}},{"base_weights":[-6.816004E-4,-4.3783463E-3,3.0646525E-2,1.8604894E-1,-1.4541855E-2,5.536822E-2,6.996325E-1,-1.884627E-2,3.0565464E-1,1.4839583E-2,-5.130604E-4,5.04414E-5,3.9262068E-2,3.382585E-4,-2.0862883E-3,2.3683494E-2,-1.3530019E-3],"categories":[],"categories_nodes":[],"categories_segments":[],"categories_sizes":[],"default_left":[0,0,0,0,0,0,0,0,0,0,0,0,0,0,0,0,0],"id":7,"left_children":[1,3,-1,5,7,9,11,13,15,-1,-1,-1,-1,-1,-1,-1,-1],"loss_changes":[6.2929325E0,3.248655E0,0E0,5.5905776E0,2.18505E0,2.2528336E0,7.093871E0,2.4224243E0,3.6736014E0,0E0,0E0,0E0,0E0,0E0,0E0,0E0,0E0],"parents":[2147483647,0,0,1,1,3,3,4,4,5,5,6,6,7,7,8,8],"right_children":[2,4,-1,6,8,10,12,14,16,-1,-1,-1,-1,-1,-1,-1,-1],"split_conditions":[2E1,-3.5189025E0,3.0646525E-2,6.625E0,1.815E1,2.3188406E-1,2.2962964E0,1.13E1,1.05E0,1.4839583E-2,-5.130604E-4,5.04414E-5,3.9262068E-2,3.382585E-4,-2.0862883E-3,2.3683494E-2,-1.3530019E-3],"split_indices":[4,7,0,45,75,30,68,27,34,0,0,0,0,0,0,0,0],"split_type":[0,0,0,0,0,0,0,0,0,0,0,0,0,0,0,0,0],"sum_hessian":[1.69E3,1.685E3,5E0,8.4E1,1.601E3,6.8E1,1.6E1,1.581E3,2E1,9E0,5.9E1,8E0,8E0,9.91E2,5.9E2,8E0,1.2E1],"tree_param":{"num_deleted":"0","num_feature":"80","num_nodes":"17","size_leaf_vector":"1"}},{"base_weights":[-1.5920042E-3,-5.7047885E-3,2.9019155E-2,-1.146356E-2,6.249291E-1,-6.493747E-2,2.8506316E-2,4.225625E-2,2.4680574E-3,2.2674287E-2,-2.1588695E-3,6.585168E-4,2.6799068E-2],"categories":[],"categories_nodes":[],"categories_segments":[],"categories_sizes":[],"default_left":[0,0,0,0,0,0,0,0,0,0,0,0,0],"id":8,"left_children":[1,3,-1,5,7,9,11,-1,-1,-1,-1,-1,-1],"loss_changes":[6.599947E0,6.0216126E0,0E0,3.5513504E0,6.1135745E0,4.085365E0,5.269119E0,0E0,0E0,0E0,0E0,0E0,0E0],"parents":[2147483647,0,0,1,1,3,3,4,4,5,5,6,6],"right_children":[2,4,-1,6,8,10,12,-1,-1,-1,-1,-1,-1],"split_conditions":[3.1E0,5.085E1,2.9019155E-2,3.0444446E0,2.2E0,-1.7804878E0,3.1666667E0,4.225625E-2,2.4680574E-3,2.2674287E-2,-2.1588695E-3,6.585168E-4,2.6799068E-2],"split_indices":[18,24,0,43,51,60,13,0,0,0,0,0,0],"split_type":[0,0,0,0,0,0,0,0,0,0,0,0,0],"sum_hessian":[1.678E3,1.672E3,6E0,1.658E3,1.4E1,7.1E2,9.48E2,5E0,9E0,5E0,7.05E2,9.42E2,6E0],"tree_param":{"num_deleted":"0","num_feature":"80","num_nodes":"13","size_leaf_vector":"1"}},{"base_weights":[4.7432114E-3,-7.465117E-4,6.5658975E-1,-4.8437226E-3,2.8332211E-2,4.6021175E-2,-0E0,-2.786819E-2,8.766854E-2,6.074112E-4,-1.673873E-3,9.8510245E-3,6.4134825E-4],"categories":[],"categories_nodes":[],"categories_segments":[],"categories_sizes":[],"default_left":[0,0,0,0,0,0,0,0,0,0,0,0,0],"id":9,"left_children":[1,3,5,7,-1,-1,-1,9,11,-1,-1,-1,-1],"loss_changes":[5.999157E0,6.2808695E0,8.084114E0,3.487608E0,0E0,0E0,0E0,1.7703615E0,5.1596603E0,0E0,0E0,0E0,0E0],"parents":[2147483647,0,0,1,1,2,2,3,3,7,7,8,8],"right_children":[2,4,6,8,-1,-1,-1,10,12,-1,-1,-1,-1],"split_conditions":[5.085E1,3.1E0,-2.3567073E0,2.3529413E0,2.8332211E-2,4.6021175E-2,-0E0,1.375E0,-1.902439E0,6.074112E-4,-1.673873E-3,9.8510245E-3,6.4134825E-4],"split_indices":[24,18,28,68,0,0,0,61,7,0,0,0,0],"split_type":[0,0,0,0,0,0,0,0,0,0,0,0,0],"sum_hessian":[1.657E3,1.644E3,1.3E1,1.638E3,6E0,5E0,8E0,1.313E3,3.25E2,4.81E2,8.32E2,6.9E1,2.56E2],"tree_param":{"num_deleted":"0","num_feature":"80","num_nodes":"13","size_leaf_vector":"1"}},{"base_weights":[1.7975152E-2,5.6177136E-3,3.2603315E-1,7.27053E-2,-3.1504072E-2,1.4661223E-1,1.1680965E0,5.72022E-2,3.0802978E-2,2.1340324E-1,-4.015297E-2,5.0952667E-1,-1.6970867E-2,8.1594E-3,5.558591E-2,1.3782264E-3,2.210057E-2,2.719935E-2,1.2423526E-4,-1.336313E-3,1.3100177E-2,-9.4811595E-4,3.4042466E-2,-4.5813997E-3,1.105138E-2],"categories":[],"categories_nodes":[],"categories_segments":[],"categories_sizes":[],"default_left":[0,0,0,0,0,0,0,0,0,0,0,0,0,0,0,0,0,0,0,0,0,0,0,0,0],"id":10,"left_children":[1,3,5,7,9,11,13,15,-1,17,19,21,23,-1,-1,-1,-1,-1,-1,-1,-1,-1,-1,-1,-1],"loss_changes":[6.3147583E0,4.0035205E0,9.366634E0,8.308055E0,2.1793227E0,3.2637022E0,6.033517E0,4.2112045E0,0E0,4.9825892E0,2.0717874E0,5.897734E0,2.0224085E0,0E0,0E0,0E0,0E0,0E0,0E0,0E0,0E0,0E0,0E0,0E0,0E0],"parents":[2147483647,0,0,1,1,2,2,3,3,4,4,5,5,6,6,7,7,9,9,10,10,11,11,12,12],"right_children":[2,4,6,8,10,12,14,16,-1,18,20,22,24,-1,-1,-1,-1,-1,-1,-1,-1,-1,-1,-1,-1],"split_conditions":[4.05E0,1.04E1,2.45E1,2.85E1,1.82E1,-3.4384146E0,1.03E1,4E0,3.0802978E-2,2.090909E0,1.9E0,4.77E1,3.0232558E-1,8.1594E-3,5.558591E-2,1.3782264E-3,2.210057E-2,2.719935E-2,1.2423526E-4,-1.336313E-3,1.3100177E-2,-9.4811595E-4,3.4042466E-2,-4.5813997E-3,1.105138E-2],"split_indices":[16,27,15,79,1,28,42,17,0,57,66,3,48,0,0,0,0,0,0,0,0,0,0,0,0],"split_type":[0,0,0,0,0,0,0,0,0,0,0,0,0,0,0,0,0,0,0,0,0,0,0,0,0],"sum_hessian":[1.667E3,1.604E3,6.3E1,5.72E2,1.032E3,5.3E1,1E1,5.64E2,8E0,3.4E1,9.98E2,1.6E1,3.7E1,5E0,5E0,5.56E2,8E0,7E0,2.7E1,9.9E2,8E0,9E0,7E0,2.8E1,9E0],"tree_param":{"num_deleted":"0","num_feature":"80","num_nodes":"25","size_leaf_vector":"1"}},{"base_weights":[4.984161E-3,9.07104E-4,3.3586483E-2,-3.0137785E-3,5.499199E-1,-6.8615344E-3,1.8618846E-2,2.5695E-2,2.5176927E-3,-1.4893444E-3,1.0727036E-3],"categories":[],"categories_nodes":[],"categories_segments":[],"categories_sizes":[],"default_left":[0,0,0,0,0,0,0,0,0,0,0],"id":11,"left_children":[1,3,-1,5,7,9,-1,-1,-1,-1,-1],"loss_changes":[7.4802074E0,3.6426039E0,0E0,3.9142568E0,1.5484622E0,3.0044005E0,0E0,0E0,0E0,0E0,0E0],"parents":[2147483647,0,0,1,1,3,3,4,4,5,5],"right_children":[2,4,-1,6,8,10,-1,-1,-1,-1,-1],"split_conditions":[3.1E0,3.1666667E0,3.3586483E-2,6.2161245E0,2.75E0,2.5396827E-1,1.8618846E-2,2.5695E-2,2.5176927E-3,-1.4893444E-3,1.0727036E-3],"split_indices":[18,13,0,7,66,65,0,0,0,0,0],"split_type":[0,0,0,0,0,0,0,0,0,0,0],"sum_hessian":[1.67E3,1.665E3,5E0,1.654E3,1.1E1,1.645E3,9E0,6E0,5E0,8.22E2,8.23E2],"tree_param":{"num_deleted":"0","num_feature":"80","num_nodes":"11","size_leaf_vector":"1"}},{"base_weights":[-1.4497322E-2,5.1461797E-2,-4.252553E-2,3.326735E-2,7.2000337E-1,-6.9434233E-3,-8.503711E-2,3.9450288E-1,1.4254561E-2,-2.4905477E-3,4.303359E-2,2.1643415E-2,-1.0489353E-1,-9.3310714E-2,1.0434916E-2,3.8150333E-2,-1.0682716E-3,-8.907764E-4,5.016109E-3,6.047583E-3,-1.9508625E-6,-4.367342E-3,7.603702E-3,-1.879697E-3,-4.9830936E-3],"categories":[],"categories_nodes":[],"categories_segments":[],"categories_sizes":[],"default_left":[0,0,0,0,0,0,0,0,0,0,0,0,0,0,0,0,0,0,0,0,0,0,0,0,0],"id":12,"left_children":[1,3,5,7,9,11,13,15,17,-1,-1,19,21,23,-1,-1,-1,-1,-1,-1,-1,-1,-1,-1,-1],"loss_changes":[3.0923474E0,5.9582653E0,1.7675769E0,3.2913945E0,7.71257E0,1.8082491E0,1.9194577E0,9.223692E0,3.1308491E0,0E0,0E0,1.9615843E0,2.1546903E0,1.138196E0,0E0,0E0,0E0,0E0,0E0,0E0,0E0,0E0,0E0,0E0,0E0],"parents":[2147483647,0,0,1,1,2,2,3,3,4,4,5,5,6,6,7,7,8,8,11,11,12,12,13,13],"right_children":[2,4,6,8,10,12,14,16,18,-1,-1,20,22,24,-1,-1,-1,-1,-1,-1,-1,-1,-1,-1,-1],"split_conditions":[1.02E1,3.6E0,2.75E0,8.793456E-1,4.375E1,1.22E1,2E0,2E0,1.5E1,-2.4905477E-3,4.303359E-2,1E0,2.0743902E0,1.1210526E1,1.0434916E-2,3.8150333E-2,-1.0682716E-3,-8.907764E-4,5.016109E-3,6.047583E-3,-1.9508625E-6,-4.367342E-3,7.603702E-3,-1.879697E-3,-4.9830936E-3],"split_indices":[27,17,51,39,24,67,66,51,11,0,0,61,55,64,0,0,0,0,0,0,0,0,0,0,0],"split_type":[0,0,0,0,0,0,0,0,0,0,0,0,0,0,0,0,0,0,0,0,0,0,0,0,0],"sum_hessian":[1.671E3,4.97E2,1.174E3,4.85E2,1.2E1,6.41E2,5.33E2,2.3E1,4.62E2,6E0,6E0,4.96E2,1.45E2,5.24E2,9E0,7E0,1.6E1,3.59E2,1.03E2,5.3E1,4.43E2,1.31E2,1.4E1,3.71E2,1.53E2],"tree_param":{"num_deleted":"0","num_feature":"80","num_nodes":"25","size_leaf_vector":"1"}},{"base_weights":[4.7854893E-3,-6.2319944E-3,3.4604523E-1,3.099858E-1,-1.586139E-2,5.0493143E-2,1.6962014E-1,8.12266E-2,1.0629734E0,-2.02807E-2,3.0968624E-1,-8.708076E-2,4.567768E-1,-5.7297167E-3,7.564337E-3,4.5399655E-2,1.256388E-2,-8.850847E-4,4.247539E-3,1.3023476E-3,2.8544128E-2,-7.2678234E-3,5.2630003E-3,-2.7305551E-3,1.984058E-2],"categories":[],"categories_nodes":[],"categories_segments":[],"categories_sizes":[],"default_left":[0,0,0,0,0,0,0,0,0,0,0,0,0,0,0,0,0,0,0,0,0,0,0,0,0],"id":13,"left_children":[1,3,5,7,9,-1,11,13,15,17,19,21,23,-1,-1,-1,-1,-1,-1,-1,-1,-1,-1,-1,-1],"loss_changes":[6.371441E0,4.9479666E0,1.2031454E1,8.067375E0,2.2591116E0,0E0,3.6149879E0,1.8222913E0,2.3641624E0,2.3306034E0,3.447918E0,1.108344E0,2.6947403E0,0E0,0E0,0E0,0E0,0E0,0E0,0E0,0E0,0E0,0E0,0E0,0E0],"parents":[2147483647,0,0,1,1,2,2,3,3,4,4,6,6,7,7,8,8,9,9,10,10,11,11,12,12],"right_children":[2,4,6,8,10,-1,12,14,16,18,20,22,24,-1,-1,-1,-1,-1,-1,-1,-1,-1,-1,-1,-1],"split_conditions":[4.1E0,5E-2,4.5E0,4.4444445E-1,5.88E1,5.0493143E-2,1.0333333E1,5.4857144E0,2.33E1,1.58E1,3.125E-1,2.11E1,1.5172414E0,-5.7297167E-3,7.564337E-3,4.5399655E-2,1.256388E-2,-8.850847E-4,4.247539E-3,1.3023476E-3,2.8544128E-2,-7.2678234E-3,5.2630003E-3,-2.7305551E-3,1.984058E-2],"split_indices":[16,72,32,38,76,0,22,45,6,32,49,15,68,0,0,0,0,0,0,0,0,0,0,0,0],"split_type":[0,0,0,0,0,0,0,0,0,0,0,0,0,0,0,0,0,0,0,0,0,0,0,0,0],"sum_hessian":[1.684E3,1.632E3,5.2E1,4.7E1,1.585E3,5E0,4.7E1,3.7E1,1E1,1.565E3,2E1,2.5E1,2.2E1,1.4E1,2.3E1,5E0,5E0,1.482E3,8.3E1,1.5E1,5E0,1.6E1,9E0,6E0,1.6E1],"tree_param":{"num_deleted":"0","num_feature":"80","num_nodes":"25","size_leaf_vector":"1"}},{"base_weights":[7.054121E-4,-2.6131154E-3,2.8194154E-2,-8.975474E-3,2.8328538E-1,1.5980624E-1,-1.9453244E-2,2.805067E-2,1.447787E-1,1.4565472E-3,1.708751E-2,1.5074068E-2,-6.6693785E-4,-3.0831965E-3,8.732127E-3],"categories":[],"categories_nodes":[],"categories_segments":[],"categories_sizes":[],"default_left":[0,0,0,0,0,0,0,0,0,0,0,0,0,0,0],"id":14,"left_children":[1,3,-1,5,7,9,11,-1,13,-1,-1,-1,-1,-1,-1],"loss_changes":[5.30996E0,3.0091853E0,0E0,2.8769617E0,3.0063658E0,4.2415495E0,2.1945572E0,0E0,1.1714063E0,0E0,0E0,0E0,0E0,0E0,0E0],"parents":[2147483647,0,0,1,1,3,3,4,4,5,5,6,6,8,8],"right_children":[2,4,-1,6,8,10,12,-1,14,-1,-1,-1,-1,-1,-1],"split_conditions":[1.98E1,5.8E1,2.8194154E-2,-3.4654472E0,8.890909E-1,1.3571428E0,7.8688526E-1,2.805067E-2,5E-1,1.4565472E-3,1.708751E-2,1.5074068E-2,-6.6693785E-4,-3.0831965E-3,8.732127E-3],"split_indices":[4,76,0,7,39,66,56,0,41,0,0,0,0,0,0],"split_type":[0,0,0,0,0,0,0,0,0,0,0,0,0,0,0],"sum_hessian":[1.672E3,1.667E3,5E0,1.632E3,3.5E1,9.4E1,1.538E3,5E0,3E1,7.5E1,1.9E1,7E0,1.531E3,1.1E1,1.9E1],"tree_param":{"num_deleted":"0","num_feature":"80","num_nodes":"15","size_leaf_vector":"1"}},{"base_weights":[-3.746292E-3,-7.163276E-3,2.1053657E-2,-9.610777E-3,1.6946297E-2,-1.2965935E-2,3.819985E-1,-5.131447E-4,7.637016E-3,3.196714E-2,-3.1514987E-3],"categories":[],"categories_nodes":[],"categories_segments":[],"categories_sizes":[],"default_left":[0,0,0,0,0,0,0,0,0,0,0],"id":15,"left_children":[1,3,-1,5,-1,7,9,-1,-1,-1,-1],"loss_changes":[4.002587E0,2.3020158E0,0E0,2.1675375E0,0E0,1.819817E0,4.869055E0,0E0,0E0,0E0,0E0],"parents":[2147483647,0,0,1,1,3,3,5,5,6,6],"right_children":[2,4,-1,6,-1,8,10,-1,-1,-1,-1],"split_conditions":[3.1E0,1.04E1,2.1053657E-2,2.8636364E1,1.6946297E-2,5.88E1,1.05E0,-5.131447E-4,7.637016E-3,3.196714E-2,-3.1514987E-3],"split_indices":[18,47,0,79,0,76,34,0,0,0,0],"split_type":[0,0,0,0,0,0,0,0,0,0,0],"sum_hessian":[1.686E3,1.679E3,7E0,1.673E3,6E0,1.66E3,1.3E1,1.636E3,2.4E1,5E0,8E0],"tree_param":{"num_deleted":"0","num_feature":"80","num_nodes":"11","size_leaf_vector":"1"}},{"base_weights":[4.268349E-3,-2.775815E-3,4.6709538E-1,-5.396962E-3,2.0714317E-2,4.197597E-2,1.5910947E-1,1.7831748E-2,-8.422881E-3,2.4027804E-2,-3.0467424E-3,-5.5615505E-4,4.050117E-3],"categories":[],"categories_nodes":[],"categories_segments":[],"categories_sizes":[],"default_left":[0,0,0,0,0,0,0,0,0,0,0,0,0],"id":16,"left_children":[1,3,5,7,-1,-1,9,-1,11,-1,-1,-1,-1],"loss_changes":[5.436888E0,2.8953035E0,6.798413E0,2.893827E0,0E0,0E0,3.4972963E0,0E0,2.336882E0,0E0,0E0,0E0,0E0],"parents":[2147483647,0,0,1,1,2,2,3,3,6,6,8,8],"right_children":[2,4,6,8,-1,-1,10,-1,12,-1,-1,-1,-1],"split_conditions":[1.675E1,1.025E1,5E-2,7.8688526E-1,2.0714317E-2,4.197597E-2,2.105E1,1.7831748E-2,2.6809525E1,2.4027804E-2,-3.0467424E-3,-5.5615505E-4,4.050117E-3],"split_indices":[4,47,72,56,0,0,8,0,79,0,0,0,0],"split_type":[0,0,0,0,0,0,0,0,0,0,0,0,0],"sum_hessian":[1.652E3,1.628E3,2.4E1,1.623E3,5E0,5E0,1.9E1,7E0,1.616E3,5E0,1.4E1,1.511E3,1.05E2],"tree_param":{"num_deleted":"0","num_feature":"80","num_nodes":"13","size_leaf_vector":"1"}},{"base_weights":[-2.7773783E-3,-1.404893E-2,2.8104645E-1,-1.7628321E-2,2.0571496E-2,1.3554756E-1,3.3836037E-2,4.2427607E-2,-5.0211813E-2,5.8267164E-1,2.1016179E-2,1.3978963E-4,5.9647504E-3,-1.6670785E-3,1.0073891E-2,3.6343788E-3,2.791256E-2,9.888786E-3,-2.2115659E-3],"categories":[],"categories_nodes":[],"categories_segments":[],"categories_sizes":[],"default_left":[0,0,0,0,0,0,0,0,0,0,0,0,0,0,0,0,0,0,0],"id":17,"left_children":[1,3,5,7,-1,9,-1,11,13,15,17,-1,-1,-1,-1,-1,-1,-1,-1],"loss_changes":[5.2782154E0,3.9403322E0,7.483108E0,3.110358E0,0E0,2.7439215E0,0E0,3.274725E0,2.1227727E0,1.5475633E0,1.3655187E0,0E0,0E0,0E0,0E0,0E0,0E0,0E0,0E0],"parents":[2147483647,0,0,1,1,2,2,3,3,5,5,7,7,8,8,9,9,10,10],"right_children":[2,4,6,8,-1,10,-1,12,14,16,18,-1,-1,-1,-1,-1,-1,-1,-1],"split_conditions":[1.65E0,3.05E0,2.3E0,1.04E1,2.0571496E-2,1.76E1,3.3836037E-2,2.3529413E0,1.815E1,4.4E1,9.333333E0,1.3978963E-4,5.9647504E-3,-1.6670785E-3,1.0073891E-2,3.6343788E-3,2.791256E-2,9.888786E-3,-2.2115659E-3],"split_indices":[34,18,13,27,0,15,0,68,75,12,22,0,0,0,0,0,0,0,0],"split_type":[0,0,0,0,0,0,0,0,0,0,0,0,0,0,0,0,0,0,0],"sum_hessian":[1.656E3,1.594E3,6.2E1,1.587E3,7E0,5.4E1,8E0,5.57E2,1.03E3,1E1,4.4E1,4.5E2,1.07E2,1.017E3,1.3E1,5E0,5E0,1E1,3.4E1],"tree_param":{"num_deleted":"0","num_feature":"80","num_nodes":"19","size_leaf_vector":"1"}},{"base_weights":[-9.123812E-3,-1.2777027E-2,1.782202E-2,-1.9329324E-2,3.9993912E-1,-2.2868784E-2,4.5767418E-1,8.3672255E-1,-8.120917E-4,-8.107116E-4,9.83316E-3,-7.086556E-3,3.6228098E-2,3.8462188E-2,2.6040464E-3],"categories":[],"categories_nodes":[],"categories_segments":[],"categories_sizes":[],"default_left":[0,0,0,0,0,0,0,0,0,0,0,0,0,0,0],"id":18,"left_children":[1,3,-1,5,7,9,11,13,-1,-1,-1,-1,-1,-1,-1],"loss_changes":[3.662505E0,4.501974E0,0E0,2.754426E0,4.952885E0,2.368082E0,6.6268415E0,4.0935354E0,0E0,0E0,0E0,0E0,0E0,0E0,0E0],"parents":[2147483647,0,0,1,1,3,3,4,4,5,5,6,6,7,7],"right_children":[2,4,-1,6,8,10,12,14,-1,-1,-1,-1,-1,-1,-1],"split_conditions":[6.2161245E0,1.95E0,1.782202E-2,3.08E1,3E0,8E0,2.1E1,1.2E0,-8.120917E-4,-8.107116E-4,9.83316E-3,-7.086556E-3,3.6228098E-2,3.8462188E-2,2.6040464E-3],"split_indices":[7,34,0,6,61,73,15,21,0,0,0,0,0,0,0],"split_type":[0,0,0,0,0,0,0,0,0,0,0,0,0,0,0],"sum_hessian":[1.684E3,1.675E3,9E0,1.65E3,2.5E1,1.639E3,1.1E1,1.2E1,1.3E1,1.621E3,1.8E1,6E0,5E0,7E0,5E0],"tree_param":{"num_deleted":"0","num_feature":"80","num_nodes":"15","size_leaf_vector":"1"}},{"base_weights":[1.2059422E-2,8.8694235E-3,2.642202E-2,-6.6247705E-4,2.7068338E-1,-5.797778E-3,3.2135293E-1,1.3119969E-1,3.3929758E-2,-2.76258E-4,1.2005706E-2,2.6524937E-2,2.7547437E-3,1.3044549E-2,-1.1816162E-3],"categories":[],"categories_nodes":[],"categories_segments":[],"categories_sizes":[],"default_left":[0,0,0,0,0,0,0,0,0,0,0,0,0,0,0],"id":19,"left_children":[1,3,-1,5,7,9,11,13,-1,-1,-1,-1,-1,-1,-1],"loss_changes":[4.5420003E0,4.1923122E0,0E0,2.6343312E0,6.805337E0,2.1621904E0,3.0507405E0,2.7499242E0,0E0,0E0,0E0,0E0,0E0,0E0,0E0],"parents":[2147483647,0,0,1,1,3,3,4,4,5,5,6,6,7,7],"right_children":[2,4,-1,6,8,10,12,14,-1,-1,-1,-1,-1,-1,-1],"split_conditions":[1.98E1,1.6666666E0,2.642202E-2,5.86E1,2.3E0,3.08E1,8.9705884E-1,9.041096E-1,3.3929758E-2,-2.76258E-4,1.2005706E-2,2.6524937E-2,2.7547437E-3,1.3044549E-2,-1.1816162E-3],"split_indices":[4,34,0,76,13,6,56,56,0,0,0,0,0,0,0],"split_type":[0,0,0,0,0,0,0,0,0,0,0,0,0,0,0],"sum_hessian":[1.673E3,1.668E3,5E0,1.61E3,5.8E1,1.586E3,2.4E1,5.1E1,7E0,1.574E3,1.2E1,6E0,1.8E1,1.8E1,3.3E1],"tree_param":{"num_deleted":"0","num_feature":"80","num_nodes":"15","size_leaf_vector":"1"}},{"base_weights":[-5.0445176E-3,-8.1355525E-3,2.558586E-2,-4.5888364E-2,2.5511924E-2,-1.1062717E-1,-1.1829428E-2,1.9945276E-1,5.3500006E-4,-4.6157534E-3,-6.988303E-4,5.287714E-3,-1.0433608E-3,3.2135115E-3,2.109789E-2,-1.5121991E-4,1.6656041E-2],"categories":[],"categories_nodes":[],"categories_segments":[],"categories_sizes":[],"default_left":[0,0,0,0,0,0,0,0,0,0,0,0,0,0,0,0,0],"id":20,"left_children":[1,3,-1,5,7,9,11,13,15,-1,-1,-1,-1,-1,-1,-1,-1],"loss_changes":[4.43321E0,2.157615E0,0E0,1.7525986E0,3.8725724E0,1.0169659E0,2.2667503E0,5.053833E0,2.485532E0,0E0,0E0,0E0,0E0,0E0,0E0,0E0,0E0],"parents":[2147483647,0,0,1,1,3,3,4,4,5,5,6,6,7,7,8,8],"right_children":[2,4,-1,6,8,10,12,14,16,-1,-1,-1,-1,-1,-1,-1,-1],"split_conditions":[2E1,5.125E0,2.558586E-2,1.8888888E0,2.025E1,2.4028572E1,8.852773E-1,6.6666665E0,4.25E0,-4.6157534E-3,-6.988303E-4,5.287714E-3,-1.0433608E-3,3.2135115E-3,2.109789E-2,-1.5121991E-4,1.6656041E-2],"split_indices":[4,29,0,58,1,79,39,47,16,0,0,0,0,0,0,0,0],"split_type":[0,0,0,0,0,0,0,0,0,0,0,0,0,0,0,0,0],"sum_hessian":[1.7E3,1.695E3,5E0,8E2,8.95E2,2.74E2,5.26E2,1.11E2,7.84E2,1.82E2,9.2E1,5.6E1,4.7E2,9.5E1,1.6E1,7.77E2,7E0],"tree_param":{"num_deleted":"0","num_feature":"80","num_nodes":"17","size_leaf_vector":"1"}},{"base_weights":[2.529684E-3,-5.4156117E-4,2.6269563E-2,-9.066384E-3,2.1963716E-1,1.733081E-2,-1.1678863E-2,3.123241E-2,5.8616996E-2,-6.1199383E-4,4.306219E-3,-7.094525E-3,4.8881094E-3],"categories":[],"categories_nodes":[],"categories_segments":[],"categories_sizes":[],"default_left":[0,0,0,0,0,0,0,0,0,0,0,0,0],"id":21,"left_children":[1,3,-1,5,7,-1,9,-1,11,-1,-1,-1,-1],"loss_changes":[4.5903463E0,3.1230063E0,0E0,2.4227111E0,8.029677E0,0E0,2.1659434E0,0E0,1.6627797E0,0E0,0E0,0E0,0E0],"parents":[2147483647,0,0,1,1,3,3,4,4,6,6,8,8],"right_children":[2,4,-1,6,8,-1,10,-1,12,-1,-1,-1,-1],"split_conditions":[1.98E1,4.05E0,2.6269563E-2,7.8688526E-1,4.8E0,1.733081E-2,9.203199E-1,3.123241E-2,4.365E1,-6.1199383E-4,4.306219E-3,-7.094525E-3,4.8881094E-3],"split_indices":[4,16,0,56,32,0,62,0,59,0,0,0,0],"split_type":[0,0,0,0,0,0,0,0,0,0,0,0,0],"sum_hessian":[1.678E3,1.673E3,5E0,1.612E3,6.1E1,6E0,1.606E3,9E0,5.2E1,1.522E3,8.4E1,1.3E1,3.9E1],"tree_param":{"num_deleted":"0","num_feature":"80","num_nodes":"13","size_leaf_vector":"1"}},{"base_weights":[-7.976041E-3,-1.10307215E-2,2.47919E-2,1.7836254E-2,-1.3999162E-2,3.960022E-2,-4.339678E-2,5.9560305E-3,9.654272E-5,1.4344922E-3,-1.9595856E-3],"categories":[],"categories_nodes":[],"categories_segments":[],"categories_sizes":[],"default_left":[0,0,0,0,0,0,0,0,0,0,0],"id":22,"left_children":[1,3,-1,-1,5,7,9,-1,-1,-1,-1],"loss_changes":[4.1941724E0,2.9504745E0,0E0,0E0,2.6209016E0,3.3792152E0,2.1544905E0,0E0,0E0,0E0,0E0],"parents":[2147483647,0,0,1,1,4,4,5,5,6,6],"right_children":[2,4,-1,-1,6,8,10,-1,-1,-1,-1],"split_conditions":[3E0,2E0,2.47919E-2,1.7836254E-2,1.04E1,8.8963777E-1,-1.9804878E0,5.9560305E-3,9.654272E-5,1.4344922E-3,-1.9595856E-3],"split_indices":[26,73,0,0,27,56,7,0,0,0,0],"split_type":[0,0,0,0,0,0,0,0,0,0,0],"sum_hessian":[1.673E3,1.668E3,5E0,7E0,1.661E3,5.87E2,1.074E3,1.08E2,4.79E2,2.07E2,8.67E2],"tree_param":{"num_deleted":"0","num_feature":"80","num_nodes":"11","size_leaf_vector":"1"}},{"base_weights":[6.6662924E-3,2.304092E-2,3.438135E-3,-1.3660454E-3,4.297711E-1,-7.162281E-3,3.4704846E-1,4.0595684E-2,-0E0,-4.2208596E-4,5.392722E-3,1.8466124E-4,3.4302004E-2],"categories":[],"categories_nodes":[],"categories_segments":[],"categories_sizes":[],"default_left":[0,0,0,0,0,0,0,0,0,0,0,0,0],"id":23,"left_children":[1,-1,3,5,7,9,11,-1,-1,-1,-1,-1,-1],"loss_changes":[4.073901E0,0E0,3.4925635E0,3.3329716E0,7.477369E0,2.1033666E0,7.207718E0,0E0,0E0,0E0,0E0,0E0,0E0],"parents":[2147483647,0,0,2,2,3,3,4,4,5,5,6,6],"right_children":[2,-1,4,6,8,10,12,-1,-1,-1,-1,-1,-1],"split_conditions":[7.8688526E-1,2.304092E-2,1.55E0,1.6666666E1,2E-1,4.1E0,2.15E1,4.0595684E-2,-0E0,-4.2208596E-4,5.392722E-3,1.8466124E-4,3.4302004E-2],"split_indices":[56,0,60,4,38,16,5,0,0,0,0,0,0],"split_type":[0,0,0,0,0,0,0,0,0,0,0,0,0],"sum_hessian":[1.689E3,6E0,1.683E3,1.665E3,1.8E1,1.639E3,2.6E1,5E0,1.3E1,1.582E3,5.7E1,1.9E1,7E0],"tree_param":{"num_deleted":"0","num_feature":"80","num_nodes":"13","size_leaf_vector":"1"}},{"base_weights":[-7.953589E-3,-1.1317755E-2,2.3718659E-2,1.8028904E-1,-2.2024618E-2,9.7817816E-2,2.971749E-2,9.2694685E-3,-6.318522E-2,-4.454221E-3,6.903782E-3,1.12009024E-4,1.8593283E-2,-2.8803805E-3,-0E0],"categories":[],"categories_nodes":[],"categories_segments":[],"categories_sizes":[],"default_left":[0,0,0,0,0,0,0,0,0,0,0,0,0,0,0],"id":24,"left_children":[1,3,-1,5,7,9,-1,11,13,-1,-1,-1,-1,-1,-1],"loss_changes":[4.484704E0,3.4531407E0,0E0,5.7417717E0,2.0681992E0,2.7144215E0,0E0,3.0074499E0,1.436892E0,0E0,0E0,0E0,0E0,0E0,0E0],"parents":[2147483647,0,0,1,1,3,3,4,4,5,5,7,7,8,8],"right_children":[2,4,-1,6,8,10,-1,12,14,-1,-1,-1,-1,-1,-1],"split_conditions":[3.1E0,6.25E-2,2.3718659E-2,4.237805E0,6E-1,4.2794117E1,2.971749E-2,5.92E1,2.22E1,-4.454221E-3,6.903782E-3,1.12009024E-4,1.8593283E-2,-2.8803805E-3,-0E0],"split_indices":[18,49,0,7,46,12,0,76,6,0,0,0,0,0,0],"split_type":[0,0,0,0,0,0,0,0,0,0,0,0,0,0,0],"sum_hessian":[1.694E3,1.688E3,6E0,8.8E1,1.6E3,8.1E1,7E0,9.08E2,6.92E2,2.8E1,5.3E1,9.01E2,7E0,4.55E2,2.37E2],"tree_param":{"num_deleted":"0","num_feature":"80","num_nodes":"15","size_leaf_vector":"1"}},{"base_weights":[6.942607E-3,4.0751332E-3,2.4018416E-2,8.531351E-4,2.3040308E-2,-3.2707147E-2,4.7797386E-2,9.990015E-3,-1.1870976E-3,1.1613054E-3,2.8101064E-2],"categories":[],"categories_nodes":[],"categories_segments":[],"categories_sizes":[],"default_left":[0,0,0,0,0,0,0,0,0,0,0],"id":25,"left_children":[1,3,-1,5,-1,7,9,-1,-1,-1,-1],"loss_changes":[3.7920098E0,4.101912E0,0E0,2.6687546E0,0E0,2.4584665E0,5.577104E0,0E0,0E0,0E0,0E0],"parents":[2147483647,0,0,1,1,3,3,5,5,6,6],"right_children":[2,4,-1,6,-1,8,10,-1,-1,-1,-1],"split_conditions":[5.15E1,3.1E0,2.4018416E-2,2.101266E0,2.3040308E-2,2E0,1.647561E0,9.990015E-3,-1.1870976E-3,1.1613054E-3,2.8101064E-2],"split_indices":[24,18,0,68,0,63,60,0,0,0,0],"split_type":[0,0,0,0,0,0,0,0,0,0,0],"sum_hessian":[1.702E3,1.697E3,5E0,1.691E3,6E0,9.85E2,7.06E2,1.7E1,9.68E2,7E2,6E0],"tree_param":{"num_deleted":"0","num_feature":"80","num_nodes":"11","size_leaf_vector":"1"}},{"base_weights":[8.103445E-3,4.621342E-3,2.8395118E-2,4.9561642E-2,-3.6799125E-2,4.2754423E-2,2.3776475E-2,-4.26653E-2,2.0019934E-2,-7.466294E-4,2.536218E-3,-2.4987902E-3,6.144957E-4],"categories":[],"categories_nodes":[],"categories_segments":[],"categories_sizes":[],"default_left":[0,0,0,0,0,0,0,0,0,0,0,0,0],"id":26,"left_children":[1,3,-1,5,7,9,-1,11,-1,-1,-1,-1,-1],"loss_changes":[5.301869E0,3.0707667E0,0E0,3.888267E0,3.505886E0,2.2297008E0,0E0,2.1912942E0,0E0,0E0,0E0,0E0,0E0],"parents":[2147483647,0,0,1,1,3,3,4,4,5,5,7,7],"right_children":[2,4,-1,6,8,10,-1,12,-1,-1,-1,-1,-1],"split_conditions":[3.1E0,2.5E0,2.8395118E-2,1.74E1,5.4E0,2.245E1,2.3776475E-2,5.6875E0,2.0019934E-2,-7.466294E-4,2.536218E-3,-2.4987902E-3,6.144957E-4],"split_indices":[18,51,0,4,74,36,0,45,0,0,0,0,0],"split_type":[0,0,0,0,0,0,0,0,0,0,0,0,0],"sum_hessian":[1.652E3,1.647E3,5E0,7.91E2,8.56E2,7.85E2,6E0,8.5E2,6E0,2.99E2,4.86E2,5.18E2,3.32E2],"tree_param":{"num_deleted":"0","num_feature":"80","num_nodes":"13","size_leaf_vector":"1"}},{"base_weights":[-4.9323756E-3,-1.3199342E-2,2.2903708E-1,-3.3163562E-2,6.724504E-2,9.6757226E-2,4.028009E-2,-8.87574E-2,-9.882066E-3,4.5377035E-2,2.4785731E-2,-6.1345147E-3,2.7405322E-1,-3.0089002E-3,6.6352696E-3,1.4867552E-2,-4.7931817E-4,-4.7106284E-4,7.72103E-3,1.9994034E-2,-8.688106E-4],"categories":[],"categories_nodes":[],"categories_segments":[],"categories_sizes":[],"default_left":[0,0,0,0,0,0,0,0,0,0,0,0,0,0,0,0,0,0,0,0,0],"id":27,"left_children":[1,3,5,7,9,11,-1,13,15,17,-1,-1,19,-1,-1,-1,-1,-1,-1,-1,-1],"loss_changes":[3.2889516E0,2.6535552E0,8.270191E0,1.7055111E0,5.319048E0,2.8936644E0,0E0,1.404892E0,2.8467855E0,4.171633E0,0E0,0E0,4.125888E0,0E0,0E0,0E0,0E0,0E0,0E0,0E0,0E0],"parents":[2147483647,0,0,1,1,2,2,3,3,4,4,5,5,7,7,8,8,9,9,12,12],"right_children":[2,4,6,8,10,12,-1,14,16,18,-1,-1,20,-1,-1,-1,-1,-1,-1,-1,-1],"split_conditions":[4.05E0,2.357143E0,5.555556E-1,4.5E0,3E1,-6.109756E-1,4.028009E-2,5.58E1,1.75E0,6.1392407E0,2.4785731E-2,-6.1345147E-3,1.025E1,-3.0089002E-3,6.6352696E-3,1.4867552E-2,-4.7931817E-4,-4.7106284E-4,7.72103E-3,1.9994034E-2,-8.688106E-4],"split_indices":[16,68,10,9,1,60,0,3,57,45,0,0,27,0,0,0,0,0,0,0,0],"split_type":[0,0,0,0,0,0,0,0,0,0,0,0,0,0,0,0,0,0,0,0,0],"sum_hessian":[1.709E3,1.652E3,5.7E1,1.325E3,3.27E2,5.2E1,5E0,3.89E2,9.36E2,3.19E2,8E0,1.9E1,3.3E1,3.76E2,1.3E1,1E1,9.26E2,2.48E2,7.1E1,1.4E1,1.9E1],"tree_param":{"num_deleted":"0","num_feature":"80","num_nodes":"21","size_leaf_vector":"1"}},{"base_weights":[2.213444E-3,-4.86306E-2,3.761965E-2,-5.7771713E-2,3.5624775E-1,2.7218912E-2,3.2479265E-1,1.587353E-2,-8.4042E-2,2.8765766E-2,-9.2831085E-4,2.0648628E-2,2.1066997E-2,3.443732E-2,1.0384197E-1,-5.3537847E-4,1.0813011E-2,-3.2326283E-3,1.2848087E-3,1.7968218E-3,-2.0447958E-3,1.5868755E-2,-1.7487038E-3],"categories":[],"categories_nodes":[],"categories_segments":[],"categories_sizes":[],"default_left":[0,0,0,0,0,0,0,0,0,0,0,0,0,0,0,0,0,0,0,0,0,0,0],"id":28,"left_children":[1,3,5,7,9,11,13,15,17,-1,-1,19,-1,-1,21,-1,-1,-1,-1,-1,-1,-1,-1],"loss_changes":[3.003453E0,2.5222435E0,2.8979669E0,1.3043876E0,3.6223502E0,4.135366E0,5.9391527E0,2.0855277E0,1.5002422E0,0E0,0E0,3.293405E0,0E0,0E0,2.0078008E0,0E0,0E0,0E0,0E0,0E0,0E0,0E0,0E0],"parents":[2147483647,0,0,1,1,2,2,3,3,4,4,5,5,6,6,7,7,8,8,11,11,14,14],"right_children":[2,4,6,8,10,12,14,16,18,-1,-1,20,-1,-1,22,-1,-1,-1,-1,-1,-1,-1,-1],"split_conditions":[3.0232558E0,1.9285715E0,1.2560976E0,4.3532257E1,3.2E0,2.85E1,2.5E0,1.25E1,2.25E0,2.8765766E-2,-9.2831085E-4,2.1864407E0,2.1066997E-2,3.443732E-2,9.666667E0,-5.3537847E-4,1.0813011E-2,-3.2326283E-3,1.2848087E-3,1.7968218E-3,-2.0447958E-3,1.5868755E-2,-1.7487038E-3],"split_indices":[43,34,60,12,51,79,57,23,2,0,0,0,0,0,20,0,0,0,0,0,0,0,0],"split_type":[0,0,0,0,0,0,0,0,0,0,0,0,0,0,0,0,0,0,0,0,0,0,0],"sum_hessian":[1.667E3,6.83E2,9.84E2,6.69E2,1.4E1,9.51E2,3.3E1,1.75E2,4.94E2,5E0,9E0,9.43E2,8E0,6E0,2.7E1,1.6E2,1.5E1,4.17E2,7.7E1,6.55E2,2.88E2,7E0,2E1],"tree_param":{"num_deleted":"0","num_feature":"80","num_nodes":"23","size_leaf_vector":"1"}},{"base_weights":[-5.6778933E-3,-1.0312846E-2,4.713311E-1,-1.3377068E-2,2.1119123E-2,-1.4502915E-3,3.4820262E-2,-3.3008903E-2,6.773874E-2,-5.3221537E-3,-6.8260235E-4,-3.139414E-4,1.258615E-2],"categories":[],"categories_nodes":[],"categories_segments":[],"categories_sizes":[],"default_left":[0,0,0,0,0,0,0,0,0,0,0,0,0],"id":29,"left_children":[1,3,5,7,-1,-1,-1,9,11,-1,-1,-1,-1],"loss_changes":[3.6775165E0,3.5889597E0,5.8990955E0,2.643826E0,0E0,0E0,0E0,1.9588116E0,8.931655E0,0E0,0E0,0E0,0E0],"parents":[2147483647,0,0,1,1,2,2,3,3,7,7,8,8],"right_children":[2,4,6,8,-1,-1,-1,10,12,-1,-1,-1,-1],"split_conditions":[5.085E1,3.1E0,5.1463413E0,2.3529413E0,2.1119123E-2,-1.4502915E-3,3.4820262E-2,7.692308E-2,6.2E0,-5.3221537E-3,-6.8260235E-4,-3.139414E-4,1.258615E-2],"split_indices":[24,18,73,68,0,0,0,65,47,0,0,0,0],"split_type":[0,0,0,0,0,0,0,0,0,0,0,0,0],"sum_hessian":[1.681E3,1.666E3,1.5E1,1.66E3,6E0,9E0,6E0,1.338E3,3.22E2,8.7E1,1.251E3,2.64E2,5.8E1],"tree_param":{"num_deleted":"0","num_feature":"80","num_nodes":"13","size_leaf_vector":"1"}},{"base_weights":[7.6119294E-3,4.701865E-3,2.0831874E-2,1.965057E-2,1.9348287E-3,-7.946715E-2,1.7137777E-2,4.5510524E-4,-4.192936E-3,3.9842818E-4,1.3807E-2],"categories":[],"categories_nodes":[],"categories_segments":[],"categories_sizes":[],"default_left":[0,0,0,0,0,0,0,0,0,0,0],"id":30,"left_children":[1,3,-1,-1,5,7,9,-1,-1,-1,-1],"loss_changes":[3.3144271E0,2.97231E0,0E0,0E0,2.0779257E0,1.5210651E0,2.373242E0,0E0,0E0,0E0,0E0],"parents":[2147483647,0,0,1,1,4,4,5,5,6,6],"right_children":[2,4,-1,-1,6,8,10,-1,-1,-1,-1],"split_conditions":[3.1E0,2E0,2.0831874E-2,1.965057E-2,1.6666667E-1,-1.0341463E0,1.6E0,4.5510524E-4,-4.192936E-3,3.9842818E-4,1.3807E-2],"split_indices":[18,73,0,0,65,7,50,0,0,0,0],"split_type":[0,0,0,0,0,0,0,0,0,0,0],"sum_hessian":[1.694E3,1.688E3,6E0,6E0,1.682E3,2.63E2,1.419E3,1.02E2,1.61E2,1.408E3,1.1E1],"tree_param":{"num_deleted":"0","num_feature":"80","num_nodes":"11","size_leaf_vector":"1"}},{"base_weights":[-6.1928527E-3,-1.0835759E-2,4.7690034E-1,1.8599796E-1,-1.9417148E-2,3.518308E-2,-1.4369382E-3,6.5252733E-1,7.6500036E-2,-3.6464423E-2,5.454504E-2,3.2860957E-2,-9.003325E-4,5.340995E-3,-4.6039294E-3,-1.1799268E-3,1.4714693E-2,1.908742E-2,1.0249277E-3],"categories":[],"categories_nodes":[],"categories_segments":[],"categories_sizes":[],"default_left":[0,0,0,0,0,0,0,0,0,0,0,0,0,0,0,0,0,0,0],"id":31,"left_children":[1,3,5,7,9,-1,-1,11,13,15,17,-1,-1,-1,-1,-1,-1,-1,-1],"loss_changes":[3.7715878E0,2.8330982E0,6.0117145E0,3.4530585E0,2.0377204E0,0E0,0E0,4.0687094E0,1.3840207E0,1.9604836E0,3.491598E0,0E0,0E0,0E0,0E0,0E0,0E0,0E0,0E0],"parents":[2147483647,0,0,1,1,2,2,3,3,4,4,7,7,8,8,9,9,10,10],"right_children":[2,4,6,8,10,-1,-1,12,14,16,18,-1,-1,-1,-1,-1,-1,-1,-1],"split_conditions":[5.085E1,1.99E1,9.0909094E-1,5.4E0,3.272727E-1,3.518308E-2,-1.4369382E-3,4.822222E1,5.188889E1,5.69E1,8.88024E-1,3.2860957E-2,-9.003325E-4,5.340995E-3,-4.6039294E-3,-1.1799268E-3,1.4714693E-2,1.908742E-2,1.0249277E-3],"split_indices":[24,69,50,32,65,0,0,3,3,3,62,0,0,0,0,0,0,0,0],"split_type":[0,0,0,0,0,0,0,0,0,0,0,0,0,0,0,0,0,0,0],"sum_hessian":[1.699E3,1.684E3,1.5E1,6.9E1,1.615E3,6E0,9E0,1.2E1,5.7E1,1.314E3,3.01E2,7E0,5E0,4E1,1.7E1,1.308E3,6E0,9E0,2.92E2],"tree_param":{"num_deleted":"0","num_feature":"80","num_nodes":"19","size_leaf_vector":"1"}},{"base_weights":[-6.298419E-3,1.7007956E-2,-8.760238E-3,-1.5262503E-2,2.1369581E-1,2.1123033E-2,-5.030023E-2,-2.2935767E-3,4.168841E-1,6.520304E-3,2.5321124E-5,2.902945E-3,-1.8613768E-3,1.686818E-2,-1.3114512E-4],"categories":[],"categories_nodes":[],"categories_segments":[],"categories_sizes":[],"default_left":[0,0,0,0,0,0,0,0,0,0,0,0,0,0,0],"id":32,"left_children":[1,-1,3,5,7,9,11,-1,13,-1,-1,-1,-1,-1,-1],"loss_changes":[2.31148E0,0E0,2.3961275E0,2.0718136E0,2.8367877E0,3.1414244E0,1.4328E0,0E0,1.7731304E0,0E0,0E0,0E0,0E0,0E0,0E0],"parents":[2147483647,0,0,2,2,3,3,4,4,5,5,6,6,8,8],"right_children":[2,-1,4,6,8,10,12,-1,14,-1,-1,-1,-1,-1,-1],"split_conditions":[4E1,1.7007956E-2,2.75E0,2.5E0,2.0408164E-1,8.8557214E-1,8.2E0,-2.2935767E-3,7.6E0,6.520304E-3,2.5321124E-5,2.902945E-3,-1.8613768E-3,1.686818E-2,-1.3114512E-4],"split_indices":[35,0,13,51,65,39,53,0,9,0,0,0,0,0,0],"split_type":[0,0,0,0,0,0,0,0,0,0,0,0,0,0,0],"sum_hessian":[1.673E3,6E0,1.667E3,1.621E3,4.6E1,7.94E2,8.27E2,1.9E1,2.7E1,7.3E1,7.21E2,6E1,7.67E2,2E1,7E0],"tree_param":{"num_deleted":"0","num_feature":"80","num_nodes":"15","size_leaf_vector":"1"}},{"base_weights":[4.2880145E-3,-4.163635E-3,2.8997526E-1,2.2682777E-2,-7.469083E-3,9.950888E-2,3.7235305E-2,-2.6571348E-2,6.6668004E-2,-2.4305051E-2,1.7019149E-2,-2.0704942E-3,-4.5224115E-5,1.4211687E-2,6.9815596E-4,5.513365E-3,-8.284068E-3],"categories":[],"categories_nodes":[],"categories_segments":[],"categories_sizes":[],"default_left":[0,0,0,0,0,0,0,0,0,0,0,0,0,0,0,0,0],"id":33,"left_children":[1,3,5,-1,7,9,-1,11,13,15,-1,-1,-1,-1,-1,-1,-1],"loss_changes":[4.117585E0,4.06465E0,8.619847E0,0E0,2.318891E0,2.5007148E0,0E0,1.3811543E0,5.856921E0,1.8416474E0,0E0,0E0,0E0,0E0,0E0,0E0,0E0],"parents":[2147483647,0,0,1,1,2,2,4,4,5,5,7,7,8,8,9,9],"right_children":[2,4,6,-1,8,10,-1,12,14,16,-1,-1,-1,-1,-1,-1,-1],"split_conditions":[4.1E0,3.86E1,4.2857143E-1,2.2682777E-2,2.3529413E0,2.304878E1,3.7235305E-2,8.333333E-1,2.375E0,9.1460055E-1,1.7019149E-2,-2.0704942E-3,-4.5224115E-5,1.4211687E-2,6.9815596E-4,5.513365E-3,-8.284068E-3],"split_indices":[16,59,10,0,68,44,0,21,68,56,0,0,0,0,0,0,0],"split_type":[0,0,0,0,0,0,0,0,0,0,0,0,0,0,0,0,0],"sum_hessian":[1.692E3,1.644E3,4.8E1,6E0,1.638E3,4.1E1,7E0,1.304E3,3.34E2,3.3E1,8E0,4.82E2,8.22E2,3.1E1,3.03E2,1.8E1,1.5E1],"tree_param":{"num_deleted":"0","num_feature":"80","num_nodes":"17","size_leaf_vector":"1"}},{"base_weights":[-4.78611E-3,2.0296779E-2,-7.2791297E-3,-4.4949807E-2,3.0868135E-2,-2.0852966E-2,-1.2922235E-1,1.8306212E-2,3.056889E-1,-9.38751E-4,8.362418E-3,-4.268792E-3,8.163798E-3,1.1559957E-4,8.279567E-3,3.0606505E-2,2.8376537E-3],"categories":[],"categories_nodes":[],"categories_segments":[],"categories_sizes":[],"default_left":[0,0,0,0,0,0,0,0,0,0,0,0,0,0,0,0,0],"id":34,"left_children":[1,-1,3,5,7,9,11,13,15,-1,-1,-1,-1,-1,-1,-1,-1],"loss_changes":[2.7967532E0,0E0,2.4141376E0,1.7002717E0,2.8377516E0,2.0480921E0,1.0067251E0,2.9428742E0,5.2221565E0,0E0,0E0,0E0,0E0,0E0,0E0,0E0,0E0],"parents":[2147483647,0,0,2,2,3,3,4,4,5,5,6,6,7,7,8,8],"right_children":[2,-1,4,6,8,10,12,14,16,-1,-1,-1,-1,-1,-1,-1,-1],"split_conditions":[7.8688526E-1,2.0296779E-2,2.5396827E-1,3.5E-1,1.58E1,1.2560976E0,3.25E0,6.666667E-1,4.634146E0,-9.38751E-4,8.362418E-3,-4.268792E-3,8.163798E-3,1.1559957E-4,8.279567E-3,3.0606505E-2,2.8376537E-3],"split_indices":[56,0,65,72,32,60,2,37,45,0,0,0,0,0,0,0,0],"split_type":[0,0,0,0,0,0,0,0,0,0,0,0,0,0,0,0,0],"sum_hessian":[1.682E3,5E0,1.677E3,8.45E2,8.32E2,6.59E2,1.86E2,7.97E2,3.5E1,6.38E2,2.1E1,1.81E2,5E0,7.56E2,4.1E1,7E0,2.8E1],"tree_param":{"num_deleted":"0","num_feature":"80","num_nodes":"17","size_leaf_vector":"1"}},{"base_weights":[3.4285572E-3,3.3671642E-4,2.5990034E-2,9.002925E-3,-4.4248765E-3,2.4273412E-3,2.1277015E-1,-6.360959E-5,7.9627875E-3,-6.118428E-4,2.8834756E-2],"categories":[],"categories_nodes":[],"categories_segments":[],"categories_sizes":[],"default_left":[0,0,0,0,0,0,0,0,0,0,0],"id":35,"left_children":[1,3,-1,5,-1,7,9,-1,-1,-1,-1],"loss_changes":[4.4832697E0,2.1756797E0,0E0,2.1418834E0,0E0,1.8998761E0,8.838576E0,0E0,0E0,0E0,0E0],"parents":[2147483647,0,0,1,1,3,3,5,5,6,6],"right_children":[2,4,-1,6,-1,8,10,-1,-1,-1,-1],"split_conditions":[6.2161245E0,1.2E0,2.5990034E-2,4.1E0,-4.4248765E-3,1.49E1,2.45E1,-6.360959E-5,7.9627875E-3,-6.118428E-4,2.8834756E-2],"split_indices":[7,46,0,16,0,22,15,0,0,0,0],"split_type":[0,0,0,0,0,0,0,0,0,0,0],"sum_hessian":[1.712E3,1.707E3,5E0,1.614E3,9.3E1,1.565E3,4.9E1,1.539E3,2.6E1,3.8E1,1.1E1],"tree_param":{"num_deleted":"0","num_feature":"80","num_nodes":"11","size_leaf_vector":"1"}},{"base_weights":[-1.3804839E-3,-9.063207E-3,2.834326E-1,-5.014624E-3,2.9824094E-3,7.6556724E-1,2.9584222E-2,1.690964E-2,-0E0,5.7346853E-3,4.735973E-2,3.0203268E-1,-4.8981635E-3,1.3407415E-2,-1.235194E-4,1.9197261E-2,-1.9411553E-3],"categories":[],"categories_nodes":[],"categories_segments":[],"categories_sizes":[],"default_left":[0,0,0,0,0,0,0,0,0,0,0,0,0,0,0,0,0],"id":36,"left_children":[1,3,5,-1,7,9,11,-1,13,-1,-1,15,-1,-1,-1,-1,-1],"loss_changes":[3.6665242E0,3.147589E0,5.282955E0,0E0,2.5280614E0,6.526971E0,1.639492E0,0E0,2.8218117E0,0E0,0E0,1.7097813E0,0E0,0E0,0E0,0E0,0E0],"parents":[2147483647,0,0,1,1,2,2,4,4,5,5,6,6,8,8,11,11],"right_children":[2,4,6,-1,8,10,12,-1,14,-1,-1,16,-1,-1,-1,-1,-1],"split_conditions":[1.47E1,9.090909E-2,9.65E0,-5.014624E-3,7.75E0,2.3333333E0,4.5271427E1,1.690964E-2,2E0,5.7346853E-3,4.735973E-2,9.039548E-1,-4.8981635E-3,1.3407415E-2,-1.235194E-4,1.9197261E-2,-1.9411553E-3],"split_indices":[22,65,42,0,23,18,35,0,63,0,0,39,0,0,0,0,0],"split_type":[0,0,0,0,0,0,0,0,0,0,0,0,0,0,0,0,0],"sum_hessian":[1.686E3,1.643E3,4.3E1,1.16E2,1.527E3,1.4E1,2.9E1,7E0,1.52E3,9E0,5E0,1.2E1,1.7E1,1.3E1,1.507E3,6E0,6E0],"tree_param":{"num_deleted":"0","num_feature":"80","num_nodes":"17","size_leaf_vector":"1"}},{"base_weights":[6.378255E-3,2.1323979E-2,3.376273E-3,9.87811E-2,-8.949775E-3,7.02526E-2,2.4975069E-2,-1.2823565E-2,3.651281E-1,1.2346041E-2,2.8392448E-4,1.640617E-2,-4.5516403E-4,4.158253E-2,-8.218754E-3],"categories":[],"categories_nodes":[],"categories_segments":[],"categories_sizes":[],"default_left":[0,0,0,0,0,0,0,0,0,0,0,0,0,0,0],"id":37,"left_children":[1,-1,3,5,7,9,-1,11,13,-1,-1,-1,-1,-1,-1],"loss_changes":[3.4872692E0,0E0,1.9831357E0,3.891108E0,2.1228127E0,3.8335094E0,0E0,1.8900489E0,1.0278133E1,0E0,0E0,0E0,0E0,0E0,0E0],"parents":[2147483647,0,0,2,2,3,3,4,4,5,5,7,7,8,8],"right_children":[2,-1,4,6,8,10,-1,12,14,-1,-1,-1,-1,-1,-1],"split_conditions":[3.86E1,2.1323979E-2,8.874598E-1,3E1,3.08E1,2E1,2.4975069E-2,4E1,1.0666667E1,1.2346041E-2,2.8392448E-4,1.640617E-2,-4.5516403E-4,4.158253E-2,-8.218754E-3],"split_indices":[59,0,39,1,6,1,0,35,20,0,0,0,0,0,0],"split_type":[0,0,0,0,0,0,0,0,0,0,0,0,0,0,0],"sum_hessian":[1.683E3,6E0,1.677E3,1.92E2,1.485E3,1.86E2,6E0,1.471E3,1.4E1,2.7E1,1.59E2,5E0,1.466E3,5E0,9E0],"tree_param":{"num_deleted":"0","num_feature":"80","num_nodes":"15","size_leaf_vector":"1"}},{"base_weights":[2.7715717E-3,3.227333E-1,-2.4021042E-3,-1.5900936E-2,6.9633186E-1,-1.384897E-2,1.4694269E-1,1.0273206E-2,-7.179466E-3,3.486174E-2,-7.2075083E-4,-6.4198464E-2,1.0439866E-2,3.5157748E-2,8.982809E-2,-2.4520303E-3,8.98346E-3,1.3378404E-4,1.1543632E-2,1.914065E-2,-1.47219325E-5],"categories":[],"categories_nodes":[],"categories_segments":[],"categories_sizes":[],"default_left":[0,0,0,0,0,0,0,0,0,0,0,0,0,0,0,0,0,0,0,0,0],"id":38,"left_children":[1,3,5,7,9,11,13,-1,-1,-1,-1,15,17,-1,19,-1,-1,-1,-1,-1,-1],"loss_changes":[2.808878E0,3.4949737E0,2.8111594E0,1.2725184E0,4.5030785E0,1.8832443E0,6.6179037E0,0E0,0E0,0E0,0E0,3.197517E0,2.276465E0,0E0,5.6094317E0,0E0,0E0,0E0,0E0,0E0,0E0],"parents":[2147483647,0,0,1,1,2,2,3,3,4,4,5,5,6,6,11,11,12,12,14,14],"right_children":[2,4,6,8,10,12,14,-1,-1,-1,-1,16,18,-1,20,-1,-1,-1,-1,-1,-1],"split_conditions":[2E0,1.02E1,2.84E1,2.065E1,1.12E1,2.225E1,1.0344828E-1,1.0273206E-2,-7.179466E-3,3.486174E-2,-7.2075083E-4,4.84E1,4.25E0,3.5157748E-2,1.7E0,-2.4520303E-3,8.98346E-3,1.3378404E-4,1.1543632E-2,1.914065E-2,-1.47219325E-5],"split_indices":[63,53,1,69,53,36,49,0,0,0,0,59,16,0,71,0,0,0,0,0,0],"split_type":[0,0,0,0,0,0,0,0,0,0,0,0,0,0,0,0,0,0,0,0,0],"sum_hessian":[1.676E3,2.6E1,1.65E3,1.4E1,1.2E1,1.534E3,1.16E2,5E0,9E0,7E0,5E0,5E2,1.034E3,5E0,1.11E2,4.78E2,2.2E1,1.019E3,1.5E1,1.5E1,9.6E1],"tree_param":{"num_deleted":"0","num_feature":"80","num_nodes":"21","size_leaf_vector":"1"}},{"base_weights":[-4.8202183E-3,-8.00832E-3,1.8866185E-2,-4.836909E-2,2.7160179E-2,3.143783E-2,-2.360989E-3,2.9657118E-4,2.363856E-1,5.532809E-3,-2.0040812E-3,-1.3884617E-4,1.9295437E-2,4.5782225E-3,3.868245E-2],"categories":[],"categories_nodes":[],"categories_segments":[],"categories_sizes":[],"default_left":[0,0,0,0,0,0,0,0,0,0,0,0,0,0,0],"id":39,"left_children":[1,3,-1,5,7,9,-1,11,13,-1,-1,-1,-1,-1,-1],"loss_changes":[3.2299418E0,2.3029077E0,0E0,1.8371644E0,4.838037E0,3.150268E0,0E0,2.498369E0,8.304668E0,0E0,0E0,0E0,0E0,0E0,0E0],"parents":[2147483647,0,0,1,1,3,3,4,4,5,5,7,7,8,8],"right_children":[2,4,-1,6,8,10,-1,12,14,-1,-1,-1,-1,-1,-1],"split_conditions":[6.2161245E0,7.058824E-1,1.8866185E-2,8.974359E-1,3.7058823E0,2.25E0,-2.360989E-3,2.1E0,2.795E1,5.532809E-3,-2.0040812E-3,-1.3884617E-4,1.9295437E-2,4.5782225E-3,3.868245E-2],"split_indices":[7,25,0,56,16,51,0,21,6,0,0,0,0,0,0],"split_type":[0,0,0,0,0,0,0,0,0,0,0,0,0,0,0],"sum_hessian":[1.626E3,1.619E3,7E0,7.55E2,8.64E2,2.07E2,5.48E2,7.67E2,9.7E1,8.1E1,1.26E2,7.62E2,5E0,9.1E1,6E0],"tree_param":{"num_deleted":"0","num_feature":"80","num_nodes":"15","size_leaf_vector":"1"}},{"base_weights":[3.6165258E-3,8.188386E-2,-1.59514E-2,4.649741E-2,5.524623E-1,-2.0075666E-2,1.7374307E-2,-2.2805668E-2,2.624057E-1,7.6631373E-1,-4.935077E-3,8.386446E-3,-7.021462E-2,9.56145E-3,-1.4364131E-3,3.134058E-2,5.3700125E-3,4.074711E-2,7.712049E-3,-1.5664137E-3,1.8566004E-3,-2.564629E-3,4.9884035E-3],"categories":[],"categories_nodes":[],"categories_segments":[],"categories_sizes":[],"default_left":[0,0,0,0,0,0,0,0,0,0,0,0,0,0,0,0,0,0,0,0,0,0,0],"id":40,"left_children":[1,3,5,7,9,11,-1,13,15,17,-1,19,21,-1,-1,-1,-1,-1,-1,-1,-1,-1,-1],"loss_changes":[2.548707E0,5.459565E0,3.2126138E0,4.6834707E0,3.7126942E0,1.8890642E0,0E0,2.0091753E0,4.649351E0,4.915126E0,0E0,2.7308276E0,1.7362788E0,0E0,0E0,0E0,0E0,0E0,0E0,0E0,0E0,0E0,0E0],"parents":[2147483647,0,0,1,1,2,2,3,3,4,4,5,5,7,7,8,8,9,9,11,11,12,12],"right_children":[2,4,6,8,10,12,-1,14,16,18,-1,20,22,-1,-1,-1,-1,-1,-1,-1,-1,-1,-1],"split_conditions":[-1.8841463E0,2.2E1,3.08E1,2.3090909E0,1.096875E1,1.135E1,1.7374307E-2,4.135E1,3.3289473E0,2.235484E1,-4.935077E-3,4.465E1,2.6666666E1,9.56145E-3,-1.4364131E-3,3.134058E-2,5.3700125E-3,4.074711E-2,7.712049E-3,-1.5664137E-3,1.8566004E-3,-2.564629E-3,4.9884035E-3],"split_indices":[7,69,6,68,23,27,0,59,43,79,0,59,79,0,0,0,0,0,0,0,0,0,0],"split_type":[0,0,0,0,0,0,0,0,0,0,0,0,0,0,0,0,0,0,0,0,0,0,0],"sum_hessian":[1.658E3,3.32E2,1.326E3,3.1E2,2.2E1,1.318E3,8E0,2.35E2,7.5E1,1.7E1,5E0,8.4E2,4.78E2,1.5E1,2.2E2,6E0,6.9E1,7E0,1E1,3.93E2,4.47E2,4.5E2,2.8E1],"tree_param":{"num_deleted":"0","num_feature":"80","num_nodes":"23","size_leaf_vector":"1"}},{"base_weights":[3.4353677E-3,1.1256819E-3,1.8790921E-2,-2.4673473E-3,1.6005294E-2,4.371575E-1,1.0491867E-2,-5.0333014E-4,2.2099245E-2,8.0154925E-5,8.848343E-3],"categories":[],"categories_nodes":[],"categories_segments":[],"categories_sizes":[],"default_left":[0,0,0,0,0,0,0,0,0,0,0],"id":41,"left_children":[1,3,-1,-1,5,7,9,-1,-1,-1,-1],"loss_changes":[2.3364139E0,2.0576806E0,0E0,0E0,3.2316236E0,2.5313797E0,3.074757E0,0E0,0E0,0E0,0E0],"parents":[2147483647,0,0,1,1,4,4,5,5,6,6],"right_children":[2,4,-1,-1,6,8,10,-1,-1,-1,-1],"split_conditions":[1.96E1,1.627907E-1,1.8790921E-2,-2.4673473E-3,2E0,9.8E0,4.1E0,-5.0333014E-4,2.2099245E-2,8.0154925E-5,8.848343E-3],"split_indices":[22,65,0,0,63,53,16,0,0,0,0],"split_type":[0,0,0,0,0,0,0,0,0,0,0],"sum_hessian":[1.667E3,1.662E3,5E0,2.5E2,1.412E3,1.7E1,1.395E3,7E0,1E1,1.359E3,3.6E1],"tree_param":{"num_deleted":"0","num_feature":"80","num_nodes":"11","size_leaf_vector":"1"}},{"base_weights":[6.5646716E-3,1.7097002E-3,4.2410508E-1,-8.376165E-4,1.8485704E-2,3.860723E-2,-5.3431606E-3,-5.863735E-3,2.978014E-1,6.384406E-4,-1.308912E-3,2.119772E-2,-2.0900804E-3],"categories":[],"categories_nodes":[],"categories_segments":[],"categories_sizes":[],"default_left":[0,0,0,0,0,0,0,0,0,0,0,0,0],"id":42,"left_children":[1,3,5,7,-1,-1,-1,9,11,-1,-1,-1,-1],"loss_changes":[3.3501372E0,2.6541488E0,1.0212271E1,2.4491942E0,0E0,0E0,0E0,1.6680548E0,4.168808E0,0E0,0E0,0E0,0E0],"parents":[2147483647,0,0,1,1,2,2,3,3,7,7,8,8],"right_children":[2,4,6,8,-1,-1,-1,10,12,-1,-1,-1,-1],"split_conditions":[2.85E1,3.1E0,1.05E0,1.95E0,1.8485704E-2,3.860723E-2,-5.3431606E-3,6E-1,3E0,6.384406E-4,-1.308912E-3,2.119772E-2,-2.0900804E-3],"split_indices":[79,18,34,34,0,0,0,46,61,0,0,0,0],"split_type":[0,0,0,0,0,0,0,0,0,0,0,0,0],"sum_hessian":[1.673E3,1.655E3,1.8E1,1.649E3,6E0,7E0,1.1E1,1.623E3,2.6E1,9.43E2,6.8E2,1.2E1,1.4E1],"tree_param":{"num_deleted":"0","num_feature":"80","num_nodes":"13","size_leaf_vector":"1"}},{"base_weights":[-1.1732164E-3,3.221727E-1,-4.906709E-3,2.6662482E-2,1.4759674E-3,-9.78945E-3,2.4251468E-1,-3.5887926E-3,2.2869688E-4,1.2722514E-2,3.1412933E-2,1.229724E-2,-1.0653424E-4,-6.787204E-3,5.4739253E-3],"categories":[],"categories_nodes":[],"categories_segments":[],"categories_sizes":[],"default_left":[0,0,0,0,0,0,0,0,0,0,0,0,0,0,0],"id":43,"left_children":[1,3,5,-1,-1,7,9,-1,11,13,-1,-1,-1,-1,-1],"loss_changes":[2.0100381E0,2.8010309E0,1.9990357E0,0E0,0E0,1.8176628E0,5.797077E0,0E0,2.3710678E0,1.091513E0,0E0,0E0,0E0,0E0,0E0],"parents":[2147483647,0,0,1,1,2,2,5,5,6,6,8,8,9,9],"right_children":[2,4,6,-1,-1,8,10,-1,12,14,-1,-1,-1,-1,-1],"split_conditions":[7.75E0,1.25E0,2.6589743E1,2.6662482E-2,1.4759674E-3,3.5714285E0,2.2222223E0,-3.5887926E-3,1.5714285E0,2.2E0,3.1412933E-2,1.229724E-2,-1.0653424E-4,-6.787204E-3,5.4739253E-3],"split_indices":[23,13,44,0,0,9,58,0,57,51,0,0,0,0,0],"split_type":[0,0,0,0,0,0,0,0,0,0,0,0,0,0,0],"sum_hessian":[1.689E3,1.8E1,1.671E3,5E0,1.3E1,1.64E3,3.1E1,1.37E2,1.503E3,2.5E1,6E0,1.3E1,1.49E3,1E1,1.5E1],"tree_param":{"num_deleted":"0","num_feature":"80","num_nodes":"15","size_leaf_vector":"1"}},{"base_weights":[-2.4274143E-3,-5.611722E-3,2.5678005E-2,-1.5474145E-2,1.3151447E-1,-2.0615892E-2,3.3546427E-1,3.4313302E-2,7.1466014E-2,-7.515389E-4,1.2564456E-2,2.5408415E-2,-3.0495075E-4,1.8853536E-2,-0E0],"categories":[],"categories_nodes":[],"categories_segments":[],"categories_sizes":[],"default_left":[0,0,0,0,0,0,0,0,0,0,0,0,0,0,0],"id":44,"left_children":[1,3,-1,5,7,9,11,-1,13,-1,-1,-1,-1,-1,-1],"loss_changes":[4.4378915E0,2.2191808E0,0E0,2.7524586E0,6.483062E0,2.9297814E0,3.9815245E0,0E0,4.2031355E0,0E0,0E0,0E0,0E0,0E0,0E0],"parents":[2147483647,0,0,1,1,3,3,4,4,5,5,6,6,8,8],"right_children":[2,4,-1,6,8,10,12,-1,14,-1,-1,-1,-1,-1,-1],"split_conditions":[3.05E0,2.84E1,2.5678005E-2,2E0,8.6E0,1.815E1,3E0,3.4313302E-2,-4.1163018E-1,-7.515389E-4,1.2564456E-2,2.5408415E-2,-3.0495075E-4,1.8853536E-2,-0E0],"split_indices":[18,1,0,34,23,75,61,0,78,0,0,0,0,0,0],"split_type":[0,0,0,0,0,0,0,0,0,0,0,0,0,0,0],"sum_hessian":[1.652E3,1.647E3,5E0,1.538E3,1.09E2,1.517E3,2.1E1,5E0,1.04E2,1.503E3,1.4E1,8E0,1.3E1,1.1E1,9.3E1],"tree_param":{"num_deleted":"0","num_feature":"80","num_nodes":"15","size_leaf_vector":"1"}},{"base_weights":[-1.2194619E-3,-1.1056899E-2,1.5507118E-1,-4.8766723E-3,-1.9738209E-3,7.736705E-2,3.4196604E-2,6.5889396E-3,-4.6552964E-3,4.577643E-1,-6.215204E-2,1.1089661E-4,1.9868037E-2,3.5266469E-3,3.1152248E-2,7.894787E-3,-3.7350485E-3],"categories":[],"categories_nodes":[],"categories_segments":[],"categories_sizes":[],"default_left":[0,0,0,0,0,0,0,0,0,0,0,0,0,0,0,0,0],"id":45,"left_children":[1,3,5,-1,7,9,-1,11,-1,13,15,-1,-1,-1,-1,-1,-1],"loss_changes":[2.5457122E0,2.1395373E0,7.289461E0,0E0,1.9574019E0,4.9506993E0,0E0,2.5898156E0,0E0,4.700846E0,1.3981447E0,0E0,0E0,0E0,0E0,0E0,0E0],"parents":[2147483647,0,0,1,1,2,2,4,4,5,5,7,7,9,9,10,10],"right_children":[2,4,6,-1,8,10,-1,12,-1,14,16,-1,-1,-1,-1,-1,-1],"split_conditions":[2.7333334E1,7.692308E-2,2.62E1,-4.8766723E-3,1.4333333E1,1.0314285E1,3.4196604E-2,3.05E0,-4.6552964E-3,2.28E1,4E-1,1.1089661E-4,1.9868037E-2,3.5266469E-3,3.1152248E-2,7.894787E-3,-3.7350485E-3],"split_indices":[69,65,5,0,20,77,0,18,0,5,41,0,0,0,0,0,0],"split_type":[0,0,0,0,0,0,0,0,0,0,0,0,0,0,0,0,0],"sum_hessian":[1.663E3,1.566E3,9.7E1,8.7E1,1.479E3,9.1E1,6E0,1.401E3,7.8E1,2.4E1,6.7E1,1.396E3,5E0,1.6E1,8E0,1E1,5.7E1],"tree_param":{"num_deleted":"0","num_feature":"80","num_nodes":"17","size_leaf_vector":"1"}},{"base_weights":[1.4119914E-5,-2.8640248E-3,1.8442925E-2,-7.7060396E-3,3.261789E-1,2.2919836E-2,-4.4392567E-2,7.3442E-1,-2.0417222E-3,8.893762E-3,1.5943832E-4,-1.4572156E-3,1.4028207E-2,3.1612538E-2,6.683907E-3],"categories":[],"categories_nodes":[],"categories_segments":[],"categories_sizes":[],"default_left":[0,0,0,0,0,0,0,0,0,0,0,0,0,0,0],"id":46,"left_children":[1,3,-1,5,7,9,11,13,-1,-1,-1,-1,-1,-1,-1],"loss_changes":[3.0372107E0,2.6377342E0,0E0,1.8581574E0,3.979262E0,4.297574E0,1.592846E0,1.5981002E0,0E0,0E0,0E0,0E0,0E0,0E0,0E0],"parents":[2147483647,0,0,1,1,3,3,4,4,5,5,6,6,7,7],"right_children":[2,4,-1,6,8,10,12,14,-1,-1,-1,-1,-1,-1,-1],"split_conditions":[6.2161245E0,1.95E0,1.8442925E-2,2.75E0,3E0,8.819444E-1,3.44E1,2.33E1,-2.0417222E-3,8.893762E-3,1.5943832E-4,-1.4572156E-3,1.4028207E-2,3.1612538E-2,6.683907E-3],"split_indices":[7,34,0,51,61,39,5,6,0,0,0,0,0,0,0],"split_type":[0,0,0,0,0,0,0,0,0,0,0,0,0,0,0],"sum_hessian":[1.68E3,1.673E3,7E0,1.65E3,2.3E1,8.98E2,7.52E2,1.1E1,1.2E1,5.3E1,8.45E2,7.47E2,5E0,6E0,5E0],"tree_param":{"num_deleted":"0","num_feature":"80","num_nodes":"15","size_leaf_vector":"1"}},{"base_weights":[8.5073785E-5,-5.2157387E-2,2.7317228E-2,8.283217E-2,-7.874791E-2,6.0136724E-1,2.0347562E-2,2.4356565E-1,-1.1114393E-1,-3.3513177E-3,9.834294E-3,2.9048072E-2,-0E0,1.618214E-2,2.2585273E-2,1.5031541E-2,-2.9558185E-3,9.346576E-3,-5.3277663E-3,-7.123195E-4,1.4250747E-2,3.4579038E-4,1.2684175E-2],"categories":[],"categories_nodes":[],"categories_segments":[],"categories_sizes":[],"default_left":[0,0,0,0,0,0,0,0,0,0,0,0,0,0,0,0,0,0,0,0,0,0,0],"id":47,"left_children":[1,3,5,7,9,11,13,15,17,-1,19,-1,-1,21,-1,-1,-1,-1,-1,-1,-1,-1,-1],"loss_changes":[2.377653E0,2.059276E0,4.330624E0,2.9710875E0,1.4099216E0,2.799008E0,3.2336168E0,4.6699905E0,1.2496939E0,0E0,2.087046E0,0E0,0E0,2.0038745E0,0E0,0E0,0E0,0E0,0E0,0E0,0E0,0E0,0E0],"parents":[2147483647,0,0,1,1,2,2,3,3,4,4,5,5,6,6,7,7,8,8,10,10,13,13],"right_children":[2,4,6,8,10,12,14,16,18,-1,20,-1,-1,22,-1,-1,-1,-1,-1,-1,-1,-1,-1],"split_conditions":[1.5789473E-1,2.1E0,2E0,1.05E1,3.3333334E-1,3.0952382E-1,2.768E1,1.1111111E-1,-2.484756E0,-3.3513177E-3,2.5454545E0,2.9048072E-2,-0E0,1.95E0,2.2585273E-2,1.5031541E-2,-2.9558185E-3,9.346576E-3,-5.3277663E-3,-7.123195E-4,1.4250747E-2,3.4579038E-4,1.2684175E-2],"split_indices":[48,71,63,32,38,30,44,10,7,0,68,0,0,34,0,0,0,0,0,0,0,0,0],"split_type":[0,0,0,0,0,0,0,0,0,0,0,0,0,0,0,0,0,0,0,0,0,0,0],"sum_hessian":[1.671E3,5.71E2,1.1E3,9.3E1,4.78E2,1.2E1,1.088E3,5.1E1,4.2E1,3.49E2,1.29E2,7E0,5E0,1.083E3,5E0,2.9E1,2.2E1,5E0,3.7E1,1.21E2,8E0,1.072E3,1.1E1],"tree_param":{"num_deleted":"0","num_feature":"80","num_nodes":"23","size_leaf_vector":"1"}},{"base_weights":[-1.3308062E-3,-4.7067488E-3,3.4571037E-1,-8.225811E-3,4.059981E-1,3.401712E-2,-3.1965214E-3,-1.1834425E-3,-5.0052986E-3,-6.9094375E-3,3.268496E-2,7.757283E-4,-1.3066775E-3],"categories":[],"categories_nodes":[],"categories_segments":[],"categories_sizes":[],"default_left":[0,0,0,0,0,0,0,0,0,0,0,0,0],"id":48,"left_children":[1,3,5,7,9,-1,-1,11,-1,-1,-1,-1,-1],"loss_changes":[1.9463443E0,2.3829875E0,5.9270625E0,1.838408E0,6.4257264E0,0E0,0E0,1.8270037E0,0E0,0E0,0E0,0E0,0E0],"parents":[2147483647,0,0,1,1,2,2,3,3,4,4,7,7],"right_children":[2,4,6,8,10,-1,-1,12,-1,-1,-1,-1,-1],"split_conditions":[5.085E1,3.08E1,1.97E1,4.8444443E1,1.1E1,3.401712E-2,-3.1965214E-3,1.125E1,-5.0052986E-3,-6.9094375E-3,3.268496E-2,7.757283E-4,-1.3066775E-3],"split_indices":[24,6,6,12,31,0,0,27,0,0,0,0,0],"split_type":[0,0,0,0,0,0,0,0,0,0,0,0,0],"sum_hessian":[1.688E3,1.673E3,1.5E1,1.66E3,1.3E1,5E0,1E1,1.591E3,6.9E1,7E0,6E0,9.7E2,6.21E2],"tree_param":{"num_deleted":"0","num_feature":"80","num_nodes":"13","size_leaf_vector":"1"}},{"base_weights":[-6.6936007E-3,-8.915071E-3,1.8048553E-2,-1.2067285E-2,3.8974407E-1,-3.8561998E-3,-4.7111767E-3,3.7975665E-2,-9.106728E-3,1.9138942E-3,-6.53276E-4],"categories":[],"categories_nodes":[],"categories_segments":[],"categories_sizes":[],"default_left":[0,0,0,0,0,0,0,0,0,0,0],"id":49,"left_children":[1,3,-1,5,7,9,-1,-1,-1,-1,-1],"loss_changes":[2.2298703E0,2.084406E0,0E0,1.9748057E0,8.376815E0,1.9187038E0,0E0,0E0,0E0,0E0,0E0],"parents":[2147483647,0,0,1,1,3,3,4,4,5,5],"right_children":[2,4,-1,6,8,10,-1,-1,-1,-1,-1],"split_conditions":[3E0,3.08E1,1.8048553E-2,1.2E0,1.0666667E1,-1.902439E0,-4.7111767E-3,3.7975665E-2,-9.106728E-3,1.9138942E-3,-6.53276E-4],"split_indices":[26,6,0,46,20,7,0,0,0,0,0],"split_type":[0,0,0,0,0,0,0,0,0,0,0],"sum_hessian":[1.689E3,1.684E3,5E0,1.672E3,1.2E1,1.584E3,8.8E1,5E0,7E0,3.3E2,1.254E3],"tree_param":{"num_deleted":"0","num_feature":"80","num_nodes":"11","size_leaf_vector":"1"}},{"base_weights":[7.7662367E-4,-2.7719927E-3,4.9993718E-1,-8.6370006E-2,1.3744765E-2,3.2947663E-2,-7.942711E-3,-9.378792E-4,-4.7252565E-3,3.8002357E-3,1.9379076E-1,-3.2789394E-6,1.4290755E-2,2.4487101E-3,1.9365296E-2],"categories":[],"categories_nodes":[],"categories_segments":[],"categories_sizes":[],"default_left":[0,0,0,0,0,0,0,0,0,0,0,0,0,0,0],"id":50,"left_children":[1,3,5,7,9,-1,-1,-1,-1,11,13,-1,-1,-1,-1],"loss_changes":[3.0109935E0,2.3005247E0,5.8644876E0,1.0542696E0,2.4610999E0,0E0,0E0,0E0,0E0,2.4771163E0,3.522695E0,0E0,0E0,0E0,0E0],"parents":[2147483647,0,0,1,1,2,2,3,3,4,4,9,9,10,10],"right_children":[2,4,6,8,10,-1,-1,-1,-1,12,14,-1,-1,-1,-1],"split_conditions":[1.675E1,1.6666667E-1,3.0769232E-1,1.1E1,1.349367E1,3.2947663E-2,-7.942711E-3,-9.378792E-4,-4.7252565E-3,1.647561E0,5.2E1,-3.2789394E-6,1.4290755E-2,2.4487101E-3,1.9365296E-2],"split_indices":[77,65,72,20,77,0,0,0,0,60,3,0,0,0,0],"split_type":[0,0,0,0,0,0,0,0,0,0,0,0,0,0,0],"sum_hessian":[1.67E3,1.659E3,1.1E1,2.74E2,1.385E3,6E0,5E0,1.56E2,1.18E2,1.314E3,7.1E1,1.304E3,1E1,5.8E1,1.3E1],"tree_param":{"num_deleted":"0","num_feature":"80","num_nodes":"15","size_leaf_vector":"1"}},{"base_weights":[-4.0295813E-3,-8.846499E-2,9.467364E-3,-1.0160707E-1,8.34214E-3,6.024061E-3,1.4717062E-2,-4.2510326E-3,4.6273123E-2,2.3309428E-2,-2.9577618E-3,2.071827E-2,-1.7951096E-3,5.241901E-4,1.56306E-2],"categories":[],"categories_nodes":[],"categories_segments":[],"categories_sizes":[],"default_left":[0,0,0,0,0,0,0,0,0,0,0,0,0,0,0],"id":51,"left_children":[1,3,5,7,-1,9,-1,-1,11,13,-1,-1,-1,-1,-1],"loss_changes":[1.9096236E0,1.123346E0,2.329545E0,1.3442209E0,0E0,2.5788708E0,0E0,0E0,3.3861878E0,3.5042033E0,0E0,0E0,0E0,0E0,0E0],"parents":[2147483647,0,0,1,1,2,2,3,3,5,5,8,8,9,9],"right_children":[2,4,6,8,-1,10,-1,-1,12,14,-1,-1,-1,-1,-1],"split_conditions":[7.2727275E-1,2.544186E1,5.085E1,6.111111E0,8.34214E-3,1E0,1.4717062E-2,-4.2510326E-3,5.1923075E0,2E0,-2.9577618E-3,2.071827E-2,-1.7951096E-3,5.241901E-4,1.56306E-2],"split_indices":[19,44,24,29,0,46,0,0,73,34,0,0,0,0,0],"split_type":[0,0,0,0,0,0,0,0,0,0,0,0,0,0,0],"sum_hessian":[1.667E3,2.3E2,1.437E3,2.23E2,7E0,1.428E3,9E0,1.76E2,4.7E1,1.227E3,2.01E2,6E0,4.1E1,1.214E3,1.3E1],"tree_param":{"num_deleted":"0","num_feature":"80","num_nodes":"15","size_leaf_vector":"1"}},{"base_weights":[8.863719E-3,1.4707766E-3,2.3936354E-1,-3.0245897E-3,3.212121E-1,3.4387253E-2,9.398285E-2,3.2233026E-2,-3.7156295E-2,7.992309E-1,-3.0084495E-3,-4.6485355E-3,2.9527637E-1,7.875116E-3,3.86687E-4,1.8345526E-3,-1.931511E-3,9.1088266E-4,4.2546816E-2,1.5471744E-2,-0E0],"categories":[],"categories_nodes":[],"categories_segments":[],"categories_sizes":[],"default_left":[0,0,0,0,0,0,0,0,0,0,0,0,0,0,0,0,0,0,0,0,0],"id":52,"left_children":[1,3,5,7,9,-1,11,13,15,17,-1,-1,19,-1,-1,-1,-1,-1,-1,-1,-1],"loss_changes":[2.850334E0,2.384302E0,6.6240635E0,1.9439815E0,4.784127E0,0E0,2.3647914E0,3.5012853E0,2.204486E0,5.047272E0,0E0,0E0,1.7226903E0,0E0,0E0,0E0,0E0,0E0,0E0,0E0,0E0],"parents":[2147483647,0,0,1,1,2,2,3,3,4,4,6,6,7,7,8,8,9,9,12,12],"right_children":[2,4,6,8,10,-1,12,14,16,18,-1,-1,20,-1,-1,-1,-1,-1,-1,-1,-1],"split_conditions":[4.1E0,1.675E1,4.5E0,2.5E0,2.7419356E-1,3.4387253E-2,4.48E1,8.836689E-1,-1.8841463E0,1.92E1,-3.0084495E-3,-4.6485355E-3,2.542373E-1,7.875116E-3,3.86687E-4,1.8345526E-3,-1.931511E-3,9.1088266E-4,4.2546816E-2,1.5471744E-2,-0E0],"split_indices":[16,4,32,51,65,0,59,39,7,5,0,0,49,0,0,0,0,0,0,0,0],"split_type":[0,0,0,0,0,0,0,0,0,0,0,0,0,0,0,0,0,0,0,0,0],"sum_hessian":[1.686E3,1.635E3,5.1E1,1.613E3,2.2E1,6E0,4.5E1,7.92E2,8.21E2,1E1,1.2E1,2E1,2.5E1,6E1,7.32E2,1.77E2,6.44E2,5E0,5E0,1.4E1,1.1E1],"tree_param":{"num_deleted":"0","num_feature":"80","num_nodes":"21","size_leaf_vector":"1"}},{"base_weights":[9.605058E-4,-2.864814E-2,4.147445E-2,-3.3621963E-2,1.949034E-2,2.374087E-2,3.0652417E-2,1.748501E-1,-4.1496724E-2,1.22431636E-1,-2.7264807E-2,8.095831E-4,2.2444958E-2,-1.8896976E-3,5.765887E-4,2.8577556E-3,2.2630958E-2,-1.7431782E-3,3.6537072E-3],"categories":[],"categories_nodes":[],"categories_segments":[],"categories_sizes":[],"default_left":[0,0,0,0,0,0,0,0,0,0,0,0,0,0,0,0,0,0,0],"id":53,"left_children":[1,3,5,7,-1,-1,9,11,13,15,17,-1,-1,-1,-1,-1,-1,-1,-1],"loss_changes":[2.0285325E0,3.2497659E0,5.6959887E0,1.584696E0,0E0,0E0,3.7656667E0,2.8693385E0,1.2257516E0,4.5481973E0,1.9912212E0,0E0,0E0,0E0,0E0,0E0,0E0,0E0,0E0],"parents":[2147483647,0,0,1,1,2,2,3,3,6,6,7,7,8,8,9,9,10,10],"right_children":[2,4,6,8,-1,-1,10,12,14,16,18,-1,-1,-1,-1,-1,-1,-1,-1],"split_conditions":[2.6984128E-1,1.675E1,2.7118644E-1,1.82E1,1.949034E-2,2.374087E-2,1.0571428E1,5.0185184E1,5.042857E1,2.94E1,2.56E1,8.095831E-4,2.2444958E-2,-1.8896976E-3,5.765887E-4,2.8577556E-3,2.2630958E-2,-1.7431782E-3,3.6537072E-3],"split_indices":[65,77,65,1,0,0,27,35,3,1,5,0,0,0,0,0,0,0,0],"split_type":[0,0,0,0,0,0,0,0,0,0,0,0,0,0,0,0,0,0,0],"sum_hessian":[1.688E3,9.74E2,7.14E2,9.68E2,6E0,9E0,7.05E2,3.4E1,9.34E2,2.73E2,4.32E2,2.8E1,6E0,6.91E2,2.43E2,2.63E2,1E1,3.59E2,7.3E1],"tree_param":{"num_deleted":"0","num_feature":"80","num_nodes":"19","size_leaf_vector":"1"}},{"base_weights":[-5.8966996E-3,2.2800133E-2,-8.688075E-3,-1.7059546E-2,1.5554702E-1,-2.1607246E-2,3.055712E-1,4.838421E-2,8.240027E-1,-2.421176E-4,-3.0650792E-3,3.87946E-2,-1.6523902E-3,-3.5084109E-3,6.4544766E-3,4.1466113E-2,3.3540358E-3],"categories":[],"categories_nodes":[],"categories_segments":[],"categories_sizes":[],"default_left":[0,0,0,0,0,0,0,0,0,0,0,0,0,0,0,0,0],"id":54,"left_children":[1,-1,3,5,7,9,11,13,15,-1,-1,-1,-1,-1,-1,-1,-1],"loss_changes":[3.5338624E0,0E0,2.2986193E0,2.32577E0,5.6752133E0,1.7101159E0,8.030827E0,1.9925554E0,4.0691357E0,0E0,0E0,0E0,0E0,0E0,0E0,0E0,0E0],"parents":[2147483647,0,0,2,2,3,3,4,4,5,5,6,6,7,7,8,8],"right_children":[2,-1,4,6,8,10,12,14,16,-1,-1,-1,-1,-1,-1,-1,-1],"split_conditions":[3.86E1,2.2800133E-2,1.58E1,1.55E0,2.357143E0,2.3793104E0,2E-1,2.3076923E-1,1E0,-2.421176E-4,-3.0650792E-3,3.87946E-2,-1.6523902E-3,-3.5084109E-3,6.4544766E-3,4.1466113E-2,3.3540358E-3],"split_indices":[59,0,32,60,18,52,38,65,17,0,0,0,0,0,0,0,0],"split_type":[0,0,0,0,0,0,0,0,0,0,0,0,0,0,0,0,0],"sum_hessian":[1.684E3,5E0,1.679E3,1.599E3,8E1,1.578E3,2.1E1,7E1,1E1,1.353E3,2.25E2,5E0,1.6E1,3.5E1,3.5E1,5E0,5E0],"tree_param":{"num_deleted":"0","num_feature":"80","num_nodes":"17","size_leaf_vector":"1"}},{"base_weights":[5.205832E-3,-8.666299E-2,1.9966729E-2,2.1525833E-1,-3.1519898E-3,1.4976709E-2,4.229721E-1,-4.2751445E-3,1.6696678E-2,-1.2103799E-2,6.7609586E-2,2.3283888E-2,-1.7653872E-3,1.4443082E-2,-5.445888E-4,1.1534089E-3,1.7010672E-2],"categories":[],"categories_nodes":[],"categories_segments":[],"categories_sizes":[],"default_left":[0,0,0,0,0,0,0,0,0,0,0,0,0,0,0,0,0],"id":55,"left_children":[1,3,5,7,-1,9,11,-1,-1,13,15,-1,-1,-1,-1,-1,-1],"loss_changes":[2.2162974E0,1.2673346E0,2.7914207E0,1.7080654E0,0E0,1.997548E0,3.0100825E0,0E0,0E0,2.715044E0,6.850208E0,0E0,0E0,0E0,0E0,0E0,0E0],"parents":[2147483647,0,0,1,1,2,2,3,3,5,5,6,6,9,9,10,10],"right_children":[2,4,6,8,-1,10,12,-1,-1,14,16,-1,-1,-1,-1,-1,-1],"split_conditions":[-9.487805E-1,6.25E-2,5.88E1,3.181818E-1,-3.1519898E-3,2.3E0,-1.1341464E-1,-4.2751445E-3,1.6696678E-2,1.5714285E0,2.5538462E1,2.3283888E-2,-1.7653872E-3,1.4443082E-2,-5.445888E-4,1.1534089E-3,1.7010672E-2],"split_indices":[33,49,76,48,0,58,55,0,0,57,44,0,0,0,0,0,0],"split_type":[0,0,0,0,0,0,0,0,0,0,0,0,0,0,0,0,0],"sum_hessian":[1.637E3,2.25E2,1.412E3,1.2E1,2.13E2,1.396E3,1.6E1,6E0,6E0,9.21E2,4.75E2,9E0,7E0,1E1,9.11E2,4.5E2,2.5E1],"tree_param":{"num_deleted":"0","num_feature":"80","num_nodes":"17","size_leaf_vector":"1"}},{"base_weights":[1.9014624E-3,6.92685E-2,-1.5746957E-2,4.67027E-2,5.589447E-1,-2.0763665E-2,3.63813E-1,1.2251493E-4,2.5697383E-1,9.907037E-7,3.550231E-2,1.4017646E-2,-2.3837265E-2,-6.188138E-3,6.268707E-1,1.3770881E-3,-3.137275E-3,2.439778E-2,4.6148635E-3,-4.5952816E-3,-4.330606E-4,7.3176636E-3,2.8574968E-2],"categories":[],"categories_nodes":[],"categories_segments":[],"categories_sizes":[],"default_left":[0,0,0,0,0,0,0,0,0,0,0,0,0,0,0,0,0,0,0,0,0,0,0],"id":56,"left_children":[1,3,5,7,9,11,13,15,17,-1,-1,-1,19,-1,21,-1,-1,-1,-1,-1,-1,-1,-1],"loss_changes":[1.9859976E0,3.7476583E0,2.4848123E0,3.2358172E0,5.1169353E0,1.9212618E0,2.7207718E0,1.3122522E0,3.2208745E0,0E0,0E0,0E0,1.5570048E0,0E0,1.1444082E0,0E0,0E0,0E0,0E0,0E0,0E0,0E0,0E0],"parents":[2147483647,0,0,1,1,2,2,3,3,4,4,5,5,6,6,7,7,8,8,12,12,14,14],"right_children":[2,4,6,8,10,12,14,16,18,-1,-1,-1,20,-1,22,-1,-1,-1,-1,-1,-1,-1,-1],"split_conditions":[4.5E1,5.555556E-1,3E0,2.3461537E0,1.08529415E1,-7.1390243E0,1.88E1,3.25E0,2E0,9.907037E-7,3.550231E-2,1.4017646E-2,9.090909E-2,-6.188138E-3,5.510638E0,1.3770881E-3,-3.137275E-3,2.439778E-2,4.6148635E-3,-4.5952816E-3,-4.330606E-4,7.3176636E-3,2.8574968E-2],"split_indices":[76,10,13,68,64,28,8,71,2,0,0,0,65,0,45,0,0,0,0,0,0,0,0],"split_type":[0,0,0,0,0,0,0,0,0,0,0,0,0,0,0,0,0,0,0,0,0,0,0],"sum_hessian":[1.664E3,3.46E2,1.318E3,3.32E2,1.4E1,1.302E3,1.6E1,2.73E2,5.9E1,8E0,6E0,7E0,1.295E3,5E0,1.1E1,1.91E2,8.2E1,8E0,5.1E1,8.6E1,1.209E3,6E0,5E0],"tree_param":{"num_deleted":"0","num_feature":"80","num_nodes":"23","size_leaf_vector":"1"}},{"base_weights":[3.268542E-3,7.8733155E-4,1.3499734E-2,-7.323602E-2,1.4513301E-2,8.925119E-2,-1.0828824E-1,1.0209206E-2,4.057252E-1,-8.451715E-5,2.1605307E-2,-4.014371E-3,2.8555982E-3,2.1589315E-4,1.55179575E-2,2.1865493E-2,-5.513097E-3],"categories":[],"categories_nodes":[],"categories_segments":[],"categories_sizes":[],"default_left":[0,0,0,0,0,0,0,0,0,0,0,0,0,0,0,0,0],"id":57,"left_children":[1,3,-1,5,7,9,11,13,15,-1,-1,-1,-1,-1,-1,-1,-1],"loss_changes":[1.8056172E0,1.6838529E0,0E0,1.4867128E0,2.3183382E0,2.7458286E0,1.1280127E0,2.0672538E0,3.0456536E0,0E0,0E0,0E0,0E0,0E0,0E0,0E0,0E0],"parents":[2147483647,0,0,1,1,3,3,4,4,5,5,6,6,7,7,8,8],"right_children":[2,4,-1,6,8,10,12,14,16,-1,-1,-1,-1,-1,-1,-1,-1],"split_conditions":[6.2161245E0,1.12676054E-1,1.3499734E-2,1.675E1,1.815E1,6.9756097E-1,2.6E1,5.4E0,1.2E1,-8.451715E-5,2.1605307E-2,-4.014371E-3,2.8555982E-3,2.1589315E-4,1.55179575E-2,2.1865493E-2,-5.513097E-3],"split_indices":[7,48,0,8,75,33,69,74,4,0,0,0,0,0,0,0,0],"split_type":[0,0,0,0,0,0,0,0,0,0,0,0,0,0,0,0,0],"sum_hessian":[1.669E3,1.661E3,8E0,2.58E2,1.403E3,4.5E1,2.13E2,1.389E3,1.4E1,4E1,5E0,1.9E2,2.3E1,1.382E3,7E0,9E0,5E0],"tree_param":{"num_deleted":"0","num_feature":"80","num_nodes":"17","size_leaf_vector":"1"}},{"base_weights":[9.383564E-4,1.2112616E-2,-2.3870484E-3,9.197607E-3,1.4069162E-2,1.5869895E-2,6.6003855E-3,-3.6570898E-3,5.46358E-4],"categories":[],"categories_nodes":[],"categories_segments":[],"categories_sizes":[],"default_left":[0,0,0,0,0,0,0,0,0],"id":58,"left_children":[1,3,-1,5,-1,-1,7,-1,-1],"loss_changes":[1.4848589E0,1.8882284E0,0E0,1.8991461E0,0E0,0E0,2.1449847E0,0E0,0E0],"parents":[2147483647,0,0,1,1,3,3,6,6],"right_children":[2,4,-1,6,-1,-1,8,-1,-1],"split_conditions":[1E0,3.3E0,-2.3870484E-3,2E0,1.4069162E-2,1.5869895E-2,5.882353E-1,-3.6570898E-3,5.46358E-4],"split_indices":[46,58,0,73,0,0,19,0,0],"split_type":[0,0,0,0,0,0,0,0,0],"sum_hessian":[1.656E3,1.456E3,2E2,1.448E3,8E0,6E0,1.442E3,1.18E2,1.324E3],"tree_param":{"num_deleted":"0","num_feature":"80","num_nodes":"9","size_leaf_vector":"1"}},{"base_weights":[-3.9389883E-3,2.2513513E-2,-6.692054E-3,-1.0482838E-1,4.802837E-3,1.8098013E-1,-3.990797E-3,-5.147485E-3,1.0558035E-2,1.8063122E-2,-1.6825697E-3,1.0942457E-3,-8.2581973E-4],"categories":[],"categories_nodes":[],"categories_segments":[],"categories_sizes":[],"default_left":[0,0,0,0,0,0,0,0,0,0,0,0,0],"id":59,"left_children":[1,-1,3,5,7,9,-1,-1,11,-1,-1,-1,-1],"loss_changes":[3.4281185E0,0E0,1.9045296E0,1.4457732E0,1.5114563E0,1.6857164E0,0E0,0E0,1.4400328E0,0E0,0E0,0E0,0E0],"parents":[2147483647,0,0,2,2,3,3,4,4,5,5,8,8],"right_children":[2,-1,4,6,8,10,-1,-1,12,-1,-1,-1,-1],"split_conditions":[3.86E1,2.2513513E-2,-1.0731708E0,4.205263E1,7.4E0,4.66E1,-3.990797E-3,-5.147485E-3,1.125E1,1.8063122E-2,-1.6825697E-3,1.0942457E-3,-8.2581973E-4],"split_indices":[59,0,33,59,20,76,0,0,27,0,0,0,0],"split_type":[0,0,0,0,0,0,0,0,0,0,0,0,0],"sum_hessian":[1.683E3,5E0,1.678E3,1.76E2,1.502E3,1.5E1,1.61E2,4.6E1,1.456E3,5E0,1E1,8.68E2,5.88E2],"tree_param":{"num_deleted":"0","num_feature":"80","num_nodes":"13","size_leaf_vector":"1"}},{"base_weights":[-1.9015055E-3,-9.38896E-3,1.2798128E-1,-5.1094973E-3,-2.5477407E-3,2.8629892E-3,4.5918378E-1,4.7143415E-2,-2.0927362E-2,2.062667E-2,-1.8241194E-3,1.0392928E-1,4.6505045E-2,7.253261E-4,1.251236E-2,6.4367714E-4,-2.0139548E-3,1.9381788E-2,-3.3955444E-3],"categories":[],"categories_nodes":[],"categories_segments":[],"categories_sizes":[],"default_left":[0,0,0,0,0,0,0,0,0,0,0,0,0,0,0,0,0,0,0],"id":60,"left_children":[1,3,5,-1,7,9,11,13,15,-1,-1,17,-1,-1,-1,-1,-1,-1,-1],"loss_changes":[1.6425779E0,1.753694E0,3.7649143E0,0E0,1.4094206E0,3.0687582E0,9.36291E0,3.4800797E0,2.2188823E0,0E0,0E0,2.4804945E0,0E0,0E0,0E0,0E0,0E0,0E0,0E0],"parents":[2147483647,0,0,1,1,2,2,4,4,5,5,6,6,7,7,8,8,11,11],"right_children":[2,4,6,-1,8,10,12,14,16,-1,-1,18,-1,-1,-1,-1,-1,-1,-1],"split_conditions":[4.170577E-1,4.105E1,1.2333333E1,-5.1094973E-3,4.56E1,4.125E1,2.3246753E0,4.05E0,-2.9451218E-1,2.062667E-2,-1.8241194E-3,3.3333334E-1,4.6505045E-2,7.253261E-4,1.251236E-2,6.4367714E-4,-2.0139548E-3,1.9381788E-2,-3.3955444E-3],"split_indices":[78,59,53,0,76,59,68,16,28,0,0,26,0,0,0,0,0,0,0],"split_type":[0,0,0,0,0,0,0,0,0,0,0,0,0,0,0,0,0,0,0],"sum_hessian":[1.699E3,1.608E3,9.1E1,6.4E1,1.544E3,6.7E1,2.4E1,4.15E2,1.129E3,5E0,6.2E1,1.9E1,5E0,3.92E2,2.3E1,5.88E2,5.41E2,5E0,1.4E1],"tree_param":{"num_deleted":"0","num_feature":"80","num_nodes":"19","size_leaf_vector":"1"}},{"base_weights":[-3.673768E-4,1.6474152E-2,-3.05618E-3,2.3711551E-2,-4.095611E-2,-4.665721E-2,8.190457E-2,-4.819171E-2,1.9852959E-2,1.9756048E-3,-2.5431989E-3,3.1904096E-3,-3.9724605E-3,-4.0611072E-4,-3.253577E-3],"categories":[],"categories_nodes":[],"categories_segments":[],"categories_sizes":[],"default_left":[0,0,0,0,0,0,0,0,0,0,0,0,0,0,0],"id":61,"left_children":[1,-1,3,5,7,9,11,13,-1,-1,-1,-1,-1,-1,-1],"loss_changes":[2.4278142E0,0E0,1.6989315E0,4.016322E0,3.4992542E0,1.9072659E0,2.8245485E0,1.4230981E0,0E0,0E0,0E0,0E0,0E0,0E0,0E0],"parents":[2147483647,0,0,2,2,3,3,4,4,5,5,6,6,7,7],"right_children":[2,-1,4,6,8,10,12,14,-1,-1,-1,-1,-1,-1,-1],"split_conditions":[7.8688526E-1,1.6474152E-2,1.12E1,4.4526318E1,3.3E0,9.85E0,1.2266666E1,2.8E-1,1.9852959E-2,1.9756048E-3,-2.5431989E-3,3.1904096E-3,-3.9724605E-3,-4.0611072E-4,-3.253577E-3],"split_indices":[56,0,27,59,58,42,64,49,0,0,0,0,0,0,0],"split_type":[0,0,0,0,0,0,0,0,0,0,0,0,0,0,0],"sum_hessian":[1.678E3,7E0,1.671E3,9.78E2,6.93E2,4.42E2,5.36E2,6.87E2,6E0,1.11E2,3.31E2,4.82E2,5.4E1,4.38E2,2.49E2],"tree_param":{"num_deleted":"0","num_feature":"80","num_nodes":"15","size_leaf_vector":"1"}},{"base_weights":[3.5241996E-3,-2.300084E-3,1.9602428E-1,-4.335226E-3,1.603908E-2,3.2731224E-2,4.6907455E-2,8.108917E-3,-8.099373E-2,2.3525861E-1,-5.5763056E-3,1.1211447E-2,1.3842952E-4,-3.8416449E-3,2.6413836E-3,1.769043E-2,-1.0100508E-3],"categories":[],"categories_nodes":[],"categories_segments":[],"categories_sizes":[],"default_left":[0,0,0,0,0,0,0,0,0,0,0,0,0,0,0,0,0],"id":62,"left_children":[1,3,5,7,-1,-1,9,11,13,15,-1,-1,-1,-1,-1,-1,-1],"loss_changes":[1.9090034E0,1.7370121E0,6.508128E0,1.5638366E0,0E0,0E0,1.9778558E0,1.7529806E0,1.8370166E0,2.4582977E0,0E0,0E0,0E0,0E0,0E0,0E0,0E0],"parents":[2147483647,0,0,1,1,2,2,3,3,6,6,7,7,8,8,9,9],"right_children":[2,4,6,8,-1,-1,10,12,14,16,-1,-1,-1,-1,-1,-1,-1],"split_conditions":[4.1E0,5.15E1,4.5E0,3.6666667E-1,1.603908E-2,3.2731224E-2,1.075E1,7.75E0,9.4736844E-1,1.1E0,-5.5763056E-3,1.1211447E-2,1.3842952E-4,-3.8416449E-3,2.6413836E-3,1.769043E-2,-1.0100508E-3],"split_indices":[16,24,32,49,0,0,27,23,50,21,0,0,0,0,0,0,0],"split_type":[0,0,0,0,0,0,0,0,0,0,0,0,0,0,0,0,0],"sum_hessian":[1.684E3,1.635E3,4.9E1,1.63E3,5E0,6E0,4.3E1,1.402E3,2.28E2,2.4E1,1.9E1,1.2E1,1.39E3,1.79E2,4.9E1,1E1,1.4E1],"tree_param":{"num_deleted":"0","num_feature":"80","num_nodes":"17","size_leaf_vector":"1"}},{"base_weights":[7.456343E-3,-1.018844E-2,8.189671E-2,-7.15344E-2,1.7803868E-2,3.43008E-2,4.5496705E-1,-2.6518023E-3,1.04488015E-1,1.2411722E-2,2.4775932E-2,2.612247E-1,-2.5389662E-2,8.376778E-2,8.15957E-1,-4.3827123E-3,1.3462585E-2,1.6444809E-3,-1.1091084E-3,-4.781527E-3,1.3874023E-2,-2.6241809E-3,3.9759697E-3,1.8466573E-2,-4.2894147E-3,3.998514E-2,1.0703242E-2],"categories":[],"categories_nodes":[],"categories_segments":[],"categories_sizes":[],"default_left":[0,0,0,0,0,0,0,0,0,0,0,0,0,0,0,0,0,0,0,0,0,0,0,0,0,0,0],"id":63,"left_children":[1,3,5,7,9,11,13,-1,15,17,-1,19,21,23,25,-1,-1,-1,-1,-1,-1,-1,-1,-1,-1,-1,-1],"loss_changes":[2.20021E0,2.32317E0,5.6353426E0,1.2658734E0,3.940671E0,3.9041412E0,4.6656475E0,0E0,3.2876422E0,1.9323941E0,0E0,5.182688E0,2.2326577E0,2.4263134E0,3.6276817E0,0E0,0E0,0E0,0E0,0E0,0E0,0E0,0E0,0E0,0E0,0E0,0E0],"parents":[2147483647,0,0,1,1,2,2,3,3,4,4,5,5,6,6,8,8,9,9,11,11,12,12,13,13,14,14],"right_children":[2,4,6,8,10,12,14,-1,16,18,-1,20,22,24,26,-1,-1,-1,-1,-1,-1,-1,-1,-1,-1,-1,-1],"split_conditions":[2.3529413E0,2.215E1,1.05E0,3.846154E-1,3.3E0,2.1428572E1,6.090909E0,-2.6518023E-3,3.6585367E-1,2.8E0,2.4775932E-2,9.041916E-1,1.175E1,1.0181818E0,1.25E0,-4.3827123E-3,1.3462585E-2,1.6444809E-3,-1.1091084E-3,-4.781527E-3,1.3874023E-2,-2.6241809E-3,3.9759697E-3,1.8466573E-2,-4.2894147E-3,3.998514E-2,1.0703242E-2],"split_indices":[68,36,25,65,58,79,45,0,60,51,0,62,53,40,41,0,0,0,0,0,0,0,0,0,0,0,0],"split_type":[0,0,0,0,0,0,0,0,0,0,0,0,0,0,0,0,0,0,0,0,0,0,0,0,0,0,0],"sum_hessian":[1.668E3,1.348E3,3.2E2,4.23E2,9.25E2,2.85E2,3.5E1,3.87E2,3.6E1,9.2E2,5E0,5.9E1,2.26E2,1.8E1,1.7E1,2.1E1,1.5E1,4.96E2,4.24E2,1.9E1,4E1,1.63E2,6.3E1,5E0,1.3E1,7E0,1E1],"tree_param":{"num_deleted":"0","num_feature":"80","num_nodes":"27","size_leaf_vector":"1"}}]},"name":"gbtree"},"learner_model_param":{"base_score":"[2.1629347E-1]","boost_from_average":"1","num_class":"0","num_feature":"80","num_target":"1"},"objective":{"name":"reg:squarederror","reg_loss_param":{"scale_pos_weight":"1"}}},"version":[3,2,0]}