{"learner":{"attributes":{"best_iteration":"104","best_score":"8.804545331511022","scikit_learn":"{\"_estimator_type\": \"regressor\"}"},"feature_names":["home_sh_penalty_minutes_last10","home_save_pct_current_season","away_ev_shot_attempts_for_season_avg","home_pp_fenwick_for","away_ev_shot_attempts_against_last10","away_ev_shot_attempts_against_opp_adj_last20","away_ev_shot_attempts_for_last10","away_sh_shots_on_goal_against_last10","home_ev_shot_attempts_against_last20","away_ev_shots_on_goal_for_last20","home_sh_shots_on_goal_for_season_avg","home_ev_shots_on_goal_against_opp_adj_last10","home_pp_goals_against_last10","away_ev_shot_attempts_for_last20","away_pp_shots_on_goal_against_season_avg","home_ev_hits_for_last10","home_sh_shot_attempts_for_last20","home_sh_shots_on_goal_for_last5","away_ev_blocked_shots_for_last5","away_sh_blocked_shots_for_season_avg","away_ev_blocked_shots_for_season_avg","away_ev_faceoffs_taken_last20","away_ev_faceoffs_won_season_avg","home_goals_against_last20","home_ev_shot_attempts_against_opp_adj_last20","away_ev_hits_for_season_avg","home_ev_shots_on_goal_against_season_avg","home_pp_blocked_shots_for_season_avg","away_goals_against_opp_adj_last10","away_ev_goals_for_last20","home_ev_hits_against_last20","away_pp_shot_attempts_for_season_avg","home_days_rest","away_gsax_per60_last20","away_pp_penalties_drawn_last20","home_ev_shot_attempts_against_opp_adj_last5","home_ev_goals_against_last20","home_ev_missed_shots_against_last20","home_pp_blocked_shots_against_last5","away_ev_shots_on_goal_for_season_avg","away_ev_blocked_shots_for_last20","away_ev_goals_for_last5","away_sh_shots_on_goal_for_season_avg","away_sh_blocked_shots_against_season_avg","home_ev_blocked_shots_against_last20","away_pp_blocked_shots_against_last10","away_pp_blocked_shots_against_last5","home_pp_shot_attempts_for_last20","away_ev_missed_shots_for_last20","away_pp_penalties_drawn_last5","home_ev_hits_against_last10","home_sh_shots_on_goal_for_last20","away_ev_shots_on_goal_against_last5","home_ev_shots_on_goal_against_last10","away_ev_missed_shots_for_season_avg","home_ev_hits_against_last5","home_sh_blocked_shots_for_last5","away_ev_blocked_shots_for_last10","home_ev_giveaways_season_avg","home_gsax_per60_current_season","away_ev_shots_on_goal_against_season_avg","home_ev_shots_on_goal_for_last10","home_goals_against_opp_adj_last5","away_ev_goals_against_season_avg","home_save_pct_career","away_sh_shots_on_goal_against_last5","home_ev_faceoffs_taken_last20","home_pp_penalties_drawn_last20","home_sh_penalties_taken_last5","home_goals_for_last10","home_pp_blocked_shots_against_season_avg","home_ev_hits_for_last20","home_sh_shots_on_goal_against_last20","away_pp_shot_attempts_for_last20","home_ev_faceoffs_won_season_avg","home_goals_against_season_avg","home_sh_shot_attempts_for_last10","home_sh_fenwick_for","home_ev_shot_attempts_against_opp_adj_last10","away_pp_goals_against_season_avg"],"feature_types":["float","float","float","int","float","float","float","float","float","float","float","float","float","float","float","float","float","float","float","float","float","float","float","float","float","float","float","float","float","float","float","float","int","float","float","float","float","float","float","float","float","float","float","float","float","float","float","float","float","float","float","float","float","float","float","float","float","float","float","float","float","float","float","float","float","float","float","float","float","float","float","float","float","float","float","float","float","int","float","float"],"gradient_booster":{"model":{"cats":{"enc":[],"feature_segments":[],"sorted_idx":[]},"gbtree_model_param":{"num_parallel_tree":"1","num_trees":"135"},"iteration_indptr":[0,1,2,3,4,5,6,7,8,9,10,11,12,13,14,15,16,17,18,19,20,21,22,23,24,25,26,27,28,29,30,31,32,33,34,35,36,37,38,39,40,41,42,43,44,45,46,47,48,49,50,51,52,53,54,55,56,57,58,59,60,61,62,63,64,65,66,67,68,69,70,71,72,73,74,75,76,77,78,79,80,81,82,83,84,85,86,87,88,89,90,91,92,93,94,95,96,97,98,99,100,101,102,103,104,105,106,107,108,109,110,111,112,113,114,115,116,117,118,119,120,121,122,123,124,125,126,127,128,129,130,131,132,133,134,135],"tree_info":[0,0,0,0,0,0,0,0,0,0,0,0,0,0,0,0,0,0,0,0,0,0,0,0,0,0,0,0,0,0,0,0,0,0,0,0,0,0,0,0,0,0,0,0,0,0,0,0,0,0,0,0,0,0,0,0,0,0,0,0,0,0,0,0,0,0,0,0,0,0,0,0,0,0,0,0,0,0,0,0,0,0,0,0,0,0,0,0,0,0,0,0,0,0,0,0,0,0,0,0,0,0,0,0,0,0,0,0,0,0,0,0,0,0,0,0,0,0,0,0,0,0,0,0,0,0,0,0,0,0,0,0,0,0,0],"trees":[{"base_weights":[1.041677E-1,9.403018E-1,-2.35506E0,6.4844117E0,6.2074155E-1,-1.7629826E0,-8.701036E0,2.740772E0,1.1731013E1,1.2519884E0,-1.4191438E0,-3.3761706E0,2.1712196E-1,-5.404654E0,-1.2948995E1,1.5685935E-1,-4.4012118E-2,9.3544774E-2,4.0390357E-1,-6.0446374E-3,6.3247666E-2,1.3895129E-1,-5.784068E-2,-1.81172E-1,-6.0617473E-2,1.04210936E-1,-4.6188466E-2,-2.3846984E-1,8.720198E-4,-2.3545521E-1,-4.4113162E-1],"categories":[],"categories_nodes":[],"categories_segments":[],"categories_sizes":[],"default_left":[0,0,0,0,0,0,0,0,0,0,0,0,0,0,0,0,0,0,0,0,0,0,0,0,0,0,0,0,0,0,0],"id":0,"left_children":[1,3,5,7,9,11,13,15,17,19,21,23,25,27,29,-1,-1,-1,-1,-1,-1,-1,-1,-1,-1,-1,-1,-1,-1,-1,-1],"loss_changes":[3.4442258E3,2.2098608E3,1.5804705E3,1.3020154E3,1.5250748E3,1.2468182E3,4.3228418E2,4.3725876E2,3.7415503E2,1.1257015E3,8.708222E2,7.630969E2,1.0124286E3,3.0517834E2,1.6637451E1,0E0,0E0,0E0,0E0,0E0,0E0,0E0,0E0,0E0,0E0,0E0,0E0,0E0,0E0,0E0,0E0],"parents":[2147483647,0,0,1,1,2,2,3,3,4,4,5,5,6,6,7,7,8,8,9,9,10,10,11,11,12,12,13,13,14,14],"right_children":[2,4,6,8,10,12,14,16,18,20,22,24,26,28,30,-1,-1,-1,-1,-1,-1,-1,-1,-1,-1,-1,-1,-1,-1,-1,-1],"split_conditions":[1.1E1,4.8055553E0,1.5454545E0,4.94E1,2.6984128E-1,4.8625E1,2.12E1,6E0,3E0,4.755E1,1.665E1,9.0123457E-1,1.95E1,8.047619E0,2.12E1,1.5685935E-1,-4.4012118E-2,9.3544774E-2,4.0390357E-1,-6.0446374E-3,6.3247666E-2,1.3895129E-1,-5.784068E-2,-1.81172E-1,-6.0617473E-2,1.04210936E-1,-4.6188466E-2,-2.3846984E-1,8.720198E-4,-2.3545521E-1,-4.4113162E-1],"split_indices":[3,58,10,13,19,6,55,3,3,13,30,1,55,58,9,0,0,0,0,0,0,0,0,0,0,0,0,0,0,0,0],"split_type":[0,0,0,0,0,0,0,0,0,0,0,0,0,0,0,0,0,0,0,0,0,0,0,0,0,0,0,0,0,0,0],"sum_hessian":[1.673E3,1.249E3,4.24E2,6.7E1,1.182E3,3.89E2,3.5E1,4E1,2.7E1,9.03E2,2.79E2,2.14E2,1.75E2,2.1E1,1.4E1,2.5E1,1.5E1,5E0,2.2E1,3.35E2,5.68E2,2.1E1,2.58E2,7.1E1,1.43E2,6.1E1,1.14E2,1.4E1,7E0,5E0,9E0],"tree_param":{"num_deleted":"0","num_feature":"80","num_nodes":"31","size_leaf_vector":"1"}},{"base_weights":[1.6321409E-1,1.9345392E0,-8.242222E-1,-1.2970383E-1,3.2197058E0,-2.038671E0,8.179373E-1,-2.6439536E0,1.4177345E0,3.6842828E0,-5.5024834E0,-3.0678258E0,-2.3614967E-1,1.2836963E0,-3.6830428E0,-5.0586265E-2,-3.2557067E-1,6.553676E-2,-1.0207385E-1,1.6056052E-1,6.753539E-2,-2.684991E-1,1.0326198E-1,-4.6671618E-2,-1.371445E-1,2.4937224E-2,-1.257466E-1,4.7290795E-2,-1.5710767E-1,-2.9267874E-1,-2.330898E-3],"categories":[],"categories_nodes":[],"categories_segments":[],"categories_sizes":[],"default_left":[0,0,0,0,0,0,0,0,0,0,0,0,0,0,0,0,0,0,0,0,0,0,0,0,0,0,0,0,0,0,0],"id":1,"left_children":[1,3,5,7,9,11,13,15,17,19,21,23,25,27,29,-1,-1,-1,-1,-1,-1,-1,-1,-1,-1,-1,-1,-1,-1,-1,-1],"loss_changes":[2.917406E3,1.5845059E3,2.137705E3,8.9871967E2,1.5112734E3,1.1416707E3,9.604335E2,6.722635E2,5.358738E2,8.237036E2,6.172453E2,8.835613E2,9.5376117E2,7.9794507E2,9.397421E2,0E0,0E0,0E0,0E0,0E0,0E0,0E0,0E0,0E0,0E0,0E0,0E0,0E0,0E0,0E0,0E0],"parents":[2147483647,0,0,1,1,2,2,3,3,4,4,5,5,6,6,7,7,8,8,9,9,10,10,11,11,12,12,13,13,14,14],"right_children":[2,4,6,8,10,12,14,16,18,20,22,24,26,28,30,-1,-1,-1,-1,-1,-1,-1,-1,-1,-1,-1,-1,-1,-1,-1,-1],"split_conditions":[6E0,-1.3060975E0,4.9E1,1.01E1,2.7E1,2.2875E1,4.375E-1,1.185E1,6.8421054E0,9.5384616E-1,5.0714287E1,2.1545454E1,1.14E1,1.6E0,9.02834E-1,-5.0586265E-2,-3.2557067E-1,6.553676E-2,-1.0207385E-1,1.6056052E-1,6.753539E-2,-2.684991E-1,1.0326198E-1,-4.6671618E-2,-1.371445E-1,2.4937224E-2,-1.257466E-1,4.7290795E-2,-1.5710767E-1,-2.9267874E-1,-2.330898E-3],"split_indices":[3,24,6,47,50,74,67,73,14,10,4,74,48,10,1,0,0,0,0,0,0,0,0,0,0,0,0,0,0,0,0],"split_type":[0,0,0,0,0,0,0,0,0,0,0,0,0,0,0,0,0,0,0,0,0,0,0,0,0,0,0,0,0,0,0],"sum_hessian":[1.666E3,5.96E2,1.07E3,2.29E2,3.67E2,6.15E2,4.55E2,8.7E1,1.42E2,3.49E2,1.8E1,3.91E2,2.24E2,4.13E2,4.2E1,7.9E1,8E0,1.23E2,1.9E1,1.6E2,1.89E2,1.3E1,5E0,1.96E2,1.95E2,1.77E2,4.7E1,3.96E2,1.7E1,1.5E1,2.7E1],"tree_param":{"num_deleted":"0","num_feature":"80","num_nodes":"31","size_leaf_vector":"1"}},{"base_weights":[1.8669899E-1,-9.8544157E-1,1.5131956E0,-5.001759E-1,-3.448041E0,7.8828893E0,1.191662E0,-8.855109E-1,2.6549401E0,6.2329605E-2,-5.619195E0,2.6779382E0,1.2667688E1,1.4879618E0,-4.0134687E0,-3.281732E-2,1.1972422E-1,-2.9518076E-3,2.420094E-1,2.0197822E-1,-3.562688E-2,-6.5045156E-2,-2.4438214E-1,-8.982492E-2,2.1253175E-1,5.095055E-1,2.6179484E-1,7.730959E-2,4.7869394E-3,-1.991445E-1,5.8221836E-2],"categories":[],"categories_nodes":[],"categories_segments":[],"categories_sizes":[],"default_left":[0,0,0,0,0,0,0,0,0,0,0,0,0,0,0,0,0,0,0,0,0,0,0,0,0,0,0,0,0,0,0],"id":2,"left_children":[1,3,5,7,9,11,13,15,17,19,21,23,25,27,29,-1,-1,-1,-1,-1,-1,-1,-1,-1,-1,-1,-1,-1,-1,-1,-1],"loss_changes":[2.565476E3,1.0447135E3,1.5749056E3,8.933384E2,1.0984097E3,8.860139E2,1.1439213E3,6.6868634E2,1.193683E3,4.754291E2,7.5741406E2,4.965041E2,1.7240356E2,1.0105288E3,6.384674E2,0E0,0E0,0E0,0E0,0E0,0E0,0E0,0E0,0E0,0E0,0E0,0E0,0E0,0E0,0E0,0E0],"parents":[2147483647,0,0,1,1,2,2,3,3,4,4,5,5,6,6,7,7,8,8,9,9,10,10,11,11,12,12,13,13,14,14],"right_children":[2,4,6,8,10,12,14,16,18,20,22,24,26,28,30,-1,-1,-1,-1,-1,-1,-1,-1,-1,-1,-1,-1,-1,-1,-1,-1],"split_conditions":[4.8555557E1,2.47E1,4.8055553E0,1.5666667E1,2.125E1,2.57E1,1.4666667E0,2.590244E1,4.94E1,1.58E1,2.8088236E0,4.945E1,2.86E1,9.080622E-1,3.536232E0,-3.281732E-2,1.1972422E-1,-2.9518076E-3,2.420094E-1,2.0197822E-1,-3.562688E-2,-6.5045156E-2,-2.4438214E-1,-8.982492E-2,2.1253175E-1,5.095055E-1,2.6179484E-1,7.730959E-2,4.7869394E-3,-1.991445E-1,5.8221836E-2],"split_indices":[6,15,58,20,50,53,10,74,8,55,27,13,53,64,27,0,0,0,0,0,0,0,0,0,0,0,0,0,0,0,0],"split_type":[0,0,0,0,0,0,0,0,0,0,0,0,0,0,0,0,0,0,0,0,0,0,0,0,0,0,0,0,0,0,0],"sum_hessian":[1.648E3,8.75E2,7.73E2,7.32E2,1.43E2,3.6E1,7.37E2,6.53E2,7.9E1,5.5E1,8.8E1,1.8E1,1.8E1,6.98E2,3.9E1,6.27E2,2.6E1,5.3E1,2.6E1,8E0,4.7E1,3.8E1,5E1,8E0,1E1,7E0,1.1E1,3.83E2,3.15E2,2.7E1,1.2E1],"tree_param":{"num_deleted":"0","num_feature":"80","num_nodes":"31","size_leaf_vector":"1"}},{"base_weights":[1.9976798E-2,9.604798E-1,-2.058597E0,6.1395454E-1,5.856565E0,-4.9772573E0,-9.6133554E-1,-5.7780647E0,7.693753E-1,1.0106962E1,1.8755585E0,-2.6994367E0,-7.6268115E0,-1.3493363E0,6.1821456E0,6.1282027E-3,-2.8608128E-1,1.1790578E-2,9.6446045E-2,1.3581917E-1,3.8809413E-1,-1.2933527E-1,1.4716539E-1,-1.8649073E-1,7.1136723E-3,-1.7519863E-1,-3.7283266E-1,2.5128014E-2,-7.760999E-2,-4.3218452E-2,2.647732E-1],"categories":[],"categories_nodes":[],"categories_segments":[],"categories_sizes":[],"default_left":[0,0,0,0,0,0,0,0,0,0,0,0,0,0,0,0,0,0,0,0,0,0,0,0,0,0,0,0,0,0,0],"id":3,"left_children":[1,3,5,7,9,11,13,15,17,19,21,23,25,27,29,-1,-1,-1,-1,-1,-1,-1,-1,-1,-1,-1,-1,-1,-1,-1,-1],"loss_changes":[3.3134763E3,1.9757092E3,1.6855593E3,1.0878014E3,1.2827517E3,8.474492E2,1.0749539E3,5.874001E2,9.794966E2,5.2383057E2,7.8977435E2,8.1795605E2,4.917832E2,9.92991E2,4.164879E2,0E0,0E0,0E0,0E0,0E0,0E0,0E0,0E0,0E0,0E0,0E0,0E0,0E0,0E0,0E0,0E0],"parents":[2147483647,0,0,1,1,2,2,3,3,4,4,5,5,6,6,7,7,8,8,9,9,10,10,11,11,12,12,13,13,14,14],"right_children":[2,4,6,8,10,12,14,16,18,20,22,24,26,28,30,-1,-1,-1,-1,-1,-1,-1,-1,-1,-1,-1,-1,-1,-1,-1,-1],"split_conditions":[1E1,1.4878049E0,1.2864865E1,-5.45E0,2.2E0,3.1E0,1.69E1,2.7826087E0,5.22E1,4.38E1,2.2666666E1,2.395E1,2.275E1,1.95E1,9.432432E0,6.1282027E-3,-2.8608128E-1,1.1790578E-2,9.6446045E-2,1.3581917E-1,3.8809413E-1,-1.2933527E-1,1.4716539E-1,-1.8649073E-1,7.1136723E-3,-1.7519863E-1,-3.7283266E-1,2.5128014E-2,-7.760999E-2,-4.3218452E-2,2.647732E-1],"split_indices":[3,42,20,24,41,45,44,75,4,21,61,9,55,55,54,0,0,0,0,0,0,0,0,0,0,0,0,0,0,0,0],"split_type":[0,0,0,0,0,0,0,0,0,0,0,0,0,0,0,0,0,0,0,0,0,0,0,0,0,0,0,0,0,0,0],"sum_hessian":[1.693E3,1.166E3,5.27E2,1.09E3,7.6E1,1.43E2,3.84E2,2.5E1,1.065E3,3.6E1,4E1,7.8E1,6.5E1,3.65E2,1.9E1,1E1,1.5E1,9.24E2,1.41E2,1.3E1,2.3E1,1.3E1,2.7E1,3.5E1,4.3E1,4.9E1,1.6E1,1.32E2,2.33E2,5E0,1.4E1],"tree_param":{"num_deleted":"0","num_feature":"80","num_nodes":"31","size_leaf_vector":"1"}},{"base_weights":[-1.0564148E-1,9.0683174E-1,-2.3709905E0,-1.9906256E-1,2.5228705E0,-4.8317323E0,-1.3066746E0,-1.0907613E0,1.0533892E0,3.77059E0,5.203347E-1,-3.70509E-1,-4.286716E0,-1.6399705E0,3.1838018E-1,-1.2313933E-1,-4.038401E-3,5.881464E-2,-3.5955675E-2,8.713356E-2,2.6440185E-1,-1.371233E-2,2.0934534E-1,1.00076064E-1,-1.5155584E-1,-8.846252E-2,1.8290969E-2],"categories":[],"categories_nodes":[],"categories_segments":[],"categories_sizes":[],"default_left":[0,0,0,0,0,0,0,0,0,0,0,0,0,0,0,0,0,0,0,0,0,0,0,0,0,0,0],"id":4,"left_children":[1,3,5,7,9,11,13,15,17,19,21,-1,23,25,-1,-1,-1,-1,-1,-1,-1,-1,-1,-1,-1,-1,-1],"loss_changes":[3.846379E3,2.0720625E3,1.3497178E3,7.706345E2,1.1744509E3,5.8464233E2,1.4585869E3,1.160356E3,5.8868274E2,1.2398828E3,1.1526213E3,0E0,8.743843E2,1.044322E3,0E0,0E0,0E0,0E0,0E0,0E0,0E0,0E0,0E0,0E0,0E0,0E0,0E0],"parents":[2147483647,0,0,1,1,2,2,3,3,4,4,5,5,6,6,7,7,8,8,9,9,10,10,12,12,13,13],"right_children":[2,4,6,8,10,12,14,16,18,20,22,-1,24,26,-1,-1,-1,-1,-1,-1,-1,-1,-1,-1,-1,-1,-1],"split_conditions":[1E1,4.854762E1,8.9923793E-1,4.86E1,2.18E1,5E-1,1.72E1,1.3333334E0,1.0984375E1,3.385366E0,1.3376623E0,-3.70509E-1,4.2727275E0,4.915E1,3.1838018E-1,-1.2313933E-1,-4.038401E-3,5.881464E-2,-3.5955675E-2,8.713356E-2,2.6440185E-1,-1.371233E-2,2.0934534E-1,1.00076064E-1,-1.5155584E-1,-8.846252E-2,1.8290969E-2],"split_indices":[3,2,1,8,15,7,44,16,54,11,42,0,14,8,0,0,0,0,0,0,0,0,0,0,0,0,0],"split_type":[0,0,0,0,0,0,0,0,0,0,0,0,0,0,0,0,0,0,0,0,0,0,0,0,0,0,0],"sum_hessian":[1.675E3,1.158E3,5.17E2,6.88E2,4.7E2,1.55E2,3.62E2,4.02E2,2.86E2,2.89E2,1.81E2,9E0,1.46E2,3.53E2,9E0,9.6E1,3.06E2,2.04E2,8.2E1,2.48E2,4.1E1,1.58E2,2.3E1,1.3E1,1.33E2,2.23E2,1.3E2],"tree_param":{"num_deleted":"0","num_feature":"80","num_nodes":"27","size_leaf_vector":"1"}},{"base_weights":[-1.2868807E-1,7.4310696E-1,-2.1205828E0,-2.3246361E-1,2.5805686E0,-1.5388949E0,-7.890215E0,-1.1308699E0,1.0925343E0,1.0103166E1,2.2081647E0,-2.7713802E0,6.517933E-1,-1.6837125E0,-9.737099E0,-5.0596405E-2,5.656942E-2,1.4624788E-1,1.4082581E-2,3.2910187E-2,3.970245E-1,1.0948929E-1,1.1667272E-2,-1.1393753E-1,-2.1926572E-3,9.3268916E-2,-4.6973735E-2,1.4761096E-2,-9.967186E-2,-1.3373443E-1,-3.7568626E-1],"categories":[],"categories_nodes":[],"categories_segments":[],"categories_sizes":[],"default_left":[0,0,0,0,0,0,0,0,0,0,0,0,0,0,0,0,0,0,0,0,0,0,0,0,0,0,0,0,0,0,0],"id":5,"left_children":[1,3,5,7,9,11,13,15,17,19,21,23,25,27,29,-1,-1,-1,-1,-1,-1,-1,-1,-1,-1,-1,-1,-1,-1,-1,-1],"loss_changes":[2.9433853E3,2.1142788E3,1.7186753E3,9.190273E2,1.1222502E3,1.2710144E3,5.212095E2,7.7421655E2,7.325196E2,5.198137E2,1.02354236E3,8.330742E2,9.313495E2,4.4702133E1,4.7192603E2,0E0,0E0,0E0,0E0,0E0,0E0,0E0,0E0,0E0,0E0,0E0,0E0,0E0,0E0,0E0,0E0],"parents":[2147483647,0,0,1,1,2,2,3,3,4,4,5,5,6,6,7,7,8,8,9,9,10,10,11,11,12,12,13,13,14,14],"right_children":[2,4,6,8,10,12,14,16,18,20,22,24,26,28,30,-1,-1,-1,-1,-1,-1,-1,-1,-1,-1,-1,-1,-1,-1,-1,-1],"split_conditions":[1E1,4.9017242E1,1.4666667E0,5.0731707E-1,4.767857E0,4.98E1,4.503846E1,2.4481482E1,1.04477614E-1,2.36875E1,6E0,9.7183096E-1,2.0333334E1,1.91E1,-2.97561E-1,-5.0596405E-2,5.656942E-2,1.4624788E-1,1.4082581E-2,3.2910187E-2,3.970245E-1,1.0948929E-1,1.1667272E-2,-1.1393753E-1,-2.1926572E-3,9.3268916E-2,-4.6973735E-2,1.4761096E-2,-9.967186E-2,-1.3373443E-1,-3.7568626E-1],"split_indices":[3,2,10,35,58,6,2,74,43,26,3,79,55,50,62,0,0,0,0,0,0,0,0,0,0,0,0,0,0,0,0],"split_type":[0,0,0,0,0,0,0,0,0,0,0,0,0,0,0,0,0,0,0,0,0,0,0,0,0,0,0,0,0,0,0],"sum_hessian":[1.693E3,1.178E3,5.15E2,7.7E2,4.08E2,4.69E2,4.6E1,4.59E2,3.11E2,1.8E1,3.9E2,3E2,1.69E2,1.1E1,3.5E1,3.88E2,7.1E1,4.3E1,2.68E2,5E0,1.3E1,2.17E2,1.73E2,2.17E2,8.3E1,8E1,8.9E1,5E0,6E0,1.3E1,2.2E1],"tree_param":{"num_deleted":"0","num_feature":"80","num_nodes":"31","size_leaf_vector":"1"}},{"base_weights":[-6.5466943E-3,8.5137814E-1,-1.8704354E0,1.7303256E0,-7.385816E-1,-1.3998614E-1,-2.9944775E0,2.6946108E0,1.3960579E-1,-2.1322918E0,1.3989412E0,-1.9537927E0,2.1868525E0,-2.4926434E0,-8.812415E0,6.907028E-2,2.359837E-1,1.7142331E-2,-1.745054E-1,-8.803649E-2,9.0017505E-2,2.4306185E-3,1.2317898E-1,3.4685466E-2,-1.03401996E-1,-1.4854899E-1,9.962312E-2,-4.3508057E-2,-1.4936759E-1,-3.428159E-2,-3.200311E-1],"categories":[],"categories_nodes":[],"categories_segments":[],"categories_sizes":[],"default_left":[0,0,0,0,0,0,0,0,0,0,0,0,0,0,0,0,0,0,0,0,0,0,0,0,0,0,0,0,0,0,0],"id":6,"left_children":[1,3,5,7,9,11,13,15,17,19,21,23,25,27,29,-1,-1,-1,-1,-1,-1,-1,-1,-1,-1,-1,-1,-1,-1,-1,-1],"loss_changes":[2.6785483E3,1.6042993E3,1.026279E3,1.132898E3,1.221503E3,8.863203E2,9.11188E2,9.1403784E2,7.2296704E2,1.0300354E3,5.77207E2,5.52089E2,7.609703E2,7.592593E2,3.423662E2,0E0,0E0,0E0,0E0,0E0,0E0,0E0,0E0,0E0,0E0,0E0,0E0,0E0,0E0,0E0,0E0],"parents":[2147483647,0,0,1,1,2,2,3,3,4,4,5,5,6,6,7,7,8,8,9,9,10,10,11,11,12,12,13,13,14,14],"right_children":[2,4,6,8,10,12,14,16,18,20,22,24,26,28,30,-1,-1,-1,-1,-1,-1,-1,-1,-1,-1,-1,-1,-1,-1,-1,-1],"split_conditions":[1E1,2.4050634E-1,1.95E1,2.3809524E-1,4.865E1,4.8625E1,1.4666667E0,1.82E1,2.86E1,1.3333334E0,4.61E1,2.9189188E0,1.58E1,1.1545455E1,-3.812805E0,6.907028E-2,2.359837E-1,1.7142331E-2,-1.745054E-1,-8.803649E-2,9.0017505E-2,2.4306185E-3,1.2317898E-1,3.4685466E-2,-1.03401996E-1,-1.4854899E-1,9.962312E-2,-4.3508057E-2,-1.4936759E-1,-3.428159E-2,-3.200311E-1],"split_indices":[3,19,55,43,8,6,10,18,15,42,66,75,25,58,5,0,0,0,0,0,0,0,0,0,0,0,0,0,0,0,0],"split_type":[0,0,0,0,0,0,0,0,0,0,0,0,0,0,0,0,0,0,0,0,0,0,0,0,0,0,0,0,0,0,0],"sum_hessian":[1.673E3,1.146E3,5.27E2,7.38E2,4.08E2,2.08E2,3.19E2,4.59E2,2.79E2,2.47E2,1.61E2,1.17E2,9.1E1,2.95E2,2.4E1,4.28E2,3.1E1,2.61E2,1.8E1,2.14E2,3.3E1,1.09E2,5.2E1,3.8E1,7.9E1,1.2E1,7.9E1,2.09E2,8.6E1,5E0,1.9E1],"tree_param":{"num_deleted":"0","num_feature":"80","num_nodes":"31","size_leaf_vector":"1"}},{"base_weights":[-8.923842E-2,7.505083E-1,-1.9152745E0,-5.2038436E0,9.4063836E-1,-1.4226643E0,-6.643436E0,-1.0164934E0,-9.329166E0,6.631511E-1,5.107902E0,-3.8599002E0,-5.9934354E-1,-4.171505E0,-1.0137756E1,5.495449E-2,-2.2529402E-1,-3.703091E-1,-8.443436E-2,1.5518612E-1,1.2722699E-2,2.2876775E-1,8.011105E-3,-5.0922796E-2,-2.1134588E-1,-5.1593293E-2,4.4110678E-2,-1.8935846E-1,8.548005E-3,-1.9014758E-1,-3.9880306E-1],"categories":[],"categories_nodes":[],"categories_segments":[],"categories_sizes":[],"default_left":[0,0,0,0,0,0,0,0,0,0,0,0,0,0,0,0,0,0,0,0,0,0,0,0,0,0,0,0,0,0,0],"id":7,"left_children":[1,3,5,7,9,11,13,15,17,19,21,23,25,27,29,-1,-1,-1,-1,-1,-1,-1,-1,-1,-1,-1,-1,-1,-1,-1,-1],"loss_changes":[2.5945466E3,1.3165739E3,1.2311738E3,6.113525E2,1.2957874E3,9.6844806E2,3.8816528E2,3.6572845E2,3.1723328E2,1.1346404E3,8.503202E2,8.274302E2,8.4433594E2,2.9810266E2,1.5358008E2,0E0,0E0,0E0,0E0,0E0,0E0,0E0,0E0,0E0,0E0,0E0,0E0,0E0,0E0,0E0,0E0],"parents":[2147483647,0,0,1,1,2,2,3,3,4,4,5,5,6,6,7,7,8,8,9,9,10,10,11,11,12,12,13,13,14,14],"right_children":[2,4,6,8,10,12,14,16,18,20,22,24,26,28,30,-1,-1,-1,-1,-1,-1,-1,-1,-1,-1,-1,-1,-1,-1,-1,-1],"split_conditions":[1E1,-5.45E0,1.4666667E0,1.3235294E0,1.4878049E0,1.275E1,2.12E1,4.32E1,3.2E0,4.8055553E0,2.1764705E0,3.125E0,2.3678572E1,2.4028572E1,3.2926828E-2,5.495449E-2,-2.2529402E-1,-3.703091E-1,-8.443436E-2,1.5518612E-1,1.2722699E-2,2.2876775E-1,8.011105E-3,-5.0922796E-2,-2.1134588E-1,-5.1593293E-2,4.4110678E-2,-1.8935846E-1,8.548005E-3,-1.9014758E-1,-3.9880306E-1],"split_indices":[3,24,10,10,42,20,55,8,38,58,29,45,39,60,28,0,0,0,0,0,0,0,0,0,0,0,0,0,0,0,0],"split_type":[0,0,0,0,0,0,0,0,0,0,0,0,0,0,0,0,0,0,0,0,0,0,0,0,0,0,0,0,0,0,0],"sum_hessian":[1.69E3,1.158E3,5.32E2,3.5E1,1.123E3,4.83E2,4.9E1,1.8E1,1.7E1,1.054E3,6.9E1,1.21E2,3.62E2,3E1,1.9E1,1.3E1,5E0,1.1E1,6E0,5.2E1,1.002E3,4.5E1,2.4E1,7.3E1,4.8E1,2.35E2,1.27E2,2E1,1E1,1E1,9E0],"tree_param":{"num_deleted":"0","num_feature":"80","num_nodes":"31","size_leaf_vector":"1"}},{"base_weights":[-1.843423E-1,7.1313167E-1,-2.1477258E0,-8.6318016E-2,2.4817927E0,-4.7548532E0,-9.8761E-1,6.981591E-1,-1.8716247E0,2.8039417E0,-7.955639E0,-7.980098E-1,-6.4130154E0,-1.4435958E0,7.4108453E0,2.6372809E-2,-2.0632541E-1,1.2541376E-1,-7.21224E-2,5.0618526E-2,1.681719E-1,-3.3571547E-1,-1.0134463E-1,-6.689538E-2,2.9455373E-1,-1.0730802E-1,-2.5042877E-1,-8.731227E-2,1.6727215E-2,3.549915E-1,9.3296215E-2],"categories":[],"categories_nodes":[],"categories_segments":[],"categories_sizes":[],"default_left":[0,0,0,0,0,0,0,0,0,0,0,0,0,0,0,0,0,0,0,0,0,0,0,0,0,0,0,0,0,0,0],"id":8,"left_children":[1,3,5,7,9,11,13,15,17,19,21,23,25,27,29,-1,-1,-1,-1,-1,-1,-1,-1,-1,-1,-1,-1,-1,-1,-1,-1],"loss_changes":[2.9602166E3,1.6307444E3,1.588678E3,1.1148473E3,1.228896E3,1.0570574E3,1.4117263E3,7.634437E2,7.929316E2,1.0817068E3,1.23623474E2,7.659859E2,5.944341E2,1.0233573E3,3.2308228E2,0E0,0E0,0E0,0E0,0E0,0E0,0E0,0E0,0E0,0E0,0E0,0E0,0E0,0E0,0E0,0E0],"parents":[2147483647,0,0,1,1,2,2,3,3,4,4,5,5,6,6,7,7,8,8,9,9,10,10,11,11,12,12,13,13,14,14],"right_children":[2,4,6,8,10,12,14,16,18,20,22,24,26,28,30,-1,-1,-1,-1,-1,-1,-1,-1,-1,-1,-1,-1,-1,-1,-1,-1],"split_conditions":[1E1,4.944E1,-2.1009707E-1,2.6984128E-1,4.981818E1,2.3333333E0,1.675E1,3E0,1.62E1,3.125E0,9.029851E-1,2.6152542E1,9.85E0,4.89E1,4.2857143E-1,2.6372809E-2,-2.0632541E-1,1.2541376E-1,-7.21224E-2,5.0618526E-2,1.681719E-1,-3.3571547E-1,-1.0134463E-1,-6.689538E-2,2.9455373E-1,-1.0730802E-1,-2.5042877E-1,-8.731227E-2,1.6727215E-2,3.549915E-1,9.3296215E-2],"split_indices":[3,2,59,19,21,45,44,0,30,45,1,60,37,6,12,0,0,0,0,0,0,0,0,0,0,0,0,0,0,0,0],"split_type":[0,0,0,0,0,0,0,0,0,0,0,0,0,0,0,0,0,0,0,0,0,0,0,0,0,0,0,0,0,0,0],"sum_hessian":[1.678E3,1.152E3,5.26E2,7.94E2,3.58E2,1.61E2,3.65E2,5.52E2,2.42E2,3.48E2,1E1,4.8E1,1.13E2,3.47E2,1.8E1,5.4E2,1.2E1,1.9E1,2.23E2,2.5E2,9.8E1,5E0,5E0,4.3E1,5E0,4.7E1,6.6E1,2E2,1.47E2,8E0,1E1],"tree_param":{"num_deleted":"0","num_feature":"80","num_nodes":"31","size_leaf_vector":"1"}},{"base_weights":[1.06346264E-1,9.5003015E-1,-1.7416582E0,3.0030513E-1,3.0704794E0,-4.048666E0,-7.140602E-1,-4.8742768E-1,1.7472417E0,1.9586406E0,6.110786E0,-1.2671838E0,-6.252239E0,-2.0012388E-1,-7.060527E0,-3.4260035E-2,7.609558E-2,-2.312793E-2,7.312845E-2,2.5739053E-1,4.4467505E-2,3.194174E-1,9.2483796E-2,-9.432975E-2,1.4954996E-1,4.111073E-2,-2.1384482E-1,-7.868016E-2,2.796739E-2,-1.267666E-1,-3.434228E-1],"categories":[],"categories_nodes":[],"categories_segments":[],"categories_sizes":[],"default_left":[0,0,0,0,0,0,0,0,0,0,0,0,0,0,0,0,0,0,0,0,0,0,0,0,0,0,0,0,0,0,0],"id":9,"left_children":[1,3,5,7,9,11,13,15,17,19,21,23,25,27,29,-1,-1,-1,-1,-1,-1,-1,-1,-1,-1,-1,-1,-1,-1,-1,-1],"loss_changes":[2.5866157E3,1.5679515E3,1.2293846E3,9.960225E2,8.8977246E2,9.719968E2,1.1753274E3,1.1230953E3,5.3749744E2,6.0765424E2,9.410857E2,8.60499E2,6.045791E2,9.2159314E2,2.8585303E2,0E0,0E0,0E0,0E0,0E0,0E0,0E0,0E0,0E0,0E0,0E0,0E0,0E0,0E0,0E0,0E0],"parents":[2147483647,0,0,1,1,2,2,3,3,4,4,5,5,6,6,7,7,8,8,9,9,10,10,11,11,12,12,13,13,14,14],"right_children":[2,4,6,8,10,12,14,16,18,20,22,24,26,28,30,-1,-1,-1,-1,-1,-1,-1,-1,-1,-1,-1,-1,-1,-1,-1,-1],"split_conditions":[1E1,2.807317E0,8.9923793E-1,4.8934784E1,2.5E1,2.5E0,1.6E0,3.846154E-1,4.575E1,2.21E1,1E0,5.02E1,1.185E1,1.3111111E1,-9.756098E-3,-3.4260035E-2,7.609558E-2,-2.312793E-2,7.312845E-2,2.5739053E-1,4.4467505E-2,3.194174E-1,9.2483796E-2,-9.432975E-2,1.4954996E-1,4.111073E-2,-2.1384482E-1,-7.868016E-2,2.796739E-2,-1.267666E-1,-3.434228E-1],"split_indices":[3,35,1,2,9,46,10,34,8,53,77,13,44,20,62,0,0,0,0,0,0,0,0,0,0,0,0,0,0,0,0],"split_type":[0,0,0,0,0,0,0,0,0,0,0,0,0,0,0,0,0,0,0,0,0,0,0,0,0,0,0,0,0,0,0],"sum_hessian":[1.657E3,1.138E3,5.19E2,8.72E2,2.66E2,1.59E2,3.6E2,5.65E2,3.07E2,1.96E2,7E1,7.1E1,8.8E1,3.34E2,2.6E1,4.65E2,1E2,6.6E1,2.41E2,1.2E1,1.84E2,2.7E1,4.3E1,5.5E1,1.6E1,9E0,7.9E1,1.06E2,2.28E2,1.7E1,9E0],"tree_param":{"num_deleted":"0","num_feature":"80","num_nodes":"31","size_leaf_vector":"1"}},{"base_weights":[-1.684165E-2,6.1558664E-1,-1.9341863E0,-7.01738E-2,2.3143125E0,-4.534696E0,-9.544122E-1,-2.8221872E-1,4.3510113E0,2.595382E0,-6.8556585E0,-5.333999E0,2.6289394E0,1.0384878E0,-2.0380137E0,-1.8346632E-2,7.4651234E-2,-5.552635E-2,1.8468772E-1,1.2762539E-1,4.6154242E-2,-3.597635E-1,-1.6797705E-2,-2.7989615E-2,-1.9594094E-1,2.2016548E-1,-5.30821E-2,1.91739E-1,-1.2628835E-2,-1.4337014E-2,-1.3023739E-1],"categories":[],"categories_nodes":[],"categories_segments":[],"categories_sizes":[],"default_left":[0,0,0,0,0,0,0,0,0,0,0,0,0,0,0,0,0,0,0,0,0,0,0,0,0,0,0,0,0,0,0],"id":10,"left_children":[1,3,5,7,9,11,13,15,17,19,21,23,25,27,29,-1,-1,-1,-1,-1,-1,-1,-1,-1,-1,-1,-1,-1,-1,-1,-1],"loss_changes":[2.0239109E3,1.4623604E3,1.0499585E3,8.398745E2,9.47808E2,6.61322E2,6.543883E2,7.814833E2,4.7085846E2,6.082473E2,3.4774573E2,5.306614E2,2.6213196E2,8.391882E2,7.017308E2,0E0,0E0,0E0,0E0,0E0,0E0,0E0,0E0,0E0,0E0,0E0,0E0,0E0,0E0,0E0,0E0],"parents":[2147483647,0,0,1,1,2,2,3,3,4,4,5,5,6,6,7,7,8,8,9,9,10,10,11,11,12,12,13,13,14,14],"right_children":[2,4,6,8,10,12,14,16,18,20,22,24,26,28,30,-1,-1,-1,-1,-1,-1,-1,-1,-1,-1,-1,-1,-1,-1,-1,-1],"split_conditions":[1.1E1,4.9555557E1,8.98E-1,7.890244E0,4.981818E1,1.6666666E0,1.026087E1,1.595E1,2.3333333E0,5E0,1.5384616E-1,-8.4416074E-1,3.25E0,7.1428573E-1,2E0,-1.8346632E-2,7.4651234E-2,-5.552635E-2,1.8468772E-1,1.2762539E-1,4.6154242E-2,-3.597635E-1,-1.6797705E-2,-2.7989615E-2,-1.9594094E-1,2.2016548E-1,-5.30821E-2,1.91739E-1,-1.2628835E-2,-1.4337014E-2,-1.3023739E-1],"split_indices":[3,2,1,35,21,65,31,44,69,3,34,59,46,72,77,0,0,0,0,0,0,0,0,0,0,0,0,0,0,0,0],"split_type":[0,0,0,0,0,0,0,0,0,0,0,0,0,0,0,0,0,0,0,0,0,0,0,0,0,0,0,0,0,0,0],"sum_hessian":[1.667E3,1.254E3,4.13E2,8.94E2,3.6E2,1.12E2,3.01E2,8.54E2,4E1,3.5E2,1E1,1.01E2,1.1E1,1.06E2,1.95E2,7.64E2,9E1,9E0,3.1E1,1.35E2,2.15E2,5E0,5E0,2.2E1,7.9E1,5E0,6E0,2.2E1,8.4E1,1.17E2,7.8E1],"tree_param":{"num_deleted":"0","num_feature":"80","num_nodes":"31","size_leaf_vector":"1"}},{"base_weights":[-8.626768E-2,-1.0846473E0,1.0917243E0,-1.0744262E-1,-2.577171E0,3.789732E-1,2.896029E0,6.1738086E-1,-2.6442637E0,-2.9760597E0,3.6456757E0,-1.6380247E-2,4.7217965E0,-1.9516988E-1,3.2875082E0,6.98586E-2,-7.0219347E-3,-1.7679209E-1,-1.5853133E-2,-1.1996523E-2,-1.1824199E-1,-1.2956328E-3,3.4712517E-1,1.2554837E-2,-1.146943E-1,-7.502015E-2,2.2042179E-1,1.6189186E-1,5.2157316E-2],"categories":[],"categories_nodes":[],"categories_segments":[],"categories_sizes":[],"default_left":[0,0,0,0,0,0,0,0,0,0,0,0,0,0,0,0,0,0,0,0,0,0,0,0,0,0,0,0,0],"id":11,"left_children":[1,3,5,7,9,11,13,15,17,19,21,23,25,-1,27,-1,-1,-1,-1,-1,-1,-1,-1,-1,-1,-1,-1,-1,-1],"loss_changes":[1.9664183E3,1.3193982E3,9.849523E2,1.0094689E3,8.994187E2,9.465874E2,8.19749E2,6.229049E2,8.3486053E2,8.360698E2,6.4481903E2,8.3960596E2,8.911693E2,0E0,6.726074E2,0E0,0E0,0E0,0E0,0E0,0E0,0E0,0E0,0E0,0E0,0E0,0E0,0E0,0E0],"parents":[2147483647,0,0,1,1,2,2,3,3,4,4,5,5,6,6,7,7,8,8,9,9,10,10,11,11,12,12,14,14],"right_children":[2,4,6,8,10,12,14,16,18,20,22,24,26,-1,28,-1,-1,-1,-1,-1,-1,-1,-1,-1,-1,-1,-1,-1,-1],"split_conditions":[4.8555557E1,9E0,2.807317E0,2.34E1,2.74E1,1.3636364E0,7.692308E-2,1.875E0,1.3529412E0,1.4E0,5.1E1,4.2857143E-1,2.2162163E1,-1.9516988E-1,2.251724E1,6.98586E-2,-7.0219347E-3,-1.7679209E-1,-1.5853133E-2,-1.1996523E-2,-1.1824199E-1,-1.2956328E-3,3.4712517E-1,1.2554837E-2,-1.146943E-1,-7.502015E-2,2.2042179E-1,1.6189186E-1,5.2157316E-2],"split_indices":[6,3,35,30,55,72,19,63,16,16,4,67,22,0,22,0,0,0,0,0,0,0,0,0,0,0,0,0,0],"split_type":[0,0,0,0,0,0,0,0,0,0,0,0,0,0,0,0,0,0,0,0,0,0,0,0,0,0,0,0,0],"sum_hessian":[1.67E3,9.04E2,7.66E2,5.47E2,3.57E2,5.5E2,2.16E2,4.26E2,1.21E2,3.36E2,2.1E1,5.05E2,4.5E1,8E0,2.08E2,1.41E2,2.85E2,4.7E1,7.4E1,9.2E1,2.44E2,1.5E1,6E0,4.54E2,5.1E1,1.2E1,3.3E1,8.7E1,1.21E2],"tree_param":{"num_deleted":"0","num_feature":"80","num_nodes":"29","size_leaf_vector":"1"}},{"base_weights":[1.8637769E-1,-6.6609687E-1,1.3368576E0,-1.393633E0,8.514177E-1,5.5082684E0,9.722124E-1,2.4490249E-1,-2.20992E0,1.6250853E-1,6.2961416E0,2.8202713E0,1.033505E1,-3.703363E0,1.2658616E0,-1.4739026E-2,1.2270163E-1,-8.807793E-2,1.3387437E-2,-6.353094E-3,2.0236918E-1,3.286382E-1,1.1971713E-1,-2.0130071E-1,1.4460045E-1,4.3449238E-1,1.0934675E-1,-2.3558633E-1,-3.1845573E-2,4.411593E-2,-1.6897792E-1],"categories":[],"categories_nodes":[],"categories_segments":[],"categories_sizes":[],"default_left":[0,0,0,0,0,0,0,0,0,0,0,0,0,0,0,0,0,0,0,0,0,0,0,0,0,0,0,0,0,0,0],"id":12,"left_children":[1,3,5,7,9,11,13,15,17,19,21,23,25,27,29,-1,-1,-1,-1,-1,-1,-1,-1,-1,-1,-1,-1,-1,-1,-1,-1],"loss_changes":[1.6407797E3,1.0622296E3,1.077009E3,8.701227E2,1.168618E3,7.090762E2,9.0511847E2,6.166559E2,8.384883E2,6.870526E2,3.3070508E2,7.56363E2,5.0041748E2,4.1830505E2,8.804237E2,0E0,0E0,0E0,0E0,0E0,0E0,0E0,0E0,0E0,0E0,0E0,0E0,0E0,0E0,0E0,0E0],"parents":[2147483647,0,0,1,1,2,2,3,3,4,4,5,5,6,6,7,7,8,8,9,9,10,10,11,11,12,12,13,13,14,14],"right_children":[2,4,6,8,10,12,14,16,18,20,22,24,26,28,30,-1,-1,-1,-1,-1,-1,-1,-1,-1,-1,-1,-1,-1,-1,-1,-1],"split_conditions":[4.86E1,4.907143E1,4.8055553E0,1E0,2.1317074E0,9.056934E-1,5.5E-1,2.427907E1,3.888889E-1,5.41E1,4.405E1,4.47E1,1.5E1,9.25E0,1.7272727E0,-1.4739026E-2,1.2270163E-1,-8.807793E-2,1.3387437E-2,-6.353094E-3,2.0236918E-1,3.286382E-1,1.1971713E-1,-2.0130071E-1,1.4460045E-1,4.3449238E-1,1.0934675E-1,-2.3558633E-1,-3.1845573E-2,4.411593E-2,-1.6897792E-1],"split_indices":[8,2,58,77,35,64,51,74,34,4,66,4,18,73,10,0,0,0,0,0,0,0,0,0,0,0,0,0,0,0,0],"split_type":[0,0,0,0,0,0,0,0,0,0,0,0,0,0,0,0,0,0,0,0,0,0,0,0,0,0,0,0,0,0,0],"sum_hessian":[1.671E3,9.6E2,7.11E2,6.49E2,3.11E2,5.6E1,6.55E2,2.16E2,4.33E2,2.77E2,3.4E1,3.7E1,1.9E1,3.8E1,6.17E2,1.82E2,3.4E1,3.4E2,9.3E1,2.63E2,1.4E1,1E1,2.4E1,6E0,3.1E1,1.1E1,8E0,1.4E1,2.4E1,6E2,1.7E1],"tree_param":{"num_deleted":"0","num_feature":"80","num_nodes":"31","size_leaf_vector":"1"}},{"base_weights":[4.183068E-2,-9.6444374E-1,1.1301696E0,7.4364874E-3,-2.4534724E0,5.1668006E-1,3.6981537E0,4.972855E-1,-3.071305E0,-4.2503476E0,-1.455396E0,2.549312E0,-4.3463263E-1,1.0120424E1,2.2747295E0,-2.759155E-2,4.3732297E-2,-4.853924E-2,-3.3319867E-1,-1.9812731E-1,-3.3553172E-2,-6.391732E-2,1.06384024E-1,-3.8408093E-2,9.982688E-2,-3.4154558E-1,-7.029679E-3,3.4664404E-1,8.75571E-2,1.0871329E-1,-9.6153066E-2],"categories":[],"categories_nodes":[],"categories_segments":[],"categories_sizes":[],"default_left":[0,0,0,0,0,0,0,0,0,0,0,0,0,0,0,0,0,0,0,0,0,0,0,0,0,0,0,0,0,0,0],"id":13,"left_children":[1,3,5,7,9,11,13,15,17,19,21,23,25,27,29,-1,-1,-1,-1,-1,-1,-1,-1,-1,-1,-1,-1,-1,-1,-1,-1],"loss_changes":[1.846464E3,1.2679728E3,1.2737672E3,8.020808E2,6.1376636E2,1.2678724E3,1.4018313E3,6.260808E2,8.332492E2,8.986201E2,7.638484E2,6.2736316E2,9.7663745E2,2.5407422E2,9.652956E2,0E0,0E0,0E0,0E0,0E0,0E0,0E0,0E0,0E0,0E0,0E0,0E0,0E0,0E0,0E0,0E0],"parents":[2147483647,0,0,1,1,2,2,3,3,4,4,5,5,6,6,7,7,8,8,9,9,10,10,11,11,12,12,13,13,14,14],"right_children":[2,4,6,8,10,12,14,16,18,20,22,24,26,28,30,-1,-1,-1,-1,-1,-1,-1,-1,-1,-1,-1,-1,-1,-1,-1,-1],"split_conditions":[4.85E1,9E0,2.440244E0,6.74359E0,1.3090909E1,1.8181819E0,4.862069E0,1E0,1.1014493E1,8.169014E-1,6E-1,6.111111E-1,-5.45E0,1.85E1,2.8222221E1,-2.759155E-2,4.3732297E-2,-4.853924E-2,-3.3319867E-1,-1.9812731E-1,-3.3553172E-2,-6.391732E-2,1.06384024E-1,-3.8408093E-2,9.982688E-2,-3.4154558E-1,-7.029679E-3,3.4664404E-1,8.75571E-2,1.0871329E-1,-9.6153066E-2],"split_indices":[6,3,11,14,20,36,58,7,54,79,56,79,24,55,53,0,0,0,0,0,0,0,0,0,0,0,0,0,0,0,0],"split_type":[0,0,0,0,0,0,0,0,0,0,0,0,0,0,0,0,0,0,0,0,0,0,0,0,0,0,0,0,0,0,0],"sum_hessian":[1.684E3,8.75E2,8.09E2,5.3E2,3.45E2,6.54E2,1.55E2,4.58E2,7.2E1,1.22E2,2.23E2,2.08E2,4.46E2,2.7E1,1.28E2,1.85E2,2.73E2,6.2E1,1E1,6.9E1,5.3E1,1.97E2,2.6E1,3.5E1,1.73E2,7E0,4.39E2,2.2E1,5E0,1.03E2,2.5E1],"tree_param":{"num_deleted":"0","num_feature":"80","num_nodes":"31","size_leaf_vector":"1"}},{"base_weights":[1.48413E-1,-9.072497E-1,1.4179226E0,-5.4296094E-1,-3.2014966E0,1.8365842E0,-1.8834095E0,1.6893291E0,-9.612692E-1,-4.010643E0,1.9484262E-1,2.058103E0,-5.155385E0,-2.968467E-1,-1.0762043E1,1.4958262E-1,5.8944785E-4,-4.824118E-2,2.849082E-2,1.638545E-1,-1.4578114E-1,5.119632E-2,2.31563E-1,-6.998859E-2,-3.1358048E-1,2.3641482E-2,-3.8221028E-1,-5.206279E-1,-7.8543015E-2],"categories":[],"categories_nodes":[],"categories_segments":[],"categories_sizes":[],"default_left":[0,0,0,0,0,0,0,0,0,0,0,0,0,0,0,0,0,0,0,0,0,0,0,0,0,0,0,0,0],"id":14,"left_children":[1,3,5,7,9,11,13,15,17,19,-1,21,23,25,27,-1,-1,-1,-1,-1,-1,-1,-1,-1,-1,-1,-1,-1,-1],"loss_changes":[2.2434485E3,7.617795E2,1.0538818E3,7.392415E2,1.006511E3,1.0557754E3,1.2071393E3,6.874684E2,8.2473834E2,9.5906836E2,0E0,1.2893718E3,2.8831232E2,1.0102279E3,6.504944E2,0E0,0E0,0E0,0E0,0E0,0E0,0E0,0E0,0E0,0E0,0E0,0E0,0E0,0E0],"parents":[2147483647,0,0,1,1,2,2,3,3,4,4,5,5,6,6,7,7,8,8,9,9,11,11,12,12,13,13,14,14],"right_children":[2,4,6,8,10,12,14,16,18,20,-1,22,24,26,28,-1,-1,-1,-1,-1,-1,-1,-1,-1,-1,-1,-1,-1,-1],"split_conditions":[4.8625E1,2.51E1,3.8235295E-1,-5.159437E-1,1.345E1,1.6923077E0,4.6153846E-1,2.9846153E0,2.3970202E-1,1.69E1,1.9484262E-1,1.5E0,4.525E1,2.8E1,6.022222E0,1.4958262E-1,5.8944785E-4,-4.824118E-2,2.849082E-2,1.638545E-1,-1.4578114E-1,5.119632E-2,2.31563E-1,-6.998859E-2,-3.1358048E-1,2.3641482E-2,-3.8221028E-1,-5.206279E-1,-7.8543015E-2],"split_indices":[6,15,43,33,37,10,67,75,33,50,0,42,66,15,14,0,0,0,0,0,0,0,0,0,0,0,0,0,0],"split_type":[0,0,0,0,0,0,0,0,0,0,0,0,0,0,0,0,0,0,0,0,0,0,0,0,0,0,0,0,0],"sum_hessian":[1.672E3,9.13E2,7.59E2,7.89E2,1.24E2,6.74E2,8.5E1,1.24E2,6.65E2,1.15E2,9E0,6.54E2,2E1,7.3E1,1.2E1,4.1E1,8.3E1,4.97E2,1.68E2,9E0,1.06E2,6.17E2,3.7E1,1.4E1,6E0,6.8E1,5E0,6E0,6E0],"tree_param":{"num_deleted":"0","num_feature":"80","num_nodes":"29","size_leaf_vector":"1"}},{"base_weights":[6.3378744E-2,1.4702269E0,-7.5121653E-1,6.394349E-1,3.9312348E0,-2.2582953E0,2.34946E-2,1.5075252E0,-1.7786653E0,2.8188016E0,9.643634E0,-1.174059E0,-4.1917796E0,-5.053336E-1,2.9621375E0,-1.3989802E-1,5.4154668E-2,7.8065276E-2,-8.603946E-2,5.0288543E-2,2.4468324E-1,3.7101895E-1,1.2934218E-1,-5.7280995E-2,1.2258588E-1,-5.3861946E-2,-1.9677003E-1,-7.1906336E-2,1.0700692E-2,1.5412325E-1,-2.5854453E-2],"categories":[],"categories_nodes":[],"categories_segments":[],"categories_sizes":[],"default_left":[0,0,0,0,0,0,0,0,0,0,0,0,0,0,0,0,0,0,0,0,0,0,0,0,0,0,0,0,0,0,0],"id":15,"left_children":[1,3,5,7,9,11,13,15,17,19,21,23,25,27,29,-1,-1,-1,-1,-1,-1,-1,-1,-1,-1,-1,-1,-1,-1,-1,-1],"loss_changes":[1.9344983E3,1.2626279E3,1.2483882E3,9.766503E2,9.6289746E2,7.5551855E2,1.1004469E3,6.3625464E2,5.944608E2,7.902755E2,3.080918E2,9.1267413E2,7.2484814E2,9.793923E2,9.032271E2,0E0,0E0,0E0,0E0,0E0,0E0,0E0,0E0,0E0,0E0,0E0,0E0,0E0,0E0,0E0,0E0],"parents":[2147483647,0,0,1,1,2,2,3,3,4,4,5,5,6,6,7,7,8,8,9,9,10,10,11,11,12,12,13,13,14,14],"right_children":[2,4,6,8,10,12,14,16,18,20,22,24,26,28,30,-1,-1,-1,-1,-1,-1,-1,-1,-1,-1,-1,-1,-1,-1,-1,-1],"split_conditions":[6E0,2.4842106E1,1.3111111E1,2.7272728E-1,2.5681818E1,2.1875E0,2.64E1,-4.792683E0,8.95E0,5.17E1,7.5409836E-1,3.3636363E0,2.0130434E1,8.993289E-1,8.5714287E-1,-1.3989802E-1,5.4154668E-2,7.8065276E-2,-8.603946E-2,5.0288543E-2,2.4468324E-1,3.7101895E-1,1.2934218E-1,-5.7280995E-2,1.2258588E-1,-5.3861946E-2,-1.9677003E-1,-7.1906336E-2,1.0700692E-2,1.5412325E-1,-2.5854453E-2],"split_indices":[3,9,20,43,26,36,53,24,47,4,79,23,25,1,79,0,0,0,0,0,0,0,0,0,0,0,0,0,0,0,0],"split_type":[0,0,0,0,0,0,0,0,0,0,0,0,0,0,0,0,0,0,0,0,0,0,0,0,0,0,0,0,0,0,0],"sum_hessian":[1.686E3,6.18E2,1.068E3,4.63E2,1.55E2,3.62E2,7.06E2,3.41E2,1.22E2,1.31E2,2.4E1,2.33E2,1.29E2,5.99E2,1.07E2,1.5E1,3.26E2,2.4E1,9.8E1,1.09E2,2.2E1,1.5E1,9E0,2.05E2,2.8E1,6.5E1,6.4E1,1.87E2,4.12E2,6.8E1,3.9E1],"tree_param":{"num_deleted":"0","num_feature":"80","num_nodes":"31","size_leaf_vector":"1"}},{"base_weights":[-5.6620438E-2,6.896559E-1,-1.6615525E0,-9.0736765E-1,1.5305336E0,-3.7913153E0,-6.746021E-1,5.5401096E0,-1.2527643E0,2.367015E0,3.943732E-2,-4.901142E0,3.4975833E-1,-7.508546E-2,-6.417759E0,4.4586E-2,2.8306195E-1,-1.5372108E-2,-1.32827E-1,7.725162E-2,-2.260051E-1,1.1615455E-1,-3.1264238E-2,-1.0516541E-1,-2.4665634E-1,1.02081135E-1,-1.4050908E-1,9.7956635E-2,-2.1568326E-2,1.0381769E-2,-2.5548267E-1],"categories":[],"categories_nodes":[],"categories_segments":[],"categories_sizes":[],"default_left":[0,0,0,0,0,0,0,0,0,0,0,0,0,0,0,0,0,0,0,0,0,0,0,0,0,0,0,0,0,0,0],"id":16,"left_children":[1,3,5,7,9,11,13,15,17,19,21,23,25,27,29,-1,-1,-1,-1,-1,-1,-1,-1,-1,-1,-1,-1,-1,-1,-1,-1],"loss_changes":[1.9810789E3,1.5175869E3,1.1005299E3,8.7501733E2,9.2264905E2,7.650845E2,1.2383914E3,3.0070795E2,8.6927234E2,9.951985E2,1.1110386E3,5.7712695E2,5.690095E2,7.0536725E2,4.8631677E2,0E0,0E0,0E0,0E0,0E0,0E0,0E0,0E0,0E0,0E0,0E0,0E0,0E0,0E0,0E0,0E0],"parents":[2147483647,0,0,1,1,2,2,3,3,4,4,5,5,6,6,7,7,8,8,9,9,10,10,11,11,12,12,13,13,14,14],"right_children":[2,4,6,8,10,12,14,16,18,20,22,24,26,28,30,-1,-1,-1,-1,-1,-1,-1,-1,-1,-1,-1,-1,-1,-1,-1,-1],"split_conditions":[1E1,4.6666668E1,1.3046875E1,1.56E1,2E0,5.0833332E1,1.5454545E0,1.5166667E1,9.1477925E-1,2.93E1,6.1754384E0,2.24E1,9.0610236E-1,5E-1,5.833333E-1,4.4586E-2,2.8306195E-1,-1.5372108E-2,-1.32827E-1,7.725162E-2,-2.260051E-1,1.1615455E-1,-3.1264238E-2,-1.0516541E-1,-2.4665634E-1,1.02081135E-1,-1.4050908E-1,9.7956635E-2,-2.1568326E-2,1.0381769E-2,-2.5548267E-1],"split_indices":[3,6,20,30,77,6,10,30,64,50,58,55,64,12,79,0,0,0,0,0,0,0,0,0,0,0,0,0,0,0,0],"split_type":[0,0,0,0,0,0,0,0,0,0,0,0,0,0,0,0,0,0,0,0,0,0,0,0,0,0,0,0,0,0,0],"sum_hessian":[1.652E3,1.128E3,5.24E2,3.89E2,7.39E2,1.65E2,3.59E2,1.9E1,3.7E2,4.73E2,2.66E2,1.3E2,3.5E1,3.26E2,3.3E1,1E1,9E0,3.01E2,6.9E1,4.64E2,9E0,5.8E1,2.08E2,9.3E1,3.7E1,2.2E1,1.3E1,5.2E1,2.74E2,8E0,2.5E1],"tree_param":{"num_deleted":"0","num_feature":"80","num_nodes":"31","size_leaf_vector":"1"}},{"base_weights":[4.41036E-2,1.2471793E0,-6.561066E-1,2.5804603E-1,4.1737165E0,-8.761565E-1,3.751613E0,8.947168E-1,-3.101903E0,1.1931865E1,3.433367E0,4.4233915E-1,-1.4482197E0,1.8111787E0,3.3966696E-1,5.698267E-3,1.2186181E-1,-1.2000721E-1,1.7775933E-1,1.470368E-1,4.7102576E-1,1.19274564E-1,-8.298544E-2,-1.3197256E-2,9.394713E-2,-9.02099E-2,-1.805264E-2,1.8245049E-1,-3.483635E-2],"categories":[],"categories_nodes":[],"categories_segments":[],"categories_sizes":[],"default_left":[0,0,0,0,0,0,0,0,0,0,0,0,0,0,0,0,0,0,0,0,0,0,0,0,0,0,0,0,0],"id":17,"left_children":[1,3,5,7,9,11,13,15,17,19,21,23,25,27,-1,-1,-1,-1,-1,-1,-1,-1,-1,-1,-1,-1,-1,-1,-1],"loss_changes":[1.396744E3,1.7642683E3,1.0194739E3,9.8016046E2,8.420332E2,7.5424963E2,7.126946E2,8.582245E2,6.1550244E2,2.6546606E2,4.8865845E2,7.2053503E2,9.1748645E2,5.2799207E2,0E0,0E0,0E0,0E0,0E0,0E0,0E0,0E0,0E0,0E0,0E0,0E0,0E0,0E0,0E0],"parents":[2147483647,0,0,1,1,2,2,3,3,4,4,5,5,6,6,7,7,8,8,9,9,10,10,11,11,12,12,13,13],"right_children":[2,4,6,8,10,12,14,16,18,20,22,24,26,28,-1,-1,-1,-1,-1,-1,-1,-1,-1,-1,-1,-1,-1,-1,-1],"split_conditions":[6E0,2.49E1,7.756098E0,3.2E-1,-4.399625E0,1E0,1.5666667E1,7.731707E-1,1.6E0,1.16E1,2.67E1,4.9869564E1,1.3111111E1,2.8292682E0,3.3966696E-1,5.698267E-3,1.2186181E-1,-1.2000721E-1,1.7775933E-1,1.470368E-1,4.7102576E-1,1.19274564E-1,-8.298544E-2,-1.3197256E-2,9.394713E-2,-9.02099E-2,-1.805264E-2,1.8245049E-1,-3.483635E-2],"split_indices":[3,9,35,43,5,77,57,62,42,18,50,2,20,27,0,0,0,0,0,0,0,0,0,0,0,0,0,0,0],"split_type":[0,0,0,0,0,0,0,0,0,0,0,0,0,0,0,0,0,0,0,0,0,0,0,0,0,0,0,0,0],"sum_hessian":[1.656E3,6.09E2,1.047E3,4.56E2,1.53E2,9.98E2,4.9E1,3.84E2,7.2E1,1.2E1,1.41E2,3.02E2,6.96E2,4E1,9E0,3.15E2,6.9E1,6.6E1,6E0,5E0,7E0,1.3E2,1.1E1,2.28E2,7.4E1,2.44E2,4.52E2,1.6E1,2.4E1],"tree_param":{"num_deleted":"0","num_feature":"80","num_nodes":"29","size_leaf_vector":"1"}},{"base_weights":[-6.149309E-3,6.002121E-1,-1.7719902E0,-5.948766E-2,2.190737E0,-4.2285237E0,-7.656753E-1,7.256604E-1,-1.4155579E0,3.7290335E0,5.627996E-1,-4.91201E0,2.6086402E0,-2.06795E-1,-5.3967786E0,2.860207E-2,-2.1340816E-1,-9.4170436E-2,1.108781E-2,6.7772746E-2,2.6452982E-1,8.341052E-2,-7.3150344E-2,1.00965776E-1,-1.5970522E-1,-3.2384597E-2,1.9480044E-1,4.3921307E-2,-6.0073726E-2,7.8517035E-2,-2.1834926E-1],"categories":[],"categories_nodes":[],"categories_segments":[],"categories_sizes":[],"default_left":[0,0,0,0,0,0,0,0,0,0,0,0,0,0,0,0,0,0,0,0,0,0,0,0,0,0,0,0,0,0,0],"id":18,"left_children":[1,3,5,7,9,11,13,15,17,19,21,23,25,27,29,-1,-1,-1,-1,-1,-1,-1,-1,-1,-1,-1,-1,-1,-1,-1,-1],"loss_changes":[1.8053739E3,1.317176E3,1.0617148E3,9.4656384E2,9.190364E2,5.971826E2,7.929109E2,1.01130676E3,1.0044191E3,1.39269E3,1.2047482E3,4.0641748E2,1.7947842E2,8.2805774E2,5.1710925E2,0E0,0E0,0E0,0E0,0E0,0E0,0E0,0E0,0E0,0E0,0E0,0E0,0E0,0E0,0E0,0E0],"parents":[2147483647,0,0,1,1,2,2,3,3,4,4,5,5,6,6,7,7,8,8,9,9,10,10,11,11,12,12,13,13,14,14],"right_children":[2,4,6,8,10,12,14,16,18,20,22,24,26,28,30,-1,-1,-1,-1,-1,-1,-1,-1,-1,-1,-1,-1,-1,-1,-1,-1],"split_conditions":[1.1E1,2.1634147E0,-2.1009707E-1,3.0344827E0,2.251724E1,2.5681818E1,1.4444444E0,4.905E1,2.2333334E1,5.0090908E1,1.0192307E0,2.090909E0,4.88E1,9.088682E-1,5.116279E-1,2.860207E-2,-2.1340816E-1,-9.4170436E-2,1.108781E-2,6.7772746E-2,2.6452982E-1,8.341052E-2,-7.3150344E-2,1.00965776E-1,-1.5970522E-1,-3.2384597E-2,1.9480044E-1,4.3921307E-2,-6.0073726E-2,7.8517035E-2,-2.1834926E-1],"split_indices":[3,35,59,27,22,26,10,21,22,13,10,70,6,64,79,0,0,0,0,0,0,0,0,0,0,0,0,0,0,0,0],"split_type":[0,0,0,0,0,0,0,0,0,0,0,0,0,0,0,0,0,0,0,0,0,0,0,0,0,0,0,0,0,0,0],"sum_hessian":[1.684E3,1.254E3,4.3E2,8.87E2,3.67E2,1.24E2,3.06E2,5.62E2,3.25E2,1.88E2,1.79E2,1.13E2,1.1E1,2.74E2,3.2E1,5.47E2,1.5E1,1.65E2,1.6E2,1.47E2,4.1E1,1.03E2,7.6E1,5E0,1.08E2,6E0,5E0,1.42E2,1.32E2,6E0,2.6E1],"tree_param":{"num_deleted":"0","num_feature":"80","num_nodes":"31","size_leaf_vector":"1"}},{"base_weights":[-1.7100604E-1,4.6900424E-1,-1.6621016E0,2.0554568E-1,4.1602626E0,-2.8238351E0,-2.7046221E-1,4.7612696E0,-1.6892083E-2,8.071682E0,1.5453819E0,2.7636306E0,-3.3229933E0,4.550876E-1,-4.94593E0,-5.139874E-2,1.9153972E-1,-6.0767617E-2,1.4899082E-2,3.4370124E-1,5.2469954E-2,1.5554282E-1,-3.70732E-2,-2.0168483E-2,2.1922639E-1,-1.1169753E-1,9.727897E-2,1.647679E-1,-1.6094139E-2,-8.249483E-2,-3.6204913E-1],"categories":[],"categories_nodes":[],"categories_segments":[],"categories_sizes":[],"default_left":[0,0,0,0,0,0,0,0,0,0,0,0,0,0,0,0,0,0,0,0,0,0,0,0,0,0,0,0,0,0,0],"id":19,"left_children":[1,3,5,7,9,11,13,15,17,19,21,23,25,27,29,-1,-1,-1,-1,-1,-1,-1,-1,-1,-1,-1,-1,-1,-1,-1,-1],"loss_changes":[1.5984247E3,1.1384708E3,8.1213403E2,1.1101896E3,7.8434033E2,7.7343335E2,7.829254E2,5.474529E2,1.0790988E3,6.421177E2,4.926427E2,3.6466376E2,6.7436304E2,1.0023735E3,4.5021783E2,0E0,0E0,0E0,0E0,0E0,0E0,0E0,0E0,0E0,0E0,0E0,0E0,0E0,0E0,0E0,0E0],"parents":[2147483647,0,0,1,1,2,2,3,3,4,4,5,5,6,6,7,7,8,8,9,9,10,10,11,11,12,12,13,13,14,14],"right_children":[2,4,6,8,10,12,14,16,18,20,22,24,26,28,30,-1,-1,-1,-1,-1,-1,-1,-1,-1,-1,-1,-1,-1,-1,-1,-1],"split_conditions":[1E1,1.4878049E0,4.8625E1,4.8055553E0,1.9333333E0,2.1666667E0,5.315E1,4.4444447E0,2.0956522E1,1.15737705E1,2.1358025E1,-1.0475609E0,2.74E1,1.7E1,1.105E1,-5.139874E-2,1.9153972E-1,-6.0767617E-2,1.4899082E-2,3.4370124E-1,5.2469954E-2,1.5554282E-1,-3.70732E-2,-2.0168483E-2,2.1922639E-1,-1.1169753E-1,9.727897E-2,1.647679E-1,-1.6094139E-2,-8.249483E-2,-3.6204913E-1],"split_indices":[3,42,6,58,29,70,13,58,22,31,22,5,55,55,47,0,0,0,0,0,0,0,0,0,0,0,0,0,0,0,0],"split_type":[0,0,0,0,0,0,0,0,0,0,0,0,0,0,0,0,0,0,0,0,0,0,0,0,0,0,0,0,0,0,0],"sum_hessian":[1.673E3,1.171E3,5.02E2,1.094E3,7.7E1,2.73E2,2.29E2,5E1,1.044E3,3E1,4.7E1,2.2E1,2.51E2,1.99E2,3E1,1E1,4E1,2.12E2,8.32E2,1.9E1,1.1E1,2E1,2.7E1,1.3E1,9E0,2.37E2,1.4E1,3.2E1,1.67E2,2.4E1,6E0],"tree_param":{"num_deleted":"0","num_feature":"80","num_nodes":"31","size_leaf_vector":"1"}},{"base_weights":[-1.5634388E-1,3.8630733E-1,-1.7270473E0,9.125238E-1,-1.3856705E0,-6.396209E-2,-2.993818E0,1.8500227E-1,2.5668008E0,4.4468385E-1,-2.3518817E0,-5.212485E-1,2.7538148E-1,-3.2698786E0,2.6006815E-1,-5.5905418E-3,1.025961E-1,8.877113E-2,-1.22544564E-1,-4.6544533E-2,1.3824137E-1,-0E0,-1.218536E-1,5.4989427E-2,-5.7289552E-2,-1.7883508E-1,-7.063102E-2],"categories":[],"categories_nodes":[],"categories_segments":[],"categories_sizes":[],"default_left":[0,0,0,0,0,0,0,0,0,0,0,0,0,0,0,0,0,0,0,0,0,0,0,0,0,0,0],"id":20,"left_children":[1,3,5,7,9,11,13,15,17,19,21,23,-1,25,-1,-1,-1,-1,-1,-1,-1,-1,-1,-1,-1,-1,-1],"loss_changes":[1.4506385E3,1.1807587E3,9.201515E2,1.1738876E3,5.141042E2,8.0702155E2,8.262742E2,8.166297E2,7.894592E2,8.4684283E2,7.638363E2,5.9839685E2,0E0,5.8386304E2,0E0,0E0,0E0,0E0,0E0,0E0,0E0,0E0,0E0,0E0,0E0,0E0,0E0],"parents":[2147483647,0,0,1,1,2,2,3,3,4,4,5,5,6,6,7,7,8,8,9,9,10,10,11,11,13,13],"right_children":[2,4,6,8,10,12,14,16,18,20,22,24,-1,26,-1,-1,-1,-1,-1,-1,-1,-1,-1,-1,-1,-1,-1],"split_conditions":[1.1E1,2.6984128E-1,2.0333334E1,2.1634147E0,6.25E-1,2.6666667E0,1.775E1,1.6666666E0,1.2878788E1,2.3529412E-1,1.96E1,2E0,2.7538148E-1,8.978102E-1,2.6006815E-1,-5.5905418E-3,1.025961E-1,8.877113E-2,-1.22544564E-1,-4.6544533E-2,1.3824137E-1,-0E0,-1.218536E-1,5.4989427E-2,-5.7289552E-2,-1.7883508E-1,-7.063102E-2],"split_indices":[3,19,55,35,12,29,44,65,31,43,50,36,0,1,0,0,0,0,0,0,0,0,0,0,0,0,0],"split_type":[0,0,0,0,0,0,0,0,0,0,0,0,0,0,0,0,0,0,0,0,0,0,0,0,0,0,0],"sum_hessian":[1.7E3,1.264E3,4.36E2,9.75E2,2.89E2,1.89E2,2.47E2,6.78E2,2.97E2,1E2,1.89E2,1.81E2,8E0,2.42E2,5E0,6.09E2,6.9E1,2.81E2,1.6E1,6.8E1,3.2E1,8E1,1.09E2,6.7E1,1.14E2,6E1,1.82E2],"tree_param":{"num_deleted":"0","num_feature":"80","num_nodes":"27","size_leaf_vector":"1"}},{"base_weights":[2.713526E-2,-6.1040926E-1,1.2268937E0,-8.194846E-1,3.6050377E0,1.6184772E0,-5.794803E0,-2.1260865E0,-2.4568583E-1,7.9923433E-1,6.599336E0,4.1813536E0,1.0363271E0,5.8328826E-2,-8.137218E0,-1.6746075E-1,-4.057605E-2,-3.9879143E-2,2.401066E-2,-6.530755E-2,1.6817208E-1,3.3988333E-1,1.11032456E-1,5.663819E-2,1.9580235E-1,5.846921E-2,-2.0708853E-2,-3.5896772E-1,-9.910139E-2],"categories":[],"categories_nodes":[],"categories_segments":[],"categories_sizes":[],"default_left":[0,0,0,0,0,0,0,0,0,0,0,0,0,0,0,0,0,0,0,0,0,0,0,0,0,0,0,0,0],"id":21,"left_children":[1,3,5,7,9,11,13,15,17,19,21,23,25,-1,27,-1,-1,-1,-1,-1,-1,-1,-1,-1,-1,-1,-1,-1,-1],"loss_changes":[1.2850767E3,9.6951245E2,1.611967E3,7.834546E2,4.3085913E2,8.202091E2,5.7841406E2,8.445543E2,8.263122E2,4.130828E2,2.992921E2,5.354895E2,7.1373096E2,0E0,4.0308386E2,0E0,0E0,0E0,0E0,0E0,0E0,0E0,0E0,0E0,0E0,0E0,0E0,0E0,0E0],"parents":[2147483647,0,0,1,1,2,2,3,3,4,4,5,5,6,6,7,7,8,8,9,9,10,10,11,11,12,12,14,14],"right_children":[2,4,6,8,10,12,14,16,18,20,22,24,26,-1,28,-1,-1,-1,-1,-1,-1,-1,-1,-1,-1,-1,-1,-1,-1],"split_conditions":[4.8934784E1,7.607317E0,2.8E1,8.8461536E-1,5.121951E-1,-8.3658534E-1,4.9775864E1,1.1111111E-1,4.76E1,8.5714287E-1,2.1538463E0,9.111111E-1,3.0833333E0,5.8328826E-2,9.090106E-1,-1.6746075E-1,-4.057605E-2,-3.9879143E-2,2.401066E-2,-6.530755E-2,1.6817208E-1,3.3988333E-1,1.11032456E-1,5.663819E-2,1.9580235E-1,5.846921E-2,-2.0708853E-2,-3.5896772E-1,-9.910139E-2],"split_indices":[2,35,15,42,62,62,2,34,4,0,36,1,70,0,1,0,0,0,0,0,0,0,0,0,0,0,0,0,0],"split_type":[0,0,0,0,0,0,0,0,0,0,0,0,0,0,0,0,0,0,0,0,0,0,0,0,0,0,0,0,0],"sum_hessian":[1.678E3,1.096E3,5.82E2,1.045E3,5.1E1,5.52E2,3E1,3.18E2,7.27E2,2.7E1,2.4E1,1.01E2,4.51E2,7E0,2.3E1,5.7E1,2.61E2,3.57E2,3.7E2,1.7E1,1E1,8E0,1.6E1,5.2E1,4.9E1,2.95E2,1.56E2,1.2E1,1.1E1],"tree_param":{"num_deleted":"0","num_feature":"80","num_nodes":"29","size_leaf_vector":"1"}},{"base_weights":[-9.339188E-2,6.941574E-1,-1.3898104E0,2.987778E0,1.8233788E-1,-3.1343465E0,-5.466698E-1,4.358958E0,4.0398547E-1,-5.6311593E0,3.938944E-1,-3.6357198E0,2.1138437E-1,2.9889944E-1,-2.0235527E0,6.610698E-2,2.0083494E-1,-4.7255483E-2,1.7654361E-1,2.2520466E-2,-2.3971488E-1,-7.371249E-2,2.2935282E-2,-1.8338251E-1,-7.356301E-2,3.8453843E-2,-8.988532E-2,5.725795E-2,-9.044385E-2],"categories":[],"categories_nodes":[],"categories_segments":[],"categories_sizes":[],"default_left":[0,0,0,0,0,0,0,0,0,0,0,0,0,0,0,0,0,0,0,0,0,0,0,0,0,0,0,0,0],"id":22,"left_children":[1,3,5,7,9,11,13,15,17,19,21,23,-1,25,27,-1,-1,-1,-1,-1,-1,-1,-1,-1,-1,-1,-1,-1,-1],"loss_changes":[1.7101775E3,1.2223625E3,9.289912E2,6.709031E2,1.0507848E3,1.0767479E3,5.352666E2,6.0857495E2,7.3647833E2,4.5842975E2,8.7236005E2,5.617312E2,0E0,8.878383E2,6.139081E2,0E0,0E0,0E0,0E0,0E0,0E0,0E0,0E0,0E0,0E0,0E0,0E0,0E0,0E0],"parents":[2147483647,0,0,1,1,2,2,3,3,4,4,5,5,6,6,7,7,8,8,9,9,10,10,11,11,13,13,14,14],"right_children":[2,4,6,8,10,12,14,16,18,20,22,24,-1,26,28,-1,-1,-1,-1,-1,-1,-1,-1,-1,-1,-1,-1,-1,-1],"split_conditions":[2E0,-4.4983575E-1,-1.8318143E-1,2.9166667E0,4.33E1,5.271951E0,2.3809524E-1,1.44E1,1.2307693E0,4.511111E1,-3.199375E-1,1.4893617E-1,2.1138437E-1,3.235294E0,5.7972975E0,6.610698E-2,2.0083494E-1,-4.7255483E-2,1.7654361E-1,2.2520466E-2,-2.3971488E-1,-7.371249E-2,2.2935282E-2,-1.8338251E-1,-7.356301E-2,3.8453843E-2,-8.988532E-2,5.725795E-2,-9.044385E-2],"split_indices":[77,33,59,27,8,78,43,20,72,4,33,43,0,27,58,0,0,0,0,0,0,0,0,0,0,0,0,0,0],"split_type":[0,0,0,0,0,0,0,0,0,0,0,0,0,0,0,0,0,0,0,0,0,0,0,0,0,0,0,0,0],"sum_hessian":[1.673E3,1.041E3,6.32E2,1.89E2,8.52E2,2.05E2,4.27E2,1.23E2,6.6E1,2.9E1,8.23E2,1.96E2,9E0,2.72E2,1.55E2,6.5E1,5.8E1,4.9E1,1.7E1,8E0,2.1E1,9.4E1,7.29E2,6.2E1,1.34E2,2.1E2,6.2E1,3.1E1,1.24E2],"tree_param":{"num_deleted":"0","num_feature":"80","num_nodes":"29","size_leaf_vector":"1"}},{"base_weights":[-2.4645892E-3,1.4027667E0,-8.2644874E-1,5.869616E-1,3.8096907E0,-1.8021977E0,2.8987175E-1,-5.2195168E0,8.9902574E-1,3.2002258E0,1.1654338E1,-2.6698785E0,-2.4802355E-1,1.2673908E0,-1.370295E0,-2.3924476E-1,1.3076639E-1,-2.4288709E-3,9.310595E-2,1.4408906E-1,1.672055E-3,1.6560109E-1,4.7488746E-1,-6.902186E-2,-2.0592424E-1,-2.3850793E-2,2.5822574E-1,1.1058513E-1,1.0153134E-2,-1.37347095E-2,-1.714685E-1],"categories":[],"categories_nodes":[],"categories_segments":[],"categories_sizes":[],"default_left":[0,0,0,0,0,0,0,0,0,0,0,0,0,0,0,0,0,0,0,0,0,0,0,0,0,0,0,0,0,0,0],"id":23,"left_children":[1,3,5,7,9,11,13,15,17,19,21,23,25,27,29,-1,-1,-1,-1,-1,-1,-1,-1,-1,-1,-1,-1,-1,-1,-1,-1],"loss_changes":[1.9579329E3,1.2245621E3,1.1618125E3,8.522733E2,7.166221E2,7.663578E2,8.09903E2,6.685175E2,9.619269E2,7.451383E2,1.9221948E2,5.484248E2,9.990841E2,7.038869E2,7.302875E2,0E0,0E0,0E0,0E0,0E0,0E0,0E0,0E0,0E0,0E0,0E0,0E0,0E0,0E0,0E0,0E0],"parents":[2147483647,0,0,1,1,2,2,3,3,4,4,5,5,6,6,7,7,8,8,9,9,10,10,11,11,12,12,13,13,14,14],"right_children":[2,4,6,8,10,12,14,16,18,20,22,24,26,28,30,-1,-1,-1,-1,-1,-1,-1,-1,-1,-1,-1,-1,-1,-1,-1,-1],"split_conditions":[6E0,2.49E1,4.8625E1,-4.792683E0,1.295E1,2.2822784E1,2.55E1,3.75E0,3.3333334E-1,8.403057E-2,1.5384616E-1,2.7E1,5.3666668E1,1.86E1,1.4E1,-2.3924476E-1,1.3076639E-1,-2.4288709E-3,9.310595E-2,1.4408906E-1,1.672055E-3,1.6560109E-1,4.7488746E-1,-6.902186E-2,-2.0592424E-1,-2.3850793E-2,2.5822574E-1,1.1058513E-1,1.0153134E-2,-1.37347095E-2,-1.714685E-1],"split_indices":[3,9,6,24,37,74,9,69,49,33,34,15,4,50,3,0,0,0,0,0,0,0,0,0,0,0,0,0,0,0,0],"split_type":[0,0,0,0,0,0,0,0,0,0,0,0,0,0,0,0,0,0,0,0,0,0,0,0,0,0,0,0,0,0,0],"sum_hessian":[1.689E3,6.24E2,1.065E3,4.67E2,1.57E2,5.68E2,4.97E2,2.3E1,4.44E2,1.47E2,1E1,3.64E2,2.04E2,3.13E2,1.84E2,1.8E1,5E0,3.08E2,1.36E2,9.7E1,5E1,5E0,5E0,3.36E2,2.8E1,1.93E2,1.1E1,8.6E1,2.27E2,1.53E2,3.1E1],"tree_param":{"num_deleted":"0","num_feature":"80","num_nodes":"31","size_leaf_vector":"1"}},{"base_weights":[-1.2174087E-2,6.285137E-1,-1.4257288E0,1.349791E0,-7.0625895E-1,-1.7572815E0,4.1443415E0,4.687704E0,8.7004477E-1,3.4593427E0,-1.10454E0,-2.490152E0,1.0720969E-1,9.82202E0,8.0940145E-1,7.628145E-2,2.5912806E-1,-6.743456E-2,4.2227298E-2,-6.788116E-2,2.4465351E-1,1.0291203E-1,-4.6137527E-2,-1.3609758E-1,-4.773426E-2,6.647736E-2,-7.059157E-2,3.9995062E-1,1.397604E-1,-1.0178018E-1,1.00221716E-1],"categories":[],"categories_nodes":[],"categories_segments":[],"categories_sizes":[],"default_left":[0,0,0,0,0,0,0,0,0,0,0,0,0,0,0,0,0,0,0,0,0,0,0,0,0,0,0,0,0,0,0],"id":24,"left_children":[1,3,5,7,9,11,13,15,17,19,21,23,25,27,29,-1,-1,-1,-1,-1,-1,-1,-1,-1,-1,-1,-1,-1,-1,-1,-1],"loss_changes":[1.5360479E3,1.1245366E3,9.8398645E2,1.2091902E3,6.838085E2,6.8372046E2,5.590283E2,7.818054E2,1.1159115E3,9.863419E2,7.4208966E2,6.526443E2,7.418909E2,1.3543066E2,2.240649E2,0E0,0E0,0E0,0E0,0E0,0E0,0E0,0E0,0E0,0E0,0E0,0E0,0E0,0E0,0E0,0E0],"parents":[2147483647,0,0,1,1,2,2,3,3,4,4,5,5,6,6,7,7,8,8,9,9,10,10,11,11,12,12,13,13,14,14],"right_children":[2,4,6,8,10,12,14,16,18,20,22,24,26,28,30,-1,-1,-1,-1,-1,-1,-1,-1,-1,-1,-1,-1,-1,-1,-1,-1],"split_conditions":[1E1,2.4050634E-1,1.665E1,2.55E0,4.3555555E0,4.6341464E-1,4.2857143E-1,1.0714286E1,8.3333336E-2,1.8125E0,5.1578946E0,-1.949087E-1,-1.0602532E-1,9.115942E-1,4.365E1,7.628145E-2,2.5912806E-1,-6.743456E-2,4.2227298E-2,-6.788116E-2,2.4465351E-1,1.0291203E-1,-4.6137527E-2,-1.3609758E-1,-4.773426E-2,6.647736E-2,-7.059157E-2,3.9995062E-1,1.397604E-1,-1.0178018E-1,1.00221716E-1],"split_indices":[3,19,44,23,14,28,12,31,19,63,58,59,33,1,21,0,0,0,0,0,0,0,0,0,0,0,0,0,0,0,0],"split_type":[0,0,0,0,0,0,0,0,0,0,0,0,0,0,0,0,0,0,0,0,0,0,0,0,0,0,0,0,0,0,0],"sum_hessian":[1.694E3,1.166E3,5.28E2,7.57E2,4.09E2,4.99E2,2.9E1,9.4E1,6.63E2,3.5E1,3.74E2,3.58E2,1.41E2,1E1,1.9E1,6.2E1,3.2E1,9.7E1,5.66E2,1.6E1,1.9E1,3.2E1,3.42E2,1.08E2,2.5E2,7.6E1,6.5E1,5E0,5E0,7E0,1.2E1],"tree_param":{"num_deleted":"0","num_feature":"80","num_nodes":"31","size_leaf_vector":"1"}},{"base_weights":[-2.091684E-2,6.2347806E-1,-1.4523783E0,5.135992E0,3.8872913E-1,5.1294327E-1,-2.4592512E0,2.262859E0,9.405417E0,1.1558274E-1,4.1844106E0,-8.101802E-1,4.6232834E0,-5.0973696E-1,-3.5944438E0,1.1337667E-1,-1.3634461E-1,3.6271194E-1,-6.0127755E-3,1.9994896E-2,-4.773693E-2,1.6791922E-1,4.2238767E-4,-4.824057E-2,2.2878926E-1,1.7241606E-1,-1.0308213E-1,-4.7445487E-2,9.822295E-2,-2.1587807E-1,-8.420174E-2],"categories":[],"categories_nodes":[],"categories_segments":[],"categories_sizes":[],"default_left":[0,0,0,0,0,0,0,0,0,0,0,0,0,0,0,0,0,0,0,0,0,0,0,0,0,0,0,0,0,0,0],"id":25,"left_children":[1,3,5,7,9,11,13,15,17,19,21,23,25,27,29,-1,-1,-1,-1,-1,-1,-1,-1,-1,-1,-1,-1,-1,-1,-1,-1],"loss_changes":[1.5718806E3,1.2421377E3,1.0482565E3,6.890144E2,1.1582026E3,9.830549E2,7.7233325E2,3.887242E2,5.9681665E2,9.8264905E2,4.4127844E2,9.338027E2,4.1853363E2,5.322155E2,6.05772E2,0E0,0E0,0E0,0E0,0E0,0E0,0E0,0E0,0E0,0E0,0E0,0E0,0E0,0E0,0E0,0E0],"parents":[2147483647,0,0,1,1,2,2,3,3,4,4,5,5,6,6,7,7,8,8,9,9,10,10,11,11,12,12,13,13,14,14],"right_children":[2,4,6,8,10,12,14,16,18,20,22,24,26,28,30,-1,-1,-1,-1,-1,-1,-1,-1,-1,-1,-1,-1,-1,-1,-1,-1],"split_conditions":[1E1,4.8055553E0,2.4E0,2.44E1,1.4878049E0,1.5235294E1,1.9333333E0,1.0948718E1,1.945E1,2.6984128E-1,4.605E1,4.4329267E0,2.41E1,2.575E1,3.05E0,1.1337667E-1,-1.3634461E-1,3.6271194E-1,-6.0127755E-3,1.9994896E-2,-4.773693E-2,1.6791922E-1,4.2238767E-4,-4.824057E-2,2.2878926E-1,1.7241606E-1,-1.0308213E-1,-4.7445487E-2,9.822295E-2,-2.1587807E-1,-8.420174E-2],"split_indices":[3,58,45,9,42,44,36,54,30,19,66,5,71,61,23,0,0,0,0,0,0,0,0,0,0,0,0,0,0,0,0],"split_type":[0,0,0,0,0,0,0,0,0,0,0,0,0,0,0,0,0,0,0,0,0,0,0,0,0,0,0,0,0,0,0],"sum_hessian":[1.702E3,1.174E3,5.28E2,5.7E1,1.117E3,1.79E2,3.49E2,3.5E1,2.2E1,1.043E3,7.4E1,1.36E2,4.3E1,1.29E2,2.2E2,2.9E1,6E0,1.7E1,5E0,7.89E2,2.54E2,5.5E1,1.9E1,1.25E2,1.1E1,3.8E1,5E0,1.01E2,2.8E1,3.8E1,1.82E2],"tree_param":{"num_deleted":"0","num_feature":"80","num_nodes":"31","size_leaf_vector":"1"}},{"base_weights":[6.745309E-2,3.0671662E-1,-2.9636085E0,-9.823038E-3,2.312498E0,9.81923E-1,-4.002361E0,3.4069865E0,-1.7749105E-1,3.0839586E0,-4.0560064E0,3.5055037E0,-1.248969E-1,-6.425976E0,-1.4427879E0,2.7628168E-2,2.5729915E-1,-6.0656726E-2,4.63926E-3,1.0911741E-1,-7.971001E-2,-1.9046677E-2,-3.1136218E-1,2.2773604E-1,6.1894287E-3,-2.6161325E-1,-5.9531122E-2,7.666118E-2,-1.3180354E-1],"categories":[],"categories_nodes":[],"categories_segments":[],"categories_sizes":[],"default_left":[0,0,0,0,0,0,0,0,0,0,0,0,0,0,0,0,0,0,0,0,0,0,0,0,0,0,0,0,0],"id":26,"left_children":[1,3,5,7,9,11,13,15,17,19,21,23,-1,25,27,-1,-1,-1,-1,-1,-1,-1,-1,-1,-1,-1,-1,-1,-1],"loss_changes":[1.1994363E3,9.7356903E2,5.0014197E2,7.5936053E2,1.0392386E3,3.521179E2,5.854701E2,7.879759E2,7.748082E2,6.0375024E2,4.8981796E2,2.402849E2,0E0,4.8098938E2,5.776776E2,0E0,0E0,0E0,0E0,0E0,0E0,0E0,0E0,0E0,0E0,0E0,0E0,0E0,0E0],"parents":[2147483647,0,0,1,1,2,2,3,3,4,4,5,5,6,6,7,7,8,8,9,9,10,10,11,11,13,13,14,14],"right_children":[2,4,6,8,10,12,14,16,18,20,22,24,-1,26,28,-1,-1,-1,-1,-1,-1,-1,-1,-1,-1,-1,-1,-1,-1],"split_conditions":[1.4666667E0,5.24E1,8.125E-1,4.8055553E0,3.846154E-1,1.5E1,1.1333333E0,7.237805E-1,2.0363636E1,2.8E1,8.5714287E-1,9.0455717E-1,-1.248969E-1,2.857143E0,8E0,2.7628168E-2,2.5729915E-1,-6.0656726E-2,4.63926E-3,1.0911741E-1,-7.971001E-2,-1.9046677E-2,-3.1136218E-1,2.2773604E-1,6.1894287E-3,-2.6161325E-1,-5.9531122E-2,7.666118E-2,-1.3180354E-1],"split_indices":[10,6,72,58,67,40,72,5,22,15,12,64,0,45,3,0,0,0,0,0,0,0,0,0,0,0,0,0,0],"split_type":[0,0,0,0,0,0,0,0,0,0,0,0,0,0,0,0,0,0,0,0,0,0,0,0,0,0,0,0,0],"sum_hessian":[1.652E3,1.532E3,1.2E2,1.324E3,2.08E2,2.5E1,9.5E1,6.1E1,1.263E3,1.86E2,2.2E1,1.7E1,8E0,4.8E1,4.7E1,4.2E1,1.9E1,1.92E2,1.071E3,1.7E2,1.6E1,1.5E1,7E0,7E0,1E1,3.1E1,1.7E1,2E1,2.7E1],"tree_param":{"num_deleted":"0","num_feature":"80","num_nodes":"29","size_leaf_vector":"1"}},{"base_weights":[1.3305901E-2,1.2726378E0,-6.1078024E-1,1.6899649E0,-2.980906E0,-3.4857577E-1,-3.8312888E0,8.068442E-1,3.8446214E0,5.846129E-1,-6.71643E0,-7.0227206E-1,2.4241166E0,2.9029768E0,-5.533977E0,-8.374834E-3,6.348669E-2,6.595387E-2,2.070839E-1,-8.159564E-2,1.02485314E-1,8.608632E-3,-2.6845172E-1,1.6168397E-2,-4.0317945E-2,1.2977171E-1,9.451757E-3,1.5331885E-1,-7.042293E-2,-7.772993E-2,-2.4470875E-1],"categories":[],"categories_nodes":[],"categories_segments":[],"categories_sizes":[],"default_left":[0,0,0,0,0,0,0,0,0,0,0,0,0,0,0,0,0,0,0,0,0,0,0,0,0,0,0,0,0,0,0],"id":27,"left_children":[1,3,5,7,9,11,13,15,17,19,21,23,25,27,29,-1,-1,-1,-1,-1,-1,-1,-1,-1,-1,-1,-1,-1,-1,-1,-1],"loss_changes":[1.3447866E3,1.011401E3,9.642764E2,9.8019165E2,6.8381287E2,1.040082E3,1.0024347E3,5.240676E2,7.390508E2,2.619951E2,3.9421606E2,7.4945825E2,4.79445E2,2.2091246E2,5.1042773E2,0E0,0E0,0E0,0E0,0E0,0E0,0E0,0E0,0E0,0E0,0E0,0E0,0E0,0E0,0E0,0E0],"parents":[2147483647,0,0,1,1,2,2,3,3,4,4,5,5,6,6,7,7,8,8,9,9,10,10,11,11,12,12,13,13,14,14],"right_children":[2,4,6,8,10,12,14,16,18,20,22,24,26,28,30,-1,-1,-1,-1,-1,-1,-1,-1,-1,-1,-1,-1,-1,-1,-1,-1],"split_conditions":[1E0,4.75E1,1.4666667E0,4.95E1,1E0,1.595E1,4.695652E0,2.2555555E1,1.1190476E0,9.03752E-1,1.775E1,6E0,2.3969696E1,2E0,1.0476191E1,-8.374834E-3,6.348669E-2,6.595387E-2,2.070839E-1,-8.159564E-2,1.02485314E-1,8.608632E-3,-2.6845172E-1,1.6168397E-2,-4.0317945E-2,1.2977171E-1,9.451757E-3,1.5331885E-1,-7.042293E-2,-7.772993E-2,-2.4470875E-1],"split_indices":[77,21,10,13,72,44,14,74,42,1,55,3,74,77,54,0,0,0,0,0,0,0,0,0,0,0,0,0,0,0,0],"split_type":[0,0,0,0,0,0,0,0,0,0,0,0,0,0,0,0,0,0,0,0,0,0,0,0,0,0,0,0,0,0,0],"sum_hessian":[1.709E3,5.66E2,1.143E3,5.16E2,5E1,1.058E3,8.5E1,3.67E2,1.49E2,2.6E1,2.4E1,9.39E2,1.19E2,1.7E1,6.8E1,2.01E2,1.66E2,9.8E1,5.1E1,1.2E1,1.4E1,6E0,1.8E1,3.2E2,6.19E2,6.2E1,5.7E1,1.2E1,5E0,3.3E1,3.5E1],"tree_param":{"num_deleted":"0","num_feature":"80","num_nodes":"31","size_leaf_vector":"1"}},{"base_weights":[-7.660543E-2,-1.0289317E0,9.9579334E-1,-1.7724817E-1,-1.9398032E0,5.833269E-1,4.0575514E0,-1.2973152E0,1.2356306E0,6.785689E-1,-2.5833073E0,1.1557533E0,-1.2403142E0,-6.934909E-1,5.454293E0,5.134108E-2,-6.388796E-2,-1.1316807E-1,5.6911245E-2,-9.5483864E-4,3.0162296E-1,-6.1377775E-2,-1.5725979E-1,2.468433E-2,1.363039E-1,4.229338E-2,-9.565204E-2,-1.2732393E-1,1.1945071E-1,1.8036615E-2,2.1176992E-1],"categories":[],"categories_nodes":[],"categories_segments":[],"categories_sizes":[],"default_left":[0,0,0,0,0,0,0,0,0,0,0,0,0,0,0,0,0,0,0,0,0,0,0,0,0,0,0,0,0,0,0],"id":28,"left_children":[1,3,5,7,9,11,13,15,17,19,21,23,25,27,29,-1,-1,-1,-1,-1,-1,-1,-1,-1,-1,-1,-1,-1,-1,-1,-1],"loss_changes":[1.7045123E3,6.85229E2,9.88524E2,7.264029E2,7.2140955E2,7.2484784E2,6.2140454E2,6.447306E2,6.793613E2,5.674518E2,4.7860034E2,5.912623E2,8.616665E2,3.821226E2,5.55708E2,0E0,0E0,0E0,0E0,0E0,0E0,0E0,0E0,0E0,0E0,0E0,0E0,0E0,0E0,0E0,0E0],"parents":[2147483647,0,0,1,1,2,2,3,3,4,4,5,5,6,6,7,7,8,8,9,9,10,10,11,11,12,12,13,13,14,14],"right_children":[2,4,6,8,10,12,14,16,18,20,22,24,26,28,30,-1,-1,-1,-1,-1,-1,-1,-1,-1,-1,-1,-1,-1,-1,-1,-1],"split_conditions":[4.85E1,1.0526316E1,5E-1,2.252174E1,2.40625E0,1.1E1,4.64E1,4.52E1,4.19E1,1.15E1,6.25E0,1.4545455E0,1.9666666E1,2.16E1,2.125E1,5.134108E-2,-6.388796E-2,-1.1316807E-1,5.6911245E-2,-9.5483864E-4,3.0162296E-1,-6.1377775E-2,-1.5725979E-1,2.468433E-2,1.363039E-1,4.229338E-2,-9.565204E-2,-1.2732393E-1,1.1945071E-1,1.8036615E-2,2.1176992E-1],"split_indices":[6,54,49,74,27,3,8,4,6,47,14,42,55,55,52,0,0,0,0,0,0,0,0,0,0,0,0,0,0,0,0],"split_type":[0,0,0,0,0,0,0,0,0,0,0,0,0,0,0,0,0,0,0,0,0,0,0,0,0,0,0,0,0,0,0],"sum_hessian":[1.667E3,8.83E2,7.84E2,4.57E2,4.26E2,6.92E2,9.2E1,2.55E2,2.02E2,8.4E1,3.42E2,5.27E2,1.65E2,2.1E1,7.1E1,5.5E1,2E2,2.3E1,1.79E2,7.9E1,5E0,2.86E2,5.6E1,4.81E2,4.6E1,7E1,9.5E1,1.2E1,9E0,1.8E1,5.3E1],"tree_param":{"num_deleted":"0","num_feature":"80","num_nodes":"31","size_leaf_vector":"1"}},{"base_weights":[-1.8981261E-2,-7.853227E-1,8.8523644E-1,-1.2748029E-2,-1.9301944E0,2.937245E0,1.2806301E-1,6.4731795E-1,-2.307463E0,2.5431278E0,-2.3653867E0,-1.5879861E0,3.9586964E0,6.046153E0,-2.5021356E-1,2.976752E-1,1.5381462E-2,-2.3683348E-1,-2.5729358E-2,1.321331E-1,-6.504978E-2,-1.0646244E-1,-1.4842259E-2,3.14536E-2,-1.327089E-1,8.9016594E-2,2.9587135E-1,-6.2259622E-2,2.5886202E-1,1.966136E-2,-5.4195337E-2],"categories":[],"categories_nodes":[],"categories_segments":[],"categories_sizes":[],"default_left":[0,0,0,0,0,0,0,0,0,0,0,0,0,0,0,0,0,0,0,0,0,0,0,0,0,0,0,0,0,0,0],"id":29,"left_children":[1,3,5,7,9,11,13,15,17,19,21,23,25,27,29,-1,-1,-1,-1,-1,-1,-1,-1,-1,-1,-1,-1,-1,-1,-1,-1],"loss_changes":[1.1662095E3,8.055597E2,1.1987941E3,8.271511E2,7.2045703E2,9.6796265E2,1.2669437E3,5.232177E2,9.8056793E2,2.9916638E2,7.394121E2,2.9653967E2,9.645249E2,7.3169116E2,7.510844E2,0E0,0E0,0E0,0E0,0E0,0E0,0E0,0E0,0E0,0E0,0E0,0E0,0E0,0E0,0E0,0E0],"parents":[2147483647,0,0,1,1,2,2,3,3,4,4,5,5,6,6,7,7,8,8,9,9,10,10,11,11,12,12,13,13,14,14],"right_children":[2,4,6,8,10,12,14,16,18,20,22,24,26,28,30,-1,-1,-1,-1,-1,-1,-1,-1,-1,-1,-1,-1,-1,-1,-1,-1],"split_conditions":[4.8555557E1,9E0,1.8181819E0,2.34E1,8.4E0,6.111111E-1,4.8055553E0,1.375E1,7.647059E-1,1.25E1,2.2536585E1,-1.3621951E0,1.2884616E0,4.5E0,2E0,2.976752E-1,1.5381462E-2,-2.3683348E-1,-2.5729358E-2,1.321331E-1,-6.504978E-2,-1.0646244E-1,-1.4842259E-2,3.14536E-2,-1.327089E-1,8.9016594E-2,2.9587135E-1,-6.2259622E-2,2.5886202E-1,1.966136E-2,-5.4195337E-2],"split_indices":[6,3,36,30,47,79,58,71,51,37,74,11,42,58,77,0,0,0,0,0,0,0,0,0,0,0,0,0,0,0,0],"split_type":[0,0,0,0,0,0,0,0,0,0,0,0,0,0,0,0,0,0,0,0,0,0,0,0,0,0,0,0,0,0,0],"sum_hessian":[1.681E3,9.1E2,7.71E2,5.44E2,3.66E2,2.07E2,5.64E2,4.23E2,1.21E2,3.2E1,3.34E2,3.8E1,1.69E2,3.3E1,5.31E2,5E0,4.18E2,2.4E1,9.7E1,2.3E1,9E0,2.04E2,1.3E2,2E1,1.8E1,1.46E2,2.3E1,8E0,2.5E1,3.36E2,1.95E2],"tree_param":{"num_deleted":"0","num_feature":"80","num_nodes":"31","size_leaf_vector":"1"}},{"base_weights":[-2.4795948E-1,8.4877735E-1,-7.6433426E-1,5.9524123E-2,2.640277E0,-5.9051657E-1,-5.345785E0,3.4387118E-1,-1.549368E-1,6.158385E0,1.1133908E0,-8.923459E-1,2.0331025E0,-1.2108276E0,-7.1541862E0,1.18144736E-1,-1.5383198E-2,1.03551336E-1,2.918113E-1,-5.830457E-2,8.9516535E-2,-1.09239615E-1,-1.746173E-2,-2.5840016E-2,9.3381956E-2,4.199502E-2,-8.48353E-2,-7.854159E-2,-2.717863E-1],"categories":[],"categories_nodes":[],"categories_segments":[],"categories_sizes":[],"default_left":[0,0,0,0,0,0,0,0,0,0,0,0,0,0,0,0,0,0,0,0,0,0,0,0,0,0,0,0,0],"id":30,"left_children":[1,3,5,7,9,11,13,-1,15,17,19,21,23,25,27,-1,-1,-1,-1,-1,-1,-1,-1,-1,-1,-1,-1,-1,-1],"loss_changes":[9.6056494E2,7.6734595E2,9.144266E2,9.272927E2,8.841267E2,8.822764E2,3.0456274E2,0E0,5.4652985E2,4.4806677E2,6.748938E2,8.487268E2,3.6227188E2,6.3202045E1,2.257594E2,0E0,0E0,0E0,0E0,0E0,0E0,0E0,0E0,0E0,0E0,0E0,0E0,0E0,0E0],"parents":[2147483647,0,0,1,1,2,2,3,3,4,4,5,5,6,6,8,8,9,9,10,10,11,11,12,12,13,13,14,14],"right_children":[2,4,6,8,10,12,14,-1,16,18,20,22,24,26,28,-1,-1,-1,-1,-1,-1,-1,-1,-1,-1,-1,-1,-1,-1],"split_conditions":[1E0,1.5E1,1.7272727E0,2E-1,6.8421054E-1,1.595E1,5.833333E-1,3.4387118E-1,2.5365853E0,1.0666667E1,2.3333333E0,5.714286E-1,8.973214E-1,1.1E1,1.0461538E1,1.18144736E-1,-1.5383198E-2,1.03551336E-1,2.918113E-1,-5.830457E-2,8.9516535E-2,-1.09239615E-1,-1.746173E-2,-2.5840016E-2,9.3381956E-2,4.199502E-2,-8.48353E-2,-7.854159E-2,-2.717863E-1],"split_indices":[77,40,10,12,79,44,79,0,75,48,38,7,1,37,54,0,0,0,0,0,0,0,0,0,0,0,0,0,0],"split_type":[0,0,0,0,0,0,0,0,0,0,0,0,0,0,0,0,0,0,0,0,0,0,0,0,0,0,0,0,0],"sum_hessian":[1.694E3,5.42E2,1.152E3,3.77E2,1.65E2,1.111E3,4.1E1,6E0,3.71E2,4.9E1,1.16E2,9.97E2,1.14E2,1.3E1,2.8E1,2.9E1,3.42E2,2.9E1,2E1,4.4E1,7.2E1,1E2,8.97E2,3.1E1,8.3E1,5E0,8E0,9E0,1.9E1],"tree_param":{"num_deleted":"0","num_feature":"80","num_nodes":"29","size_leaf_vector":"1"}},{"base_weights":[1.6552374E-1,7.3709726E-1,-1.4429747E0,-1.0898052E-1,1.89865E0,-3.737431E0,-5.174781E-1,7.000686E-1,-1.5141373E0,1.6209944E0,7.427348E0,-6.053622E0,-2.1234136E0,-1.1759454E-1,-5.423647E0,2.6993567E-2,-3.2201535E-1,-1.09373614E-1,-1.477174E-2,1.6998157E-1,3.6672223E-2,3.0691966E-1,6.567961E-2,-1.2087258E-1,-3.231661E-1,-2.5776824E-2,-2.3231204E-1,-6.938254E-2,2.6029047E-2,2.1404363E-2,-2.1244484E-1],"categories":[],"categories_nodes":[],"categories_segments":[],"categories_sizes":[],"default_left":[0,0,0,0,0,0,0,0,0,0,0,0,0,0,0,0,0,0,0,0,0,0,0,0,0,0,0,0,0,0,0],"id":31,"left_children":[1,3,5,7,9,11,13,15,17,19,21,23,25,27,29,-1,-1,-1,-1,-1,-1,-1,-1,-1,-1,-1,-1,-1,-1,-1,-1],"loss_changes":[1.5639307E3,1.2337546E3,9.447265E2,8.2762476E2,7.991096E2,4.6483948E2,6.2465295E2,1.0636735E3,5.771402E2,8.066002E2,3.4345496E2,4.518706E2,5.395813E2,6.423202E2,2.4987537E2,0E0,0E0,0E0,0E0,0E0,0E0,0E0,0E0,0E0,0E0,0E0,0E0,0E0,0E0,0E0,0E0],"parents":[2147483647,0,0,1,1,2,2,3,3,4,4,5,5,6,6,7,7,8,8,9,9,10,10,11,11,12,12,13,13,14,14],"right_children":[2,4,6,8,10,12,14,16,18,20,22,24,26,28,30,-1,-1,-1,-1,-1,-1,-1,-1,-1,-1,-1,-1,-1,-1,-1,-1],"split_conditions":[1.1E1,4.86E1,-2.1009707E-1,2.4324325E-1,6.05748E-1,-1.0286585E0,1.5454545E0,4.05E0,-4.0243903E-1,4.8055553E0,1.0123457E0,2.292E1,2.5145745E-1,2.2166666E1,8.125E-1,2.6993567E-2,-3.2201535E-1,-1.09373614E-1,-1.477174E-2,1.6998157E-1,3.6672223E-2,3.0691966E-1,6.567961E-2,-1.2087258E-1,-3.231661E-1,-2.5776824E-2,-2.3231204E-1,-6.938254E-2,2.6029047E-2,2.1404363E-2,-2.1244484E-1],"split_indices":[3,8,59,19,33,5,10,23,62,58,10,22,33,39,72,0,0,0,0,0,0,0,0,0,0,0,0,0,0,0,0],"split_type":[0,0,0,0,0,0,0,0,0,0,0,0,0,0,0,0,0,0,0,0,0,0,0,0,0,0,0,0,0,0,0],"sum_hessian":[1.699E3,1.254E3,4.45E2,7.26E2,5.28E2,1.27E2,3.18E2,4.61E2,2.65E2,5.04E2,2.4E1,5.1E1,7.6E1,2.95E2,2.3E1,4.54E2,7E0,8.5E1,1.8E2,4.4E1,4.6E2,1.5E1,9E0,3.7E1,1.4E1,6.3E1,1.3E1,9.1E1,2.04E2,5E0,1.8E1],"tree_param":{"num_deleted":"0","num_feature":"80","num_nodes":"31","size_leaf_vector":"1"}},{"base_weights":[-3.9089404E-2,1.1106879E0,-5.8767E-1,7.918763E-1,6.9199176E0,-9.224072E-1,2.04958E0,1.7022995E-2,2.4155626E0,8.787515E0,3.4199573E-2,-1.3338331E0,1.4550238E0,2.989715E0,-2.367981E0,-1.3257397E-2,9.15539E-2,1.22725405E-1,-5.357963E-2,4.1138753E-1,1.4081894E-1,-2.3266114E-2,-9.885043E-2,2.9675117E-2,2.8588623E-1,-2.6751276E-2,1.2413508E-1,-1.5890755E-1,5.8779884E-2],"categories":[],"categories_nodes":[],"categories_segments":[],"categories_sizes":[],"default_left":[0,0,0,0,0,0,0,0,0,0,0,0,0,0,0,0,0,0,0,0,0,0,0,0,0,0,0,0,0],"id":32,"left_children":[1,3,5,7,9,11,13,15,17,19,-1,21,23,25,27,-1,-1,-1,-1,-1,-1,-1,-1,-1,-1,-1,-1,-1,-1],"loss_changes":[1.0564684E3,9.957077E2,1.0028567E3,6.463888E2,2.912379E2,9.869122E2,5.387391E2,4.8768555E2,1.1759763E3,3.5720142E2,0E0,9.3757336E2,5.4999133E2,4.7638672E2,3.0222385E2,0E0,0E0,0E0,0E0,0E0,0E0,0E0,0E0,0E0,0E0,0E0,0E0,0E0,0E0],"parents":[2147483647,0,0,1,1,2,2,3,3,4,4,5,5,6,6,7,7,8,8,9,9,11,11,12,12,13,13,14,14],"right_children":[2,4,6,8,10,12,14,16,18,20,-1,22,24,26,28,-1,-1,-1,-1,-1,-1,-1,-1,-1,-1,-1,-1,-1,-1],"split_conditions":[1E0,5.4375E1,1.595E1,3.3333334E-1,1.275E1,2.66E1,1.25E0,1.56E1,1E1,1.5E1,3.4199573E-2,2.335E1,1.84E1,8.973214E-1,4.8027027E1,-1.3257397E-2,9.15539E-2,1.22725405E-1,-5.357963E-2,4.1138753E-1,1.4081894E-1,-2.3266114E-2,-9.885043E-2,2.9675117E-2,2.8588623E-1,-2.6751276E-2,1.2413508E-1,-1.5890755E-1,5.8779884E-2],"split_indices":[77,6,44,49,48,52,10,44,3,18,0,30,57,1,2,0,0,0,0,0,0,0,0,0,0,0,0,0,0],"split_type":[0,0,0,0,0,0,0,0,0,0,0,0,0,0,0,0,0,0,0,0,0,0,0,0,0,0,0,0,0],"sum_hessian":[1.673E3,5.4E2,1.133E3,5.13E2,2.7E1,1.006E3,1.27E2,3.48E2,1.65E2,2E1,7E0,8.58E2,1.48E2,1.05E2,2.2E1,3.03E2,4.5E1,1.18E2,4.7E1,8E0,1.2E1,6.69E2,1.89E2,1.41E2,7E0,2.4E1,8.1E1,1.3E1,9E0],"tree_param":{"num_deleted":"0","num_feature":"80","num_nodes":"29","size_leaf_vector":"1"}},{"base_weights":[3.9157268E-2,6.0450095E-1,-1.5188502E0,7.010495E-2,1.8995378E0,7.968083E-1,-2.2068088E0,2.4153273E0,-3.1350675E-1,1.420588E0,6.8061557E0,4.9446163E0,-6.479049E-1,-1.8841807E0,-9.236877E0,2.80706E-2,1.649004E-1,-1.861898E-2,7.996781E-2,3.3550076E-2,2.4597023E-1,1.0075422E-1,3.1448886E-1,3.5707116E-1,8.453237E-2,2.6384793E-2,-1.4521025E-1,-4.4262245E-2,-1.8885644E-1,-4.0744934E-2,-3.909125E-1],"categories":[],"categories_nodes":[],"categories_segments":[],"categories_sizes":[],"default_left":[0,0,0,0,0,0,0,0,0,0,0,0,0,0,0,0,0,0,0,0,0,0,0,0,0,0,0,0,0,0,0],"id":33,"left_children":[1,3,5,7,9,11,13,15,17,19,21,23,25,27,29,-1,-1,-1,-1,-1,-1,-1,-1,-1,-1,-1,-1,-1,-1,-1,-1],"loss_changes":[1.4920375E3,8.5990356E2,7.203772E2,7.9356323E2,8.425669E2,6.2684216E2,7.7078235E2,5.595662E2,6.9498883E2,6.7009814E2,3.6905566E2,3.645428E2,5.0412772E2,5.9217334E2,4.2918677E2,0E0,0E0,0E0,0E0,0E0,0E0,0E0,0E0,0E0,0E0,0E0,0E0,0E0,0E0,0E0,0E0],"parents":[2147483647,0,0,1,1,2,2,3,3,4,4,5,5,6,6,7,7,8,8,9,9,10,10,11,11,12,12,13,13,14,14],"right_children":[2,4,6,8,10,12,14,16,18,20,22,24,26,28,30,-1,-1,-1,-1,-1,-1,-1,-1,-1,-1,-1,-1,-1,-1,-1,-1],"split_conditions":[1.1E1,4.9555557E1,2.5172415E0,-5.4278183E-1,4.6E0,-3.2512195E0,2.608E1,4.905E1,1.8E0,1.345E1,1.254902E0,2.0530613E1,2.235E1,1.5454545E0,1.92E1,2.80706E-2,1.649004E-1,-1.861898E-2,7.996781E-2,3.3550076E-2,2.4597023E-1,1.0075422E-1,3.1448886E-1,3.5707116E-1,8.453237E-2,2.6384793E-2,-1.4521025E-1,-4.4262245E-2,-1.8885644E-1,-4.0744934E-2,-3.909125E-1],"split_indices":[3,2,70,33,46,35,25,8,65,37,42,74,71,10,55,0,0,0,0,0,0,0,0,0,0,0,0,0,0,0,0],"split_type":[0,0,0,0,0,0,0,0,0,0,0,0,0,0,0,0,0,0,0,0,0,0,0,0,0,0,0,0,0,0,0],"sum_hessian":[1.692E3,1.242E3,4.5E2,8.8E2,3.62E2,1.03E2,3.47E2,1.23E2,7.57E2,3.31E2,3.1E1,2.6E1,7.7E1,3.33E2,1.4E1,8.4E1,3.9E1,6.87E2,7E1,3.18E2,1.3E1,1.7E1,1.4E1,5E0,2.1E1,5.7E1,2E1,3.06E2,2.7E1,5E0,9E0],"tree_param":{"num_deleted":"0","num_feature":"80","num_nodes":"31","size_leaf_vector":"1"}},{"base_weights":[-6.9375667E-3,-2.8725278E-1,2.3059218E0,9.0459996E-1,-8.7588453E-1,-1.0167197E0,3.753654E0,9.666068E-2,2.7371156E0,-3.430293E0,-5.8376074E-1,-5.857804E0,2.9460767E-1,-1.7618484E0,4.453467E0,1.4803656E-2,-1.2288072E-1,-1.8518585E-1,9.8270275E-2,3.849702E-2,-1.5369107E-1,-1.1532328E-1,-9.288575E-3,-6.675737E-2,-2.7308464E-1,8.9166194E-2,-4.7905087E-2,-1.451686E-1,1.0930903E-1,2.8662544E-1,1.07227E-1],"categories":[],"categories_nodes":[],"categories_segments":[],"categories_sizes":[],"default_left":[0,0,0,0,0,0,0,0,0,0,0,0,0,0,0,0,0,0,0,0,0,0,0,0,0,0,0,0,0,0,0],"id":34,"left_children":[1,3,5,7,9,11,13,15,17,19,21,23,25,27,29,-1,-1,-1,-1,-1,-1,-1,-1,-1,-1,-1,-1,-1,-1,-1,-1],"loss_changes":[1.0915992E3,1.0545361E3,8.795639E2,7.3529114E2,7.482769E2,3.5778387E2,4.9831274E2,5.7727844E2,7.4931165E2,8.2877344E2,8.063871E2,1.2006375E2,2.3278746E2,2.672495E2,4.7131177E2,0E0,0E0,0E0,0E0,0E0,0E0,0E0,0E0,0E0,0E0,0E0,0E0,0E0,0E0,0E0,0E0],"parents":[2147483647,0,0,1,1,2,2,3,3,4,4,5,5,6,6,7,7,8,8,9,9,10,10,11,11,12,12,13,13,14,14],"right_children":[2,4,6,8,10,12,14,16,18,20,22,24,26,28,30,-1,-1,-1,-1,-1,-1,-1,-1,-1,-1,-1,-1,-1,-1,-1,-1],"split_conditions":[1.595E1,1E0,-1.949087E-1,3.3333334E-1,5.714286E-1,4.5E1,4.225E1,4.75E1,5E-2,2.5172415E0,2.060606E1,2.05E1,8.043478E-1,5.065E1,2.04E1,1.4803656E-2,-1.2288072E-1,-1.8518585E-1,9.8270275E-2,3.849702E-2,-1.5369107E-1,-1.1532328E-1,-9.288575E-3,-6.675737E-2,-2.7308464E-1,8.9166194E-2,-4.7905087E-2,-1.451686E-1,1.0930903E-1,2.8662544E-1,1.07227E-1],"split_indices":[44,77,59,49,7,13,21,21,67,70,39,9,10,8,53,0,0,0,0,0,0,0,0,0,0,0,0,0,0,0,0],"split_type":[0,0,0,0,0,0,0,0,0,0,0,0,0,0,0,0,0,0,0,0,0,0,0,0,0,0,0,0,0,0,0],"sum_hessian":[1.682E3,1.501E3,1.81E2,4.96E2,1.005E3,5.5E1,1.26E2,3.45E2,1.51E2,1.02E2,9.03E2,1.1E1,4.4E1,1.4E1,1.12E2,3.16E2,2.9E1,8E0,1.43E2,2.7E1,7.5E1,6.9E1,8.34E2,6E0,5E0,1.8E1,2.6E1,9E0,5E0,1.5E1,9.7E1],"tree_param":{"num_deleted":"0","num_feature":"80","num_nodes":"31","size_leaf_vector":"1"}},{"base_weights":[2.2369866E-1,7.2278666E-1,-9.193641E-1,1.2135632E0,-8.303738E-1,-2.7872057E0,-8.351402E-2,1.5420768E0,-1.0389923E0,4.98891E0,-1.3566331E0,-4.7809477E0,-6.5596795E-1,-3.165596E-1,2.4354129E-1,3.6260575E-2,1.3357057E-1,-1.5503326E-1,1.5792605E-2,6.1059315E-2,2.9022956E-1,-9.492799E-2,-1.3280985E-3,-6.690704E-2,-2.06493E-1,8.939306E-2,-6.0763642E-2,7.67206E-2,-2.5387593E-2],"categories":[],"categories_nodes":[],"categories_segments":[],"categories_sizes":[],"default_left":[0,0,0,0,0,0,0,0,0,0,0,0,0,0,0,0,0,0,0,0,0,0,0,0,0,0,0,0,0],"id":35,"left_children":[1,3,5,7,9,11,13,15,17,19,21,23,25,27,-1,-1,-1,-1,-1,-1,-1,-1,-1,-1,-1,-1,-1,-1,-1],"loss_changes":[9.778924E2,9.1041583E2,8.128839E2,6.7282837E2,8.853285E2,6.804315E2,6.917823E2,7.6249805E2,7.5292145E2,3.1127057E2,6.258186E2,4.287827E2,3.9928833E2,5.378402E2,0E0,0E0,0E0,0E0,0E0,0E0,0E0,0E0,0E0,0E0,0E0,0E0,0E0,0E0,0E0],"parents":[2147483647,0,0,1,1,2,2,3,3,4,4,5,5,6,6,7,7,8,8,9,9,10,10,11,11,12,12,13,13],"right_children":[2,4,6,8,10,12,14,16,18,20,22,24,26,28,-1,-1,-1,-1,-1,-1,-1,-1,-1,-1,-1,-1,-1,-1,-1],"split_conditions":[1E1,2.6984128E-1,8.9923793E-1,2.49E1,1.62E1,-5.4512197E-1,5.48E1,6E-1,1.3333333E1,3.3448277E0,3.125E-1,4.675E1,1E0,1.68E1,2.4354129E-1,3.6260575E-2,1.3357057E-1,-1.5503326E-1,1.5792605E-2,6.1059315E-2,2.9022956E-1,-9.492799E-2,-1.3280985E-3,-6.690704E-2,-2.06493E-1,8.939306E-2,-6.0763642E-2,7.67206E-2,-2.5387593E-2],"split_indices":[3,19,1,30,30,5,4,56,44,27,19,13,77,55,0,0,0,0,0,0,0,0,0,0,0,0,0,0,0],"split_type":[0,0,0,0,0,0,0,0,0,0,0,0,0,0,0,0,0,0,0,0,0,0,0,0,0,0,0,0,0],"sum_hessian":[1.712E3,1.192E3,5.2E2,9.06E2,2.86E2,1.6E2,3.6E2,7.91E2,1.15E2,2.3E1,2.63E2,8.2E1,7.8E1,3.51E2,9E0,7.11E2,8E1,3.1E1,8.4E1,1.5E1,8E0,1.1E2,1.53E2,3.8E1,4.4E1,2.1E1,5.7E1,5.4E1,2.97E2],"tree_param":{"num_deleted":"0","num_feature":"80","num_nodes":"29","size_leaf_vector":"1"}},{"base_weights":[-4.241635E-2,1.8731987E-1,-2.9659512E0,-1.5005691E-1,1.7165322E0,-8.017396E0,-1.6593646E0,2.4281964E0,-4.0607345E-1,2.0559506E0,-2.6502594E-1,1.2433846E-2,-1.0151083E1,1.8885944E0,-3.4634743E0,-1.4129002E-1,9.440862E-2,-3.199402E-2,1.5483838E-2,6.980499E-2,-2.58993E-1,-1.4316861E-1,-4.2326942E-1,1.6118087E-1,-2.0888503E-4,-1.5599106E-1,1.4995722E-2],"categories":[],"categories_nodes":[],"categories_segments":[],"categories_sizes":[],"default_left":[0,0,0,0,0,0,0,0,0,0,0,0,0,0,0,0,0,0,0,0,0,0,0,0,0,0,0],"id":36,"left_children":[1,3,5,7,9,11,13,15,17,19,-1,-1,21,23,25,-1,-1,-1,-1,-1,-1,-1,-1,-1,-1,-1,-1],"loss_changes":[1.1338932E3,8.078302E2,7.97547E2,8.476607E2,1.0309392E3,4.549547E2,6.403884E2,6.097907E2,7.119363E2,8.157134E2,0E0,0E0,3.565542E2,2.251207E2,4.5723138E2,0E0,0E0,0E0,0E0,0E0,0E0,0E0,0E0,0E0,0E0,0E0,0E0],"parents":[2147483647,0,0,1,1,2,2,3,3,4,4,5,5,6,6,7,7,8,8,9,9,12,12,13,13,14,14],"right_children":[2,4,6,8,10,12,14,16,18,20,-1,-1,22,24,26,-1,-1,-1,-1,-1,-1,-1,-1,-1,-1,-1,-1],"split_conditions":[1.4666667E0,5.17E1,2.04E1,7.1428575E-2,4.05E0,1.975E1,1.0782609E1,2.2777777E0,4.875E1,4.981818E1,-2.6502594E-1,1.2433846E-2,1.7073171E-1,4.7511112E1,7.911097E-2,-1.4129002E-1,9.440862E-2,-3.199402E-2,1.5483838E-2,6.980499E-2,-2.58993E-1,-1.4316861E-1,-4.2326942E-1,1.6118087E-1,-2.0888503E-4,-1.5599106E-1,1.4995722E-2],"split_indices":[10,6,53,43,23,50,31,23,8,21,0,0,28,2,33,0,0,0,0,0,0,0,0,0,0,0,0],"split_type":[0,0,0,0,0,0,0,0,0,0,0,0,0,0,0,0,0,0,0,0,0,0,0,0,0,0,0],"sum_hessian":[1.686E3,1.564E3,1.22E2,1.282E3,2.82E2,2.4E1,9.8E1,1.15E2,1.167E3,2.74E2,8E0,5E0,1.9E1,3.3E1,6.5E1,1E1,1.05E2,6.8E2,4.87E2,2.68E2,6E0,9E0,1E1,1.1E1,2.2E1,4.5E1,2E1],"tree_param":{"num_deleted":"0","num_feature":"80","num_nodes":"27","size_leaf_vector":"1"}},{"base_weights":[1.0600858E-1,1.202174E0,-5.112255E-1,5.69136E-1,3.6625621E0,-1.649342E0,1.5453303E-1,-7.676203E0,7.594938E-1,4.854278E0,-1.2468036E0,-2.2600741E0,5.9145486E-1,4.60493E0,-1.5994483E-1,-6.1576094E-2,-3.6011505E-1,1.4726506E-1,1.1279079E-2,9.201066E-3,1.9094142E-1,-1.1402209E-1,1.3928686E-1,-8.293587E-2,2.9081963E-2,6.107355E-2,-9.661166E-2,-5.397919E-3,1.9060086E-1,-3.6368337E-2,3.5572562E-2],"categories":[],"categories_nodes":[],"categories_segments":[],"categories_sizes":[],"default_left":[0,0,0,0,0,0,0,0,0,0,0,0,0,0,0,0,0,0,0,0,0,0,0,0,0,0,0,0,0,0,0],"id":37,"left_children":[1,3,5,7,9,11,13,15,17,19,21,23,25,27,29,-1,-1,-1,-1,-1,-1,-1,-1,-1,-1,-1,-1,-1,-1,-1,-1],"loss_changes":[1.1400624E3,9.4290643E2,8.1721655E2,7.6480756E2,7.3188367E2,5.4617725E2,9.542756E2,2.4166486E2,7.5193726E2,6.8426294E2,3.9360962E2,5.127749E2,4.7991577E2,3.782307E2,9.0350946E2,0E0,0E0,0E0,0E0,0E0,0E0,0E0,0E0,0E0,0E0,0E0,0E0,0E0,0E0,0E0,0E0],"parents":[2147483647,0,0,1,1,2,2,3,3,4,4,5,5,6,6,7,7,8,8,9,9,10,10,11,11,12,12,13,13,14,14],"right_children":[2,4,6,8,10,12,14,16,18,20,22,24,26,28,30,-1,-1,-1,-1,-1,-1,-1,-1,-1,-1,-1,-1,-1,-1,-1,-1],"split_conditions":[6E0,6.9756097E-1,1.3111111E1,1.84375E0,3.220339E-1,4.655E1,2.1764705E0,2.23E1,2.3333333E0,-1.0256097E0,2.4777779E1,1.1111112E0,1.3E1,1.2E0,5.512195E-1,-6.1576094E-2,-3.6011505E-1,1.4726506E-1,1.1279079E-2,9.201066E-3,1.9094142E-1,-1.1402209E-1,1.3928686E-1,-8.293587E-2,2.9081963E-2,6.107355E-2,-9.661166E-2,-5.397919E-3,1.9060086E-1,-3.6368337E-2,3.5572562E-2],"split_indices":[3,62,20,70,43,21,70,61,23,11,9,12,3,76,35,0,0,0,0,0,0,0,0,0,0,0,0,0,0,0,0],"split_type":[0,0,0,0,0,0,0,0,0,0,0,0,0,0,0,0,0,0,0,0,0,0,0,0,0,0,0,0,0,0,0],"sum_hessian":[1.683E3,6.06E2,1.077E3,4.83E2,1.23E2,3.97E2,6.8E2,1E1,4.73E2,9.9E1,2.4E1,3.12E2,8.5E1,4.4E1,6.36E2,5E0,5E0,3.9E1,4.34E2,2.5E1,7.4E1,1.7E1,7E0,2.7E2,4.2E1,6.2E1,2.3E1,1.2E1,3.2E1,3.57E2,2.79E2],"tree_param":{"num_deleted":"0","num_feature":"80","num_nodes":"31","size_leaf_vector":"1"}},{"base_weights":[-1.626472E-1,-9.011058E-1,6.916914E-1,-6.732398E-1,-4.1360564E0,2.383124E0,4.964128E-2,1.7159427E-2,-1.7341458E0,9.0854354E-2,-5.0061636E0,-1.4125658E0,3.2643895E0,-1.1378621E0,1.8899634E0,1.0500006E-2,-1.2397234E-1,4.6142887E-2,-6.602438E-2,-1.7717166E-1,9.023995E-2,-1.9147943E-1,1.1800575E-2,7.363276E-2,2.2189634E-1,-2.0327333E-2,-1.7788753E-1,6.718792E-2,-3.3160385E-1],"categories":[],"categories_nodes":[],"categories_segments":[],"categories_sizes":[],"default_left":[0,0,0,0,0,0,0,0,0,0,0,0,0,0,0,0,0,0,0,0,0,0,0,0,0,0,0,0,0],"id":38,"left_children":[1,3,5,7,9,11,13,15,17,-1,19,21,23,25,27,-1,-1,-1,-1,-1,-1,-1,-1,-1,-1,-1,-1,-1,-1],"loss_changes":[1.058653E3,6.601563E2,8.445344E2,6.1692316E2,3.8315967E2,7.2062854E2,1.2369703E3,7.0683405E2,5.104308E2,0E0,4.0014233E2,3.711076E2,5.632207E2,7.5403235E2,1.0285264E3,0E0,0E0,0E0,0E0,0E0,0E0,0E0,0E0,0E0,0E0,0E0,0E0,0E0,0E0],"parents":[2147483647,0,0,1,1,2,2,3,3,4,4,5,5,6,6,7,7,8,8,10,10,11,11,12,12,13,13,14,14],"right_children":[2,4,6,8,10,12,14,16,18,-1,20,22,24,26,28,-1,-1,-1,-1,-1,-1,-1,-1,-1,-1,-1,-1,-1,-1],"split_conditions":[4.8555557E1,2.7E1,1.8181819E0,9E0,-3.527439E0,6.111111E-1,1.1817073E0,2.7E1,-5.159437E-1,9.0854354E-2,3.09E1,8.9633375E-1,1.2884616E0,6.707317E-1,1.285E1,1.0500006E-2,-1.2397234E-1,4.6142887E-2,-6.602438E-2,-1.7717166E-1,9.023995E-2,-1.9147943E-1,1.1800575E-2,7.363276E-2,2.2189634E-1,-2.0327333E-2,-1.7788753E-1,6.718792E-2,-3.3160385E-1],"split_indices":[6,15,36,3,5,79,78,55,33,0,71,1,42,78,73,0,0,0,0,0,0,0,0,0,0,0,0,0,0],"split_type":[0,0,0,0,0,0,0,0,0,0,0,0,0,0,0,0,0,0,0,0,0,0,0,0,0,0,0,0,0],"sum_hessian":[1.676E3,8.99E2,7.77E2,8.41E2,5.8E1,2.13E2,5.64E2,5.1E2,3.31E2,6E0,5.2E1,4E1,1.73E2,3.43E2,2.21E2,4.73E2,3.7E1,4.1E1,2.9E2,4.7E1,5E0,1E1,3E1,1.46E2,2.7E1,3.14E2,2.9E1,2.16E2,5E0],"tree_param":{"num_deleted":"0","num_feature":"80","num_nodes":"29","size_leaf_vector":"1"}},{"base_weights":[1.6852322E-1,3.8012508E-1,-2.5648007E0,9.546766E-2,2.3701866E0,3.8227065E0,-3.6899042E0,-1.3380341E-1,1.876524E0,-1.9028558E0,3.2538822E0,7.55432E0,-5.3208E-2,-1.0324917E0,-5.4426374E0,-7.86799E-3,9.988148E-2,1.5359455E-1,1.6106412E-2,-1.6999751E-1,1.8391961E-1,-3.418145E-2,1.20515965E-1,1.1594647E-1,2.990411E-1,2.2207776E-2,-2.5350365E-1,3.585626E-2,-1.8612483E-1],"categories":[],"categories_nodes":[],"categories_segments":[],"categories_sizes":[],"default_left":[0,0,0,0,0,0,0,0,0,0,0,0,0,0,0,0,0,0,0,0,0,0,0,0,0,0,0,0,0],"id":39,"left_children":[1,3,5,7,9,11,13,15,17,19,21,23,-1,25,27,-1,-1,-1,-1,-1,-1,-1,-1,-1,-1,-1,-1,-1,-1],"loss_changes":[9.417749E2,8.554872E2,8.549249E2,5.4066534E2,7.2000366E2,3.8987494E2,4.595066E2,5.224236E2,6.527594E2,1.0324797E3,5.3135693E2,5.8049316E1,0E0,5.461604E2,3.1120898E2,0E0,0E0,0E0,0E0,0E0,0E0,0E0,0E0,0E0,0E0,0E0,0E0,0E0,0E0],"parents":[2147483647,0,0,1,1,2,2,3,3,4,4,5,5,6,6,7,7,8,8,9,9,10,10,11,11,13,13,14,14],"right_children":[2,4,6,8,10,12,14,16,18,20,22,24,-1,26,28,-1,-1,-1,-1,-1,-1,-1,-1,-1,-1,-1,-1,-1,-1],"split_conditions":[2.7E1,5.24E1,2.6111112E0,2.4652174E1,1.2244898E-1,-1.3536586E-1,-2.2603807E-1,7.5E-1,1.775E0,2.31E1,1.235E1,4.55E1,-5.3208E-2,1.475E1,2.0785715E1,-7.86799E-3,9.988148E-2,1.5359455E-1,1.6106412E-2,-1.6999751E-1,1.8391961E-1,-3.418145E-2,1.20515965E-1,1.1594647E-1,2.990411E-1,2.2207776E-2,-2.5350365E-1,3.585626E-2,-1.8612483E-1],"split_indices":[15,6,23,74,19,11,59,56,63,15,44,21,0,44,39,0,0,0,0,0,0,0,0,0,0,0,0,0,0],"split_type":[0,0,0,0,0,0,0,0,0,0,0,0,0,0,0,0,0,0,0,0,0,0,0,0,0,0,0,0,0],"sum_hessian":[1.626E3,1.51E3,1.16E2,1.322E3,1.88E2,1.7E1,9.9E1,1.172E3,1.5E2,3.2E1,1.56E2,1E1,7E0,4E1,5.9E1,1.131E3,4.1E1,4.3E1,1.07E2,2.2E1,1E1,2.3E1,1.33E2,5E0,5E0,3.3E1,7E0,6E0,5.3E1],"tree_param":{"num_deleted":"0","num_feature":"80","num_nodes":"29","size_leaf_vector":"1"}},{"base_weights":[3.708988E-2,1.2391795E0,-3.7784305E-1,1.781138E0,-7.744166E-1,8.614503E-1,-9.9339753E-1,2.3306513E0,-1.3334097E0,1.1863165E0,-2.8980706E0,1.124368E0,-6.1303387E0,1.3302417E0,-1.4663073E0,-5.0275065E-2,8.634768E-2,-7.756457E-2,1.7121555E-1,1.00001104E-1,-9.9296294E-2,1.9751746E-2,-1.5496239E-1,6.535864E-2,-1.6908603E-2,6.2035568E-2,-3.5510015E-1,-9.107511E-2,9.700249E-2,5.6607667E-3,-6.971213E-2],"categories":[],"categories_nodes":[],"categories_segments":[],"categories_sizes":[],"default_left":[0,0,0,0,0,0,0,0,0,0,0,0,0,0,0,0,0,0,0,0,0,0,0,0,0,0,0,0,0,0,0],"id":40,"left_children":[1,3,5,7,9,11,13,15,17,19,21,23,25,27,29,-1,-1,-1,-1,-1,-1,-1,-1,-1,-1,-1,-1,-1,-1,-1,-1],"loss_changes":[8.280412E2,4.663676E2,9.422291E2,5.782665E2,3.825258E2,7.600807E2,9.0853314E2,6.3241943E2,4.6402704E2,4.744066E2,3.5865512E2,7.06098E2,7.271777E2,1.1731534E3,9.741183E2,0E0,0E0,0E0,0E0,0E0,0E0,0E0,0E0,0E0,0E0,0E0,0E0,0E0,0E0,0E0,0E0],"parents":[2147483647,0,0,1,1,2,2,3,3,4,4,5,5,6,6,7,7,8,8,9,9,10,10,11,11,12,12,13,13,14,14],"right_children":[2,4,6,8,10,12,14,16,18,20,22,24,26,28,30,-1,-1,-1,-1,-1,-1,-1,-1,-1,-1,-1,-1,-1,-1,-1,-1],"split_conditions":[1.8333334E1,1.25E0,1E0,1.125E0,2.32E1,4.8536587E0,2.5555556E0,6.25E-2,4.2941175E0,4.515E1,5.357143E0,2.4324325E-1,2.425926E0,1.3111111E1,6E0,-5.0275065E-2,8.634768E-2,-7.756457E-2,1.7121555E-1,1.00001104E-1,-9.9296294E-2,1.9751746E-2,-1.5496239E-1,6.535864E-2,-1.6908603E-2,6.2035568E-2,-3.5510015E-1,-9.107511E-2,9.700249E-2,5.6607667E-3,-6.971213E-2],"split_indices":[50,51,77,12,52,11,23,67,27,21,58,19,70,20,3,0,0,0,0,0,0,0,0,0,0,0,0,0,0,0,0],"split_type":[0,0,0,0,0,0,0,0,0,0,0,0,0,0,0,0,0,0,0,0,0,0,0,0,0,0,0,0,0,0,0],"sum_hessian":[1.658E3,4.25E2,1.233E3,3.35E2,9E1,4.09E2,8.24E2,2.85E2,5E1,4.7E1,4.3E1,3.95E2,1.4E1,1.39E2,6.85E2,3.4E1,2.51E2,4.3E1,7E0,3.2E1,1.5E1,1.7E1,2.6E1,2.43E2,1.52E2,6E0,8E0,4.2E1,9.7E1,2.34E2,4.51E2],"tree_param":{"num_deleted":"0","num_feature":"80","num_nodes":"31","size_leaf_vector":"1"}},{"base_weights":[1.7848493E-1,7.5007147E-1,-1.1133199E0,-6.325746E-2,1.8654E0,3.2098854E-1,-2.0492918E0,-3.0448475E-1,4.455126E0,4.803431E0,1.259927E0,-3.3274686E0,9.984864E-1,-4.3555164E0,-1.1439757E0,9.646701E-3,-5.998294E-2,-3.9934583E-2,1.887169E-1,-2.4664637E-2,1.702711E-1,2.2959596E-2,1.1384378E-1,5.8801487E-2,-1.7473572E-1,-1.3174867E-2,8.337633E-2,-2.1953706E-1,-3.455185E-2,3.6279507E-2,-6.940987E-2],"categories":[],"categories_nodes":[],"categories_segments":[],"categories_sizes":[],"default_left":[0,0,0,0,0,0,0,0,0,0,0,0,0,0,0,0,0,0,0,0,0,0,0,0,0,0,0,0,0,0,0],"id":41,"left_children":[1,3,5,7,9,11,13,15,17,19,21,23,25,27,29,-1,-1,-1,-1,-1,-1,-1,-1,-1,-1,-1,-1,-1,-1,-1,-1],"loss_changes":[1.2324137E3,1.0498463E3,6.881765E2,7.312129E2,8.614441E2,5.048694E2,6.417046E2,6.767357E2,3.699618E2,4.1243628E2,5.0566748E2,4.3430618E2,4.4178418E2,8.164292E2,6.1949414E2,0E0,0E0,0E0,0E0,0E0,0E0,0E0,0E0,0E0,0E0,0E0,0E0,0E0,0E0,0E0,0E0],"parents":[2147483647,0,0,1,1,2,2,3,3,4,4,5,5,6,6,7,7,8,8,9,9,10,10,11,11,12,12,13,13,14,14],"right_children":[2,4,6,8,10,12,14,16,18,20,22,24,26,28,30,-1,-1,-1,-1,-1,-1,-1,-1,-1,-1,-1,-1,-1,-1,-1,-1],"split_conditions":[1E1,4.854762E1,1.95E1,2.7625E1,-8.3658534E-1,1.1785714E1,8.98E-1,1.9152965E-1,2.1380953E1,4.26E1,3.8E0,9.944445E0,4.8307693E1,2.3104166E1,9.059675E-1,9.646701E-3,-5.998294E-2,-3.9934583E-2,1.887169E-1,-2.4664637E-2,1.702711E-1,2.2959596E-2,1.1384378E-1,5.8801487E-2,-1.7473572E-1,-1.3174867E-2,8.337633E-2,-2.1953706E-1,-3.455185E-2,3.6279507E-2,-6.940987E-2],"split_indices":[3,2,55,53,62,40,1,59,39,66,46,37,2,26,1,0,0,0,0,0,0,0,0,0,0,0,0,0,0,0,0],"split_type":[0,0,0,0,0,0,0,0,0,0,0,0,0,0,0,0,0,0,0,0,0,0,0,0,0,0,0,0,0,0,0],"sum_hessian":[1.667E3,1.156E3,5.11E2,6.69E2,4.87E2,2.02E2,3.09E2,6.36E2,3.3E1,8.2E1,4.05E2,3.1E1,1.71E2,8.6E1,2.23E2,4.65E2,1.71E2,8E0,2.5E1,1.1E1,7.1E1,3.4E2,6.5E1,1E1,2.1E1,9.5E1,7.6E1,4.4E1,4.2E1,7.4E1,1.49E2],"tree_param":{"num_deleted":"0","num_feature":"80","num_nodes":"31","size_leaf_vector":"1"}},{"base_weights":[-9.8150656E-2,3.896029E-2,-3.6064792E0,-1.9920775E-1,2.0217524E0,-8.4775573E-1,-6.0856895E0,-1.1715983E0,2.790373E-1,-1.207485E0,3.3450804E0,-2.8018284E0,2.9507244E0,-3.446011E0,-3.3128044E-1,-1.2234039E-2,-1.0205943E-1,1.9357052E-4,9.309143E-2,-2.319626E-1,1.19291915E-4,1.6720393E-1,1.7329985E-2,8.16624E-2,-1.411329E-1,1.708734E-1,-8.083564E-3,-1.5460666E-1,3.53665E-2],"categories":[],"categories_nodes":[],"categories_segments":[],"categories_sizes":[],"default_left":[0,0,0,0,0,0,0,0,0,0,0,0,0,0,0,0,0,0,0,0,0,0,0,0,0,0,0,0,0],"id":42,"left_children":[1,3,5,7,9,11,13,15,17,19,21,23,25,27,-1,-1,-1,-1,-1,-1,-1,-1,-1,-1,-1,-1,-1,-1,-1],"loss_changes":[8.057418E2,7.618322E2,4.2503326E2,6.7007513E2,7.435407E2,2.3835022E2,3.9229846E2,8.0742267E2,7.432791E2,4.0392303E2,7.546892E2,2.337098E2,9.9312584E1,1.881088E2,0E0,0E0,0E0,0E0,0E0,0E0,0E0,0E0,0E0,0E0,0E0,0E0,0E0,0E0,0E0],"parents":[2147483647,0,0,1,1,2,2,3,3,4,4,5,5,6,6,7,7,8,8,9,9,10,10,11,11,12,12,13,13],"right_children":[2,4,6,8,10,12,14,16,18,20,22,24,26,28,-1,-1,-1,-1,-1,-1,-1,-1,-1,-1,-1,-1,-1,-1,-1],"split_conditions":[1.7272727E0,1.595E1,1.97E1,1.3111111E1,-2.1009707E-1,7.719512E-1,2.2045455E0,4.6E1,2.4666666E1,4.2666668E1,7.0434785E0,2.204E1,2E0,1.495E1,-3.3128044E-1,-1.2234039E-2,-1.0205943E-1,1.9357052E-4,9.309143E-2,-2.319626E-1,1.19291915E-4,1.6720393E-1,1.7329985E-2,8.16624E-2,-1.411329E-1,1.708734E-1,-8.083564E-3,-1.5460666E-1,3.53665E-2],"split_indices":[10,44,50,20,59,5,63,66,74,6,58,26,36,44,0,0,0,0,0,0,0,0,0,0,0,0,0,0,0],"split_type":[0,0,0,0,0,0,0,0,0,0,0,0,0,0,0,0,0,0,0,0,0,0,0,0,0,0,0,0,0],"sum_hessian":[1.673E3,1.611E3,6.2E1,1.439E3,1.72E2,3E1,3.2E1,4.74E2,9.65E2,5E1,1.22E2,2E1,1E1,2.2E1,1E1,3.54E2,1.2E2,8.81E2,8.4E1,7E0,4.3E1,6.7E1,5.5E1,5E0,1.5E1,5E0,5E0,1.6E1,6E0],"tree_param":{"num_deleted":"0","num_feature":"80","num_nodes":"29","size_leaf_vector":"1"}},{"base_weights":[-6.2241316E-2,5.499168E-1,-1.0984863E0,1.022648E-1,2.3565388E0,5.4365296E0,-1.278383E0,-5.977455E0,2.2574505E-1,-3.9927073E0,3.1933014E0,2.1550222E-1,9.223444E-2,-1.5949714E0,1.7143013E0,-3.1831734E-2,-2.790848E-1,-7.6286215E-3,5.9024654E-2,2.9373588E-2,-2.2137599E-1,1.2899227E-1,-2.5474284E-2,5.021388E-4,-7.132122E-2,-4.467447E-2,1.840368E-1],"categories":[],"categories_nodes":[],"categories_segments":[],"categories_sizes":[],"default_left":[0,0,0,0,0,0,0,0,0,0,0,0,0,0,0,0,0,0,0,0,0,0,0,0,0,0,0],"id":43,"left_children":[1,3,5,7,9,11,13,15,17,19,21,-1,-1,23,25,-1,-1,-1,-1,-1,-1,-1,-1,-1,-1,-1,-1],"loss_changes":[1.0727032E3,8.5920166E2,7.448285E2,6.4114294E2,1.1336732E3,4.7034515E1,5.825612E2,2.6702325E2,7.004818E2,4.2879144E2,8.403961E2,0E0,0E0,6.988728E2,8.4504456E2,0E0,0E0,0E0,0E0,0E0,0E0,0E0,0E0,0E0,0E0,0E0,0E0],"parents":[2147483647,0,0,1,1,2,2,3,3,4,4,5,5,6,6,7,7,8,8,9,9,10,10,13,13,14,14],"right_children":[2,4,6,8,10,12,14,16,18,20,22,-1,-1,24,26,-1,-1,-1,-1,-1,-1,-1,-1,-1,-1,-1,-1],"split_conditions":[2E0,7.487805E-1,1.36E1,6.666667E-1,-3.7097561E0,3E0,4.25E0,1.95E1,1.25E0,6E0,6.1904764E0,2.1550222E-1,9.223444E-2,1.85E0,8.5714287E-1,-3.1831734E-2,-2.790848E-1,-7.6286215E-3,5.9024654E-2,2.9373588E-2,-2.2137599E-1,1.2899227E-1,-2.5474284E-2,5.021388E-4,-7.132122E-2,-4.467447E-2,1.840368E-1],"split_indices":[77,62,55,76,78,38,78,25,65,3,14,0,0,36,0,0,0,0,0,0,0,0,0,0,0,0,0],"split_type":[0,0,0,0,0,0,0,0,0,0,0,0,0,0,0,0,0,0,0,0,0,0,0,0,0,0,0],"sum_hessian":[1.689E3,1.062E3,6.27E2,8.52E2,2.1E2,1.6E1,6.11E2,1.6E1,8.36E2,2.4E1,1.86E2,8E0,8E0,5.53E2,5.8E1,7E0,9E0,6.56E2,1.8E2,1E1,1.4E1,1.46E2,4E1,1.81E2,3.72E2,3.4E1,2.4E1],"tree_param":{"num_deleted":"0","num_feature":"80","num_nodes":"27","size_leaf_vector":"1"}},{"base_weights":[-8.312855E-2,-7.304277E-1,8.189441E-1,5.233896E-1,-1.329447E0,1.0588336E0,-4.1512427E0,9.472367E-1,-4.171515E0,-3.8153071E0,-9.848261E-1,6.84624E-1,3.8009999E0,-7.4325633E0,-3.9913693E-1,1.7773157E-1,1.8346444E-2,5.8862578E-2,-2.4401687E-1,-1.4599268E-1,9.347425E-2,1.0746755E-2,-5.2653488E-2,2.5681196E-2,-1.7535898E-1,3.1059533E-2,1.8631208E-1,-1.1413138E-1,-3.0671388E-1,4.144028E-2,-1.084048E-1],"categories":[],"categories_nodes":[],"categories_segments":[],"categories_sizes":[],"default_left":[0,0,0,0,0,0,0,0,0,0,0,0,0,0,0,0,0,0,0,0,0,0,0,0,0,0,0,0,0,0,0],"id":44,"left_children":[1,3,5,7,9,11,13,15,17,19,21,23,25,27,29,-1,-1,-1,-1,-1,-1,-1,-1,-1,-1,-1,-1,-1,-1,-1,-1],"loss_changes":[9.6579407E2,7.240479E2,8.279624E2,6.244846E2,5.543175E2,6.7420483E2,3.902298E2,4.7523505E2,6.4847186E2,5.9088464E2,5.9459406E2,6.5595654E2,5.1927344E2,1.318628E2,9.678422E1,0E0,0E0,0E0,0E0,0E0,0E0,0E0,0E0,0E0,0E0,0E0,0E0,0E0,0E0,0E0,0E0],"parents":[2147483647,0,0,1,1,2,2,3,3,4,4,5,5,6,6,7,7,8,8,9,9,10,10,11,11,12,12,13,13,14,14],"right_children":[2,4,6,8,10,12,14,16,18,20,22,24,26,28,30,-1,-1,-1,-1,-1,-1,-1,-1,-1,-1,-1,-1,-1,-1,-1,-1],"split_conditions":[4.86E1,1E0,2.2E0,4.75E1,1.1538461E0,1.605E1,2.3022728E1,1.9625E1,9.318182E-1,3.75E0,2.2678572E1,2.76E1,2.2869566E1,2.1733334E1,3E0,1.7773157E-1,1.8346444E-2,5.8862578E-2,-2.4401687E-1,-1.4599268E-1,9.347425E-2,1.0746755E-2,-5.2653488E-2,2.5681196E-2,-1.7535898E-1,3.1059533E-2,1.8631208E-1,-1.1413138E-1,-3.0671388E-1,4.144028E-2,-1.084048E-1],"split_indices":[8,77,0,21,16,44,60,74,10,69,60,71,39,74,32,0,0,0,0,0,0,0,0,0,0,0,0,0,0,0,0],"split_type":[0,0,0,0,0,0,0,0,0,0,0,0,0,0,0,0,0,0,0,0,0,0,0,0,0,0,0,0,0,0,0],"sum_hessian":[1.652E3,9.62E2,6.9E2,3.11E2,6.51E2,6.59E2,3.1E1,2.86E2,2.5E1,7.8E1,5.73E2,5.81E2,7.8E1,1.6E1,1.5E1,1.7E1,2.69E2,1E1,1.5E1,6.8E1,1E1,2.09E2,3.64E2,5.67E2,1.4E1,3.7E1,4.1E1,8E0,8E0,1E1,5E0],"tree_param":{"num_deleted":"0","num_feature":"80","num_nodes":"31","size_leaf_vector":"1"}},{"base_weights":[1.8816485E-1,1.276084E0,-3.9656004E-1,1.5192146E0,-4.694754E0,-5.246819E-2,-2.1219072E0,1.2310606E0,6.3934855E0,-1.0785621E0,-8.532549E0,1.0925544E-1,-4.6135645E0,-1.3717316E0,-8.791724E0,1.1125197E-2,7.910223E-2,2.6815504E-2,2.5794485E-1,4.823415E-2,-1.3491873E-1,-3.253216E-1,-1.4346854E-1,4.0124487E-2,-1.0890146E-2,-1.8346146E-1,7.939716E-2,1.9288553E-1,-5.2909303E-2,-1.4206053E-1,-3.6932507E-1],"categories":[],"categories_nodes":[],"categories_segments":[],"categories_sizes":[],"default_left":[0,0,0,0,0,0,0,0,0,0,0,0,0,0,0,0,0,0,0,0,0,0,0,0,0,0,0,0,0,0,0],"id":45,"left_children":[1,3,5,7,9,11,13,15,17,19,21,23,25,27,29,-1,-1,-1,-1,-1,-1,-1,-1,-1,-1,-1,-1,-1,-1,-1,-1],"loss_changes":[1.0591198E3,8.517008E2,6.426244E2,7.7790967E2,3.0903464E2,6.677784E2,8.875599E2,6.39595E2,3.6723755E2,1.2691121E2,4.1934326E1,5.0754062E2,3.545371E2,5.0922943E2,1.9694617E2,0E0,0E0,0E0,0E0,0E0,0E0,0E0,0E0,0E0,0E0,0E0,0E0,0E0,0E0,0E0,0E0],"parents":[2147483647,0,0,1,1,2,2,3,3,4,4,5,5,6,6,7,7,8,8,9,9,10,10,11,11,12,12,13,13,14,14],"right_children":[2,4,6,8,10,12,14,16,18,20,22,24,26,28,30,-1,-1,-1,-1,-1,-1,-1,-1,-1,-1,-1,-1,-1,-1,-1,-1],"split_conditions":[6E0,7.3076925E0,2.47E1,3.8392856E0,-2.5734425E-1,2.2E0,1.2487805E0,4.9017242E1,2.5E0,2.02E1,4.73E1,9.45E0,2.46E1,1.69E1,2.5294118E0,1.1125197E-2,7.910223E-2,2.6815504E-2,2.5794485E-1,4.823415E-2,-1.3491873E-1,-3.253216E-1,-1.4346854E-1,4.0124487E-2,-1.0890146E-2,-1.8346146E-1,7.939716E-2,1.9288553E-1,-5.2909303E-2,-1.4206053E-1,-3.6932507E-1],"split_indices":[3,14,15,75,33,17,62,2,45,55,4,47,55,50,36,0,0,0,0,0,0,0,0,0,0,0,0,0,0,0,0],"split_type":[0,0,0,0,0,0,0,0,0,0,0,0,0,0,0,0,0,0,0,0,0,0,0,0,0,0,0,0,0,0,0],"sum_hessian":[1.663E3,5.81E2,1.082E3,5.59E2,2.2E1,9.03E2,1.79E2,5.29E2,3E1,1.2E1,1E1,8.73E2,3E1,1.62E2,1.7E1,3.29E2,2E2,9E0,2.1E1,7E0,5E0,5E0,5E0,2.42E2,6.31E2,2.5E1,5E0,7E0,1.55E2,9E0,8E0],"tree_param":{"num_deleted":"0","num_feature":"80","num_nodes":"31","size_leaf_vector":"1"}},{"base_weights":[-4.5210104E-2,9.4850105E-1,-6.0203415E-1,-5.7352786E0,1.1637627E0,-1.2999552E-1,-1.8600216E0,-1.8022426E0,-3.2716265E-1,4.9606788E-1,3.572234E0,-3.6844915E-1,4.2036133E0,9.9455905E-1,-2.5511847E0,5.8034137E-2,-1.4285888E-1,3.0845545E-2,-6.0155187E-2,7.5525686E-2,3.0728585E-1,-3.4832083E-2,2.0454193E-2,1.6433087E-1,-2.7719403E-2,2.4583586E-1,-1.4792362E-2,-5.2445054E-2,-1.8706411E-1],"categories":[],"categories_nodes":[],"categories_segments":[],"categories_sizes":[],"default_left":[0,0,0,0,0,0,0,0,0,0,0,0,0,0,0,0,0,0,0,0,0,0,0,0,0,0,0,0,0],"id":46,"left_children":[1,3,5,7,9,11,13,15,-1,17,19,21,23,25,27,-1,-1,-1,-1,-1,-1,-1,-1,-1,-1,-1,-1,-1,-1],"loss_changes":[9.3067114E2,8.752292E2,6.396958E2,3.6542786E2,9.401815E2,8.123567E2,5.827493E2,1.4221016E2,0E0,6.1420215E2,8.664564E2,6.210177E2,2.7336877E2,6.2604565E2,6.894752E2,0E0,0E0,0E0,0E0,0E0,0E0,0E0,0E0,0E0,0E0,0E0,0E0,0E0,0E0],"parents":[2147483647,0,0,1,1,2,2,3,3,4,4,5,5,6,6,7,7,9,9,10,10,11,11,12,12,13,13,14,14],"right_children":[2,4,6,8,10,12,14,16,-1,18,20,22,24,26,28,-1,-1,-1,-1,-1,-1,-1,-1,-1,-1,-1,-1,-1,-1],"split_conditions":[6E0,-5.3195124E0,3.2857144E0,2.25E0,6.9756097E-1,7.607317E0,1.1833333E1,4.205263E1,-3.2716265E-1,3.5609755E-1,2.4157894E1,4.9E1,2.2333334E1,2.6666667E0,2.53E1,5.8034137E-2,-1.4285888E-1,3.0845545E-2,-6.0155187E-2,7.5525686E-2,3.0728585E-1,-3.4832083E-2,2.0454193E-2,1.6433087E-1,-2.7719403E-2,2.4583586E-1,-1.4792362E-2,-5.2445054E-2,-1.8706411E-1],"split_indices":[3,24,27,46,62,35,57,66,0,62,74,6,50,70,9,0,0,0,0,0,0,0,0,0,0,0,0,0,0],"split_type":[0,0,0,0,0,0,0,0,0,0,0,0,0,0,0,0,0,0,0,0,0,0,0,0,0,0,0,0,0],"sum_hessian":[1.68E3,6.03E2,1.077E3,1.8E1,5.85E2,7.84E2,2.93E2,1.1E1,7E0,4.59E2,1.26E2,7.44E2,4E1,5.7E1,2.36E2,5E0,6E0,3.79E2,8E1,1.1E2,1.6E1,4.24E2,3.2E2,3.2E1,8E0,9E0,4.8E1,1.95E2,4.1E1],"tree_param":{"num_deleted":"0","num_feature":"80","num_nodes":"29","size_leaf_vector":"1"}},{"base_weights":[-1.6496845E-1,-7.74659E-1,7.709126E-1,-1.0772583E0,2.4171789E0,1.0215752E0,-3.356291E0,7.047319E-1,-1.4965051E0,4.9146194E0,-7.0011526E-1,1.4813272E0,-1.425812E0,-5.2369347E0,1.7118365E-1,8.351889E-2,-5.3780332E-2,-2.9490195E-2,-9.210556E-2,2.0346758E-1,-4.202313E-2,1.6380988E-1,-9.685713E-2,3.6056906E-2,1.8145585E-1,8.071129E-2,-9.2651956E-2,-2.1586049E-1,-5.9666187E-3],"categories":[],"categories_nodes":[],"categories_segments":[],"categories_sizes":[],"default_left":[0,0,0,0,0,0,0,0,0,0,0,0,0,0,0,0,0,0,0,0,0,0,0,0,0,0,0,0,0],"id":47,"left_children":[1,3,5,7,9,11,13,15,17,19,21,23,25,27,-1,-1,-1,-1,-1,-1,-1,-1,-1,-1,-1,-1,-1,-1,-1],"loss_changes":[9.54637E2,9.808743E2,6.859889E2,6.929424E2,6.8896484E2,7.031117E2,6.774761E2,9.2419653E2,6.0263855E2,5.879855E2,6.404624E2,6.6201746E2,6.8585724E2,3.1356024E2,0E0,0E0,0E0,0E0,0E0,0E0,0E0,0E0,0E0,0E0,0E0,0E0,0E0,0E0,0E0],"parents":[2147483647,0,0,1,1,2,2,3,3,4,4,5,5,6,6,7,7,8,8,9,9,10,10,11,11,12,12,13,13],"right_children":[2,4,6,8,10,12,14,16,18,20,22,24,26,28,-1,-1,-1,-1,-1,-1,-1,-1,-1,-1,-1,-1,-1,-1,-1],"split_conditions":[4.875E1,1.4E0,2.1E0,2.5555556E0,5.759494E0,3.030303E-1,5.15E1,1.0821428E1,1.2E0,2.5316456E-1,-4.5829268E0,9.712195E0,2.3857143E1,2.175E1,1.7118365E-1,8.351889E-2,-5.3780332E-2,-2.9490195E-2,-9.210556E-2,2.0346758E-1,-4.202313E-2,1.6380988E-1,-9.685713E-2,3.6056906E-2,1.8145585E-1,8.071129E-2,-9.2651956E-2,-2.1586049E-1,-5.9666187E-3],"split_indices":[8,72,0,23,14,19,4,54,10,43,35,35,53,30,0,0,0,0,0,0,0,0,0,0,0,0,0,0,0],"split_type":[0,0,0,0,0,0,0,0,0,0,0,0,0,0,0,0,0,0,0,0,0,0,0,0,0,0,0,0,0],"sum_hessian":[1.671E3,1.012E3,6.59E2,9.25E2,8.7E1,6.22E2,3.7E1,1.76E2,7.49E2,4.8E1,3.9E1,5.24E2,9.8E1,3.1E1,6E0,9.6E1,8E1,5.66E2,1.83E2,3.7E1,1.1E1,1.1E1,2.8E1,4.95E2,2.9E1,2.8E1,7E1,2.2E1,9E0],"tree_param":{"num_deleted":"0","num_feature":"80","num_nodes":"29","size_leaf_vector":"1"}},{"base_weights":[-1.0397898E-2,2.9208046E-1,-2.2265306E0,9.2795247E-1,-8.1490135E-1,-4.9808964E-1,-3.7413805E0,3.8882518E-1,2.3315217E0,3.6369102E0,-1.1668012E0,3.6003373E0,-1.5574461E0,-2.2277577E0,-6.9672723E0,-6.9659604E-3,5.9805635E-2,3.5842385E-2,1.64773E-1,1.5883762E-1,-5.5667378E-2,-1.4839222E-1,-2.4368333E-2,2.7219206E-1,-5.079256E-2,-1.02860585E-1,3.5340194E-2,-2.7226109E-2,-2.3724543E-1,-6.2550984E-2,-2.515638E-1],"categories":[],"categories_nodes":[],"categories_segments":[],"categories_sizes":[],"default_left":[0,0,0,0,0,0,0,0,0,0,0,0,0,0,0,0,0,0,0,0,0,0,0,0,0,0,0,0,0,0,0],"id":48,"left_children":[1,3,5,7,9,11,13,15,17,19,21,23,25,27,29,-1,-1,-1,-1,-1,-1,-1,-1,-1,-1,-1,-1,-1,-1,-1,-1],"loss_changes":[1.1330348E3,1.047465E3,5.292333E2,7.139052E2,8.5465607E2,4.222058E2,5.1089954E2,6.8228235E2,9.3419995E2,3.7435938E2,6.707457E2,5.954891E2,3.9840308E2,5.5439746E2,2.1688281E2,0E0,0E0,0E0,0E0,0E0,0E0,0E0,0E0,0E0,0E0,0E0,0E0,0E0,0E0,0E0,0E0],"parents":[2147483647,0,0,1,1,2,2,3,3,4,4,5,5,6,6,7,7,8,8,9,9,10,10,11,11,12,12,13,13,14,14],"right_children":[2,4,6,8,10,12,14,16,18,20,22,24,26,28,30,-1,-1,-1,-1,-1,-1,-1,-1,-1,-1,-1,-1,-1,-1,-1,-1],"split_conditions":[1.4E1,2E0,2E0,1.5E1,1.66E1,-5.2E0,1.155E1,3.4444444E0,2.6536586E0,4E0,2.07E1,1.9454546E1,8.292683E-2,3.437318E-1,2.1068182E1,-6.9659604E-3,5.9805635E-2,3.5842385E-2,1.64773E-1,1.5883762E-1,-5.5667378E-2,-1.4839222E-1,-2.4368333E-2,2.7219206E-1,-5.079256E-2,-1.02860585E-1,3.5340194E-2,-2.7226109E-2,-2.3724543E-1,-6.2550984E-2,-2.515638E-1],"split_indices":[3,77,36,40,30,35,48,69,35,38,39,25,28,33,60,0,0,0,0,0,0,0,0,0,0,0,0,0,0,0,0],"split_type":[0,0,0,0,0,0,0,0,0,0,0,0,0,0,0,0,0,0,0,0,0,0,0,0,0,0,0,0,0,0,0],"sum_hessian":[1.688E3,1.486E3,2.02E2,9.44E2,5.42E2,9.5E1,1.07E2,6.83E2,2.61E2,3.9E1,5.03E2,1.9E1,7.6E1,7.4E1,3.3E1,4.93E2,1.9E2,1.93E2,6.8E1,3E1,9E0,4.2E1,4.61E2,9E0,1E1,4.5E1,3.1E1,6.1E1,1.3E1,8E0,2.5E1],"tree_param":{"num_deleted":"0","num_feature":"80","num_nodes":"31","size_leaf_vector":"1"}},{"base_weights":[5.2306235E-2,4.4640887E-1,-1.1069242E0,-6.034444E-1,9.7279614E-1,-1.2925375E0,6.054796E0,-2.4282051E-2,-3.3253932E0,1.1006161E0,-7.2453213E0,