{"learner":{"attributes":{"best_iteration":"230","best_score":"2.939522471834951","scikit_learn":"{\"_estimator_type\": \"regressor\"}"},"feature_names":["away_sh_shot_attempts_against_per60","home_sh_shot_attempts_against_per60","away_sh_hits_against_per60","away_sh_takeaways_per60","home_sh_hits_against_per60","away_ev_shot_attempts_for_last20","home_sh_hits_for_per60","home_sh_shot_attempts_for_per60","away_pp_shot_attempts_against_season_avg","away_sh_shot_attempts_for_per60","away_ev_goals_against_per60_last20","away_pp_giveaways_per60","home_pp_hits_against_per60","home_ev_shot_attempts_against_season_avg","home_sh_takeaways_per60","home_pp_hits_for_per60","away_sh_giveaways_per60","home_sh_shots_on_goal_for_last10","away_pp_shot_attempts_for_per60","away_pp_shot_attempts_against_per60","home_pp_fenwick_against_per60_last5","away_sh_hits_for_per60","away_ev_missed_shots_against_season_avg","home_pp_giveaways_per60","away_pp_hits_for_per60","away_pp_hits_against_per60","away_pp_shots_on_goal_for_season_avg","away_pp_takeaways_per60","home_pp_toi_season_avg","away_sh_shot_attempts_for_last20","away_pp_shot_attempts_for_season_avg","away_sh_penalty_minutes_season_avg","home_en_toi_last20","home_pp_shot_attempts_against_last20","home_sh_giveaways_per60","away_pp_penalties_drawn_season_avg","home_ev_giveaways_per60_season_avg","home_pp_takeaways_per60","away_ev_goals_against_last20","home_pp_fenwick_against_per60_last20","home_pp_blocked_shots_against_last10","home_pp_shots_on_goal_for_per60_last10","home_ev_toi_season_avg","away_ev_hits_against_per60_last20","away_sh_shot_attempts_against_per60_last20","home_pp_shot_attempts_against_last10","away_ev_shots_on_goal_against_last5","away_ev_shot_attempts_for_last10","home_pp_blocked_shots_for_season_avg","home_ev_blocked_shots_for_season_avg","away_ev_fenwick_for_per60_last5","away_sh_fenwick_against_per60_season_avg","home_pp_shot_attempts_against_per60","away_ev_shot_attempts_against_opp_adj_last20","home_pp_goals_for_per60_last20","home_sh_blocked_shots_for_season_avg","home_ev_missed_shots_for_last20","away_ev_blocked_shots_against_last20","away_sh_blocked_shots_against_last5","home_ev_fenwick_against_per60_last10","home_pp_shot_attempts_for_last20","home_total_fenwick_for_last20","away_ev_goals_for_per60_last10","away_sh_shot_attempts_against_per60_season_avg","home_pp_shots_on_goal_against_last20","away_sh_goals_for_season_avg","away_total_shots_on_goal_against_last20","away_sh_penalties_taken_season_avg","away_sh_shots_on_goal_against_per60_last20","home_pp_blocked_shots_against_season_avg","home_pp_shots_on_goal_for_last20","away_ev_giveaways_per60_last10","home_sh_shot_attempts_for_season_avg","away_ev_goals_for_last5","home_ev_giveaways_per60_last20","home_sh_shots_on_goal_for_last20","away_sh_toi_last10","home_pp_shot_attempts_against_season_avg","away_pp_shot_attempts_against_last5","home_ev_giveaways_last20"],"feature_types":["float","float","float","float","float","float","float","float","float","float","float","float","float","float","float","float","float","float","float","float","float","float","float","float","float","float","float","float","float","float","float","float","float","float","float","float","float","float","float","float","float","float","float","float","float","float","float","float","float","float","float","float","float","float","float","float","float","float","float","float","float","float","float","float","float","float","float","float","float","float","float","float","float","float","float","float","float","float","float","float"],"gradient_booster":{"model":{"cats":{"enc":[],"feature_segments":[],"sorted_idx":[]},"gbtree_model_param":{"num_parallel_tree":"1","num_trees":"261"},"iteration_indptr":[0,1,2,3,4,5,6,7,8,9,10,11,12,13,14,15,16,17,18,19,20,21,22,23,24,25,26,27,28,29,30,31,32,33,34,35,36,37,38,39,40,41,42,43,44,45,46,47,48,49,50,51,52,53,54,55,56,57,58,59,60,61,62,63,64,65,66,67,68,69,70,71,72,73,74,75,76,77,78,79,80,81,82,83,84,85,86,87,88,89,90,91,92,93,94,95,96,97,98,99,100,101,102,103,104,105,106,107,108,109,110,111,112,113,114,115,116,117,118,119,120,121,122,123,124,125,126,127,128,129,130,131,132,133,134,135,136,137,138,139,140,141,142,143,144,145,146,147,148,149,150,151,152,153,154,155,156,157,158,159,160,161,162,163,164,165,166,167,168,169,170,171,172,173,174,175,176,177,178,179,180,181,182,183,184,185,186,187,188,189,190,191,192,193,194,195,196,197,198,199,200,201,202,203,204,205,206,207,208,209,210,211,212,213,214,215,216,217,218,219,220,221,222,223,224,225,226,227,228,229,230,231,232,233,234,235,236,237,238,239,240,241,242,243,244,245,246,247,248,249,250,251,252,253,254,255,256,257,258,259,260,261],"tree_info":[0,0,0,0,0,0,0,0,0,0,0,0,0,0,0,0,0,0,0,0,0,0,0,0,0,0,0,0,0,0,0,0,0,0,0,0,0,0,0,0,0,0,0,0,0,0,0,0,0,0,0,0,0,0,0,0,0,0,0,0,0,0,0,0,0,0,0,0,0,0,0,0,0,0,0,0,0,0,0,0,0,0,0,0,0,0,0,0,0,0,0,0,0,0,0,0,0,0,0,0,0,0,0,0,0,0,0,0,0,0,0,0,0,0,0,0,0,0,0,0,0,0,0,0,0,0,0,0,0,0,0,0,0,0,0,0,0,0,0,0,0,0,0,0,0,0,0,0,0,0,0,0,0,0,0,0,0,0,0,0,0,0,0,0,0,0,0,0,0,0,0,0,0,0,0,0,0,0,0,0,0,0,0,0,0,0,0,0,0,0,0,0,0,0,0,0,0,0,0,0,0,0,0,0,0,0,0,0,0,0,0,0,0,0,0,0,0,0,0,0,0,0,0,0,0,0,0,0,0,0,0,0,0,0,0,0,0,0,0,0,0,0,0,0,0,0,0,0,0,0,0,0,0,0,0,0,0,0,0,0,0],"trees":[{"base_weights":[4.961325E-2,2.1546214E0,-8.3845013E-1,4.412442E0,1.069269E0,8.934276E-1,-1.4339902E0,1.4942712E0,5.0960503E0,2.337066E0,-1.5993775E-1,1.0537806E0,-1.329878E-1,-2.2455204E0,-1.3292426E-1,-5.3706173E-2,9.9141635E-2,1.715215E-1,8.493076E-2,-9.281515E-2,8.006203E-2,-2.5471274E-2,6.627876E-2,-1.3832679E-3,5.407621E-2,-3.963472E-2,-1.0058185E-1,-1.1317166E-2,1.2677546E-1],"categories":[],"categories_nodes":[],"categories_segments":[],"categories_sizes":[],"default_left":[0,0,0,0,0,0,0,0,0,0,0,0,0,0,0,0,0,0,0,0,0,0,0,0,0,0,0,0,0],"id":0,"left_children":[1,3,5,7,9,11,13,15,17,19,21,23,-1,25,27,-1,-1,-1,-1,-1,-1,-1,-1,-1,-1,-1,-1,-1,-1],"loss_changes":[3.131281E3,1.212648E3,1.2163274E3,3.129026E2,5.257671E2,2.622706E2,9.254479E2,1.9635178E2,1.659126E2,3.0722345E2,2.825551E2,2.4238336E2,0E0,5.477727E2,3.611495E2,0E0,0E0,0E0,0E0,0E0,0E0,0E0,0E0,0E0,0E0,0E0,0E0,0E0,0E0],"parents":[2147483647,0,0,1,1,2,2,3,3,4,4,5,5,6,6,7,7,8,8,9,9,10,10,11,11,13,13,14,14],"right_children":[2,4,6,8,10,12,14,16,18,20,22,24,-1,26,28,-1,-1,-1,-1,-1,-1,-1,-1,-1,-1,-1,-1,-1,-1],"split_conditions":[5.05476E0,4.487659E0,5.119454E0,1.0697734E1,5.249344E0,2.5714285E0,2.6548672E1,9.789474E0,1.1605416E1,7.380074E0,5.328597E1,4.745E1,-1.329878E-1,4.373178E0,2.52809E1,-5.3706173E-2,9.9141635E-2,1.715215E-1,8.493076E-2,-9.281515E-2,8.006203E-2,-2.5471274E-2,6.627876E-2,-1.3832679E-3,5.407621E-2,-3.963472E-2,-1.0058185E-1,-1.1317166E-2,1.2677546E-1],"split_indices":[1,0,7,68,6,31,7,22,11,0,0,5,0,3,27,0,0,0,0,0,0,0,0,0,0,0,0,0,0],"split_type":[0,0,0,0,0,0,0,0,0,0,0,0,0,0,0,0,0,0,0,0,0,0,0,0,0,0,0,0,0],"sum_hessian":[1.673E3,4.96E2,1.177E3,1.6E2,3.36E2,3.01E2,8.76E2,3.1E1,1.29E2,1.65E2,1.71E2,2.93E2,8E0,5.39E2,3.37E2,1.1E1,2E1,1E2,2.9E1,9E0,1.56E2,1.33E2,3.8E1,1.19E2,1.74E2,2.95E2,2.44E2,3.2E2,1.7E1],"tree_param":{"num_deleted":"0","num_feature":"80","num_nodes":"29","size_leaf_vector":"1"}},{"base_weights":[7.355283E-2,2.1995223E0,-8.1329894E-1,4.293383E0,1.0968534E0,7.62699E-1,-1.418044E0,5.407584E0,1.6074365E0,-4.183905E0,1.3860261E0,1.4788154E0,-6.0568804E-1,-1.7698174E0,1.7716995E0,4.2342864E-2,1.7524877E-1,-7.206504E-2,6.906587E-2,-1.7723133E-1,-4.4809792E-2,7.6231785E-2,1.0076919E-2,7.327945E-2,8.403139E-3,-5.8915872E-2,2.901105E-2,-1.2037031E-1,-4.1160658E-2,7.307533E-2,-3.7152473E-2],"categories":[],"categories_nodes":[],"categories_segments":[],"categories_sizes":[],"default_left":[0,0,0,0,0,0,0,0,0,0,0,0,0,0,0,0,0,0,0,0,0,0,0,0,0,0,0,0,0,0,0],"id":1,"left_children":[1,3,5,7,9,11,13,15,17,19,21,23,25,27,29,-1,-1,-1,-1,-1,-1,-1,-1,-1,-1,-1,-1,-1,-1,-1,-1],"loss_changes":[3.1449224E3,1.1283894E3,1.1229186E3,4.9636987E2,4.987569E2,3.214183E2,9.5801416E2,1.9743457E2,1.4759142E2,6.927258E1,3.7122937E2,2.4744531E2,2.4337045E2,6.7817163E2,1.7306433E2,0E0,0E0,0E0,0E0,0E0,0E0,0E0,0E0,0E0,0E0,0E0,0E0,0E0,0E0,0E0,0E0],"parents":[2147483647,0,0,1,1,2,2,3,3,4,4,5,5,6,6,7,7,8,8,9,9,10,10,11,11,12,12,13,13,14,14],"right_children":[2,4,6,8,10,12,14,16,18,20,22,24,26,28,30,-1,-1,-1,-1,-1,-1,-1,-1,-1,-1,-1,-1,-1,-1,-1,-1],"split_conditions":[5.05476E0,4.487659E0,5.119454E0,5.119454E0,7.380074E0,4.8115478E0,4.709576E1,1.5389798E1,9.188361E0,4.4444447E0,5.249344E0,4.521477E0,1.3636363E2,9.724473E0,6.05E0,4.2342864E-2,1.7524877E-1,-7.206504E-2,6.906587E-2,-1.7723133E-1,-4.4809792E-2,7.6231785E-2,1.0076919E-2,7.327945E-2,8.403139E-3,-5.8915872E-2,2.901105E-2,-1.2037031E-1,-4.1160658E-2,7.307533E-2,-3.7152473E-2],"split_indices":[1,0,7,4,0,16,9,63,21,37,6,2,18,7,64,0,0,0,0,0,0,0,0,0,0,0,0,0,0,0,0],"split_type":[0,0,0,0,0,0,0,0,0,0,0,0,0,0,0,0,0,0,0,0,0,0,0,0,0,0,0,0,0,0,0],"sum_hessian":[1.666E3,4.9E2,1.176E3,1.68E2,3.22E2,3.26E2,8.5E2,1.18E2,5E1,1.6E1,3.06E2,2.14E2,1.12E2,7.66E2,8.4E1,1.2E1,1.06E2,7E0,4.3E1,9E0,7E0,1.45E2,1.61E2,1.18E2,9.6E1,6E1,5.2E1,1.14E2,6.52E2,6.9E1,1.5E1],"tree_param":{"num_deleted":"0","num_feature":"80","num_nodes":"31","size_leaf_vector":"1"}},{"base_weights":[8.948458E-2,5.650678E0,-2.3134677E-1,5.952294E0,3.6293015E-2,1.5974913E0,-8.848434E-1,6.349043E0,3.0343788E0,3.2377646E0,8.6060643E-1,6.980871E-1,-1.4369283E0,1.08704686E-1,1.9881633E-1,4.042388E-2,1.2097615E-1,1.2872359E-1,4.0558975E-2,-1.10481724E-1,3.5980523E-2,-1.0716912E-1,2.7645899E-2,-1.1980054E-1,-3.206069E-2],"categories":[],"categories_nodes":[],"categories_segments":[],"categories_sizes":[],"default_left":[0,0,0,0,0,0,0,0,0,0,0,0,0,0,0,0,0,0,0,0,0,0,0,0,0],"id":2,"left_children":[1,3,5,7,-1,9,11,13,15,17,19,21,23,-1,-1,-1,-1,-1,-1,-1,-1,-1,-1,-1,-1],"loss_changes":[2.9440037E3,1.126333E2,1.8657599E3,7.7041504E1,0E0,4.935763E2,1.0060758E3,3.0306885E1,1.4234047E1,2.4582971E2,4.427915E2,2.8737512E2,7.982179E2,0E0,0E0,0E0,0E0,0E0,0E0,0E0,0E0,0E0,0E0,0E0,0E0],"parents":[2147483647,0,0,1,1,2,2,3,3,5,5,6,6,7,7,8,8,9,9,10,10,11,11,12,12],"right_children":[2,4,6,8,-1,10,12,14,16,18,20,22,24,-1,-1,-1,-1,-1,-1,-1,-1,-1,-1,-1,-1],"split_conditions":[2.7906977E1,3.445E1,5.633803E0,2.0303384E2,3.6293015E-2,4.487659E0,5.119454E0,2E1,5.249344E0,4.930156E0,8.915304E0,7.8226857E0,8.426967E0,1.08704686E-1,1.9881633E-1,4.042388E-2,1.2097615E-1,1.2872359E-1,4.0558975E-2,-1.10481724E-1,3.5980523E-2,-1.0716912E-1,2.7645899E-2,-1.1980054E-1,-3.206069E-2],"split_indices":[19,66,9,52,0,0,7,46,6,21,7,9,0,0,0,0,0,0,0,0,0,0,0,0,0],"split_type":[0,0,0,0,0,0,0,0,0,0,0,0,0,0,0,0,0,0,0,0,0,0,0,0,0],"sum_hessian":[1.648E3,8.9E1,1.559E3,8.3E1,6E0,4.1E2,1.149E3,7.2E1,1.1E1,1.26E2,2.84E2,2.97E2,8.52E2,8E0,6.4E1,5E0,6E0,8E1,4.6E1,1.9E1,2.65E2,1.4E1,2.83E2,1.06E2,7.46E2],"tree_param":{"num_deleted":"0","num_feature":"80","num_nodes":"25","size_leaf_vector":"1"}},{"base_weights":[5.4683328E-2,2.1780438E0,-7.8413785E-1,4.4170527E0,1.023212E0,9.729171E-1,-1.3613939E0,5.1867247E0,2.07379E0,4.7986684E0,6.274095E-1,2.1550663E0,1.8758292E-1,-4.851928E0,-1.0797694E0,1.6428743E-1,-3.9202742E-2,-3.6672615E-2,8.3124466E-2,7.781761E-2,1.6845834E-1,-1.1188218E-1,2.8445497E-2,8.162428E-2,-1.4525676E-2,-1.3596635E-2,7.891355E-2,-1.9496305E-1,-7.637915E-2,-4.249347E-2,4.530884E-2],"categories":[],"categories_nodes":[],"categories_segments":[],"categories_sizes":[],"default_left":[0,0,0,0,0,0,0,0,0,0,0,0,0,0,0,0,0,0,0,0,0,0,0,0,0,0,0,0,0,0,0],"id":3,"left_children":[1,3,5,7,9,11,13,15,17,19,21,23,25,27,29,-1,-1,-1,-1,-1,-1,-1,-1,-1,-1,-1,-1,-1,-1,-1,-1],"loss_changes":[3.019064E3,1.2360623E3,1.2337025E3,2.8249536E2,4.7164514E2,2.788045E2,8.936316E2,2.3693457E2,1.0003876E2,3.8626038E1,4.071505E2,1.807179E2,2.8631277E2,2.4078271E2,7.416046E2,0E0,0E0,0E0,0E0,0E0,0E0,0E0,0E0,0E0,0E0,0E0,0E0,0E0,0E0,0E0,0E0],"parents":[2147483647,0,0,1,1,2,2,3,3,4,4,5,5,6,6,7,7,8,8,9,9,10,10,11,11,12,12,13,13,14,14],"right_children":[2,4,6,8,10,12,14,16,18,20,22,24,26,28,30,-1,-1,-1,-1,-1,-1,-1,-1,-1,-1,-1,-1,-1,-1,-1,-1],"split_conditions":[5.05476E0,4.487659E0,5.119454E0,5.119454E0,3.7267082E1,4.6332045E0,8.185539E0,1.36E1,2.1E0,1.5415E0,8.759124E0,4.047619E-1,2.5263159E1,9.419152E0,4.6753246E1,1.6428743E-1,-3.9202742E-2,-3.6672615E-2,8.3124466E-2,7.781761E-2,1.6845834E-1,-1.1188218E-1,2.8445497E-2,8.162428E-2,-1.4525676E-2,-1.3596635E-2,7.891355E-2,-1.9496305E-1,-7.637915E-2,-4.249347E-2,4.530884E-2],"split_indices":[1,0,7,4,18,23,7,45,40,32,7,35,23,0,9,0,0,0,0,0,0,0,0,0,0,0,0,0,0,0,0],"split_type":[0,0,0,0,0,0,0,0,0,0,0,0,0,0,0,0,0,0,0,0,0,0,0,0,0,0,0,0,0,0,0],"sum_hessian":[1.693E3,4.79E2,1.214E3,1.62E2,3.17E2,3E2,9.14E2,1.21E2,4.1E1,2.9E1,2.88E2,1.19E2,1.81E2,6.7E1,8.47E2,1.16E2,5E0,7E0,3.4E1,9E0,2E1,1.9E1,2.69E2,9.8E1,2.1E1,1.44E2,3.7E1,3.8E1,2.9E1,7.5E2,9.7E1],"tree_param":{"num_deleted":"0","num_feature":"80","num_nodes":"31","size_leaf_vector":"1"}},{"base_weights":[2.959739E-2,1.9747356E0,-7.3675764E-1,3.9780288E0,9.4096196E-1,8.976662E-1,-1.305256E0,4.8875294E0,1.4462316E0,1.7050427E0,-1.1364443E0,1.775213E0,-1.316777E-1,-3.9426538E-1,-2.517034E0,1.5510395E-1,-9.541243E-3,-8.215924E-2,6.944053E-2,1.3954978E-1,4.0160436E-2,-1.0452829E-1,-6.229904E-3,7.9326265E-2,9.606494E-3,-2.6343167E-2,5.2874185E-2,-3.6817987E-2,2.2734199E-2,-1.6608278E-1,-5.4715153E-2],"categories":[],"categories_nodes":[],"categories_segments":[],"categories_sizes":[],"default_left":[0,0,0,0,0,0,0,0,0,0,0,0,0,0,0,0,0,0,0,0,0,0,0,0,0,0,0,0,0,0,0],"id":4,"left_children":[1,3,5,7,9,11,13,15,17,19,21,23,25,27,29,-1,-1,-1,-1,-1,-1,-1,-1,-1,-1,-1,-1,-1,-1,-1,-1],"loss_changes":[2.4999358E3,9.77396E2,1.1190007E3,3.6302808E2,5.004087E2,2.813236E2,9.8451587E2,1.7571997E2,1.6620876E2,2.4146515E2,1.8426012E2,2.1127368E2,2.0505315E2,4.913719E2,7.907085E2,0E0,0E0,0E0,0E0,0E0,0E0,0E0,0E0,0E0,0E0,0E0,0E0,0E0,0E0,0E0,0E0],"parents":[2147483647,0,0,1,1,2,2,3,3,4,4,5,5,6,6,7,7,8,8,9,9,10,10,11,11,12,12,13,13,14,14],"right_children":[2,4,6,8,10,12,14,16,18,20,22,24,26,28,30,-1,-1,-1,-1,-1,-1,-1,-1,-1,-1,-1,-1,-1,-1,-1,-1],"split_conditions":[5.05476E0,5.119454E0,5.119454E0,5.119454E0,4.373178E0,4.521477E0,4.373178E0,1.36E1,1.8124657E0,4.046243E1,1.0135135E1,1.6842105E0,2.5531916E1,2.5E1,8E0,1.5510395E-1,-9.541243E-3,-8.215924E-2,6.944053E-2,1.3954978E-1,4.0160436E-2,-1.0452829E-1,-6.229904E-3,7.9326265E-2,9.606494E-3,-2.6343167E-2,5.2874185E-2,-3.6817987E-2,2.2734199E-2,-1.6608278E-1,-5.4715153E-2],"split_indices":[1,7,7,4,3,2,3,45,10,52,3,72,2,9,3,0,0,0,0,0,0,0,0,0,0,0,0,0,0,0,0],"split_type":[0,0,0,0,0,0,0,0,0,0,0,0,0,0,0,0,0,0,0,0,0,0,0,0,0,0,0,0,0,0,0],"sum_hessian":[1.675E3,4.73E2,1.202E3,1.6E2,3.13E2,3.1E2,8.92E2,1.17E2,4.3E1,2.29E2,8.4E1,1.67E2,1.43E2,5.1E2,3.82E2,1.11E2,6E0,7E0,3.6E1,2.4E1,2.05E2,2.3E1,6.1E1,1.04E2,6.3E1,1.03E2,4E1,2.96E2,2.14E2,7E1,3.12E2],"tree_param":{"num_deleted":"0","num_feature":"80","num_nodes":"31","size_leaf_vector":"1"}},{"base_weights":[1.1495589E-2,5.358442E0,-2.88278E-1,5.7090726E0,5.917459E-2,8.0246246E-1,-1.302755E0,7.91624E-2,5.9624987E0,2.5453134E0,4.6954915E-2,-4.3838105E0,-8.757203E-1,1.9144262E-1,1.3226105E-1,9.1212556E-2,1.1882521E-2,-1.0092493E-2,7.194974E-2,-1.99044E-1,-9.577132E-2,-3.474775E-3,-6.2417563E-2],"categories":[],"categories_nodes":[],"categories_segments":[],"categories_sizes":[],"default_left":[0,0,0,0,0,0,0,0,0,0,0,0,0,0,0,0,0,0,0,0,0,0,0],"id":5,"left_children":[1,3,5,7,-1,9,11,-1,13,15,17,19,21,-1,-1,-1,-1,-1,-1,-1,-1,-1,-1],"loss_changes":[2.717319E3,9.482056E1,1.7770779E3,4.6432617E1,0E0,1.01877563E3,1.0903119E3,0E0,1.8955322E1,2.4745032E2,4.886963E2,2.4870886E2,6.697369E2,0E0,0E0,0E0,0E0,0E0,0E0,0E0,0E0,0E0,0E0],"parents":[2147483647,0,0,1,1,2,2,3,3,5,5,6,6,8,8,9,9,10,10,11,11,12,12],"right_children":[2,4,6,8,-1,10,12,-1,14,16,18,20,22,-1,-1,-1,-1,-1,-1,-1,-1,-1,-1],"split_conditions":[2.6865671E1,6.388889E0,4.521477E0,4.296207E1,5.917459E-2,5.633803E0,8.415147E0,7.91624E-2,2.936093E0,4.373178E0,4.137931E1,9.202454E0,4.373178E0,1.9144262E-1,1.3226105E-1,9.1212556E-2,1.1882521E-2,-1.0092493E-2,7.194974E-2,-1.99044E-1,-9.577132E-2,-3.474775E-3,-6.2417563E-2],"split_indices":[19,64,2,41,0,9,2,0,10,3,9,6,3,0,0,0,0,0,0,0,0,0,0],"split_type":[0,0,0,0,0,0,0,0,0,0,0,0,0,0,0,0,0,0,0,0,0,0,0],"sum_hessian":[1.693E3,8.9E1,1.604E3,8E1,9E0,7.73E2,8.31E2,7E0,7.3E1,2.33E2,5.4E2,1E2,7.31E2,5.5E1,1.8E1,1.89E2,4.4E1,4.65E2,7.5E1,3.3E1,6.7E1,4.49E2,2.82E2],"tree_param":{"num_deleted":"0","num_feature":"80","num_nodes":"23","size_leaf_vector":"1"}},{"base_weights":[4.665804E-2,1.8303181E0,-7.275392E-1,3.8562503E0,7.783284E-1,2.0166823E-1,-1.552154E0,4.690142E0,1.5848614E0,-4.7660694E-1,1.6822646E0,-4.3693444E-1,1.8036287E0,-7.903934E-1,-2.9008837E0,1.493645E-1,-5.3297365E-3,-8.311471E-2,6.47416E-2,-1.1179247E-1,-1.7806975E-3,6.559427E-2,-1.8078784E-2,1.2186862E-2,-4.8306324E-2,1.2162094E-1,3.783955E-2,-9.78583E-2,-1.1994875E-2,-1.4191274E-1,-4.7374256E-2],"categories":[],"categories_nodes":[],"categories_segments":[],"categories_sizes":[],"default_left":[0,0,0,0,0,0,0,0,0,0,0,0,0,0,0,0,0,0,0,0,0,0,0,0,0,0,0,0,0,0,0],"id":6,"left_children":[1,3,5,7,9,11,13,15,17,19,21,23,25,27,29,-1,-1,-1,-1,-1,-1,-1,-1,-1,-1,-1,-1,-1,-1,-1,-1],"loss_changes":[2.3130764E3,1.0770839E3,8.9541425E2,3.196172E2,3.8094016E2,5.635836E2,6.333043E2,1.784209E2,1.2574732E2,1.9059393E2,2.2612915E2,3.9054428E2,1.8596051E2,3.8155334E2,5.3115356E2,0E0,0E0,0E0,0E0,0E0,0E0,0E0,0E0,0E0,0E0,0E0,0E0,0E0,0E0,0E0,0E0],"parents":[2147483647,0,0,1,1,2,2,3,3,4,4,5,5,6,6,7,7,8,8,9,9,10,10,11,11,12,12,13,13,14,14],"right_children":[2,4,6,8,10,12,14,16,18,20,22,24,26,28,30,-1,-1,-1,-1,-1,-1,-1,-1,-1,-1,-1,-1,-1,-1,-1,-1],"split_conditions":[5.05476E0,4.487659E0,5.249344E0,5.119454E0,2.4E1,1.6875E2,4.341534E0,1.36E1,4.5375E1,7.6923075E0,4.6403713E0,4.373178E0,2.1791628E1,8.510638E0,1.13852E1,1.493645E-1,-5.3297365E-3,-8.311471E-2,6.47416E-2,-1.1179247E-1,-1.7806975E-3,6.559427E-2,-1.8078784E-2,1.2186862E-2,-4.8306324E-2,1.2162094E-1,3.783955E-2,-9.78583E-2,-1.1994875E-2,-1.4191274E-1,-4.7374256E-2],"split_indices":[1,0,6,4,0,18,15,45,13,0,25,3,43,6,25,0,0,0,0,0,0,0,0,0,0,0,0,0,0,0,0],"split_type":[0,0,0,0,0,0,0,0,0,0,0,0,0,0,0,0,0,0,0,0,0,0,0,0,0,0,0,0,0,0,0],"sum_hessian":[1.673E3,5.06E2,1.167E3,1.72E2,3.34E2,5.49E2,6.18E2,1.25E2,4.7E1,1.4E2,1.94E2,3.93E2,1.56E2,3.96E2,2.22E2,1.18E2,7E0,5E0,4.2E1,1.5E1,1.25E2,1.59E2,3.5E1,2.29E2,1.64E2,2.9E1,1.27E2,5.3E1,3.43E2,9.2E1,1.3E2],"tree_param":{"num_deleted":"0","num_feature":"80","num_nodes":"31","size_leaf_vector":"1"}},{"base_weights":[-3.7444368E-2,1.7531524E0,-7.425249E-1,5.2233553E0,1.2518032E0,2.0243768E-3,-1.9172641E0,5.6029863E0,6.1286338E-2,1.439594E0,-3.5619068E0,5.964651E-1,-1.6173368E0,-4.7852874E0,-1.2821239E0,1.0074068E-1,1.8133956E-1,6.115927E-2,3.4850633E-3,2.0237463E-3,-1.5680525E-1,-4.7770724E-2,2.9800747E-2,-1.5167421E-1,-1.8433854E-2,-9.293752E-2,-1.694258E-1,-5.2325614E-2,3.642651E-2],"categories":[],"categories_nodes":[],"categories_segments":[],"categories_sizes":[],"default_left":[0,0,0,0,0,0,0,0,0,0,0,0,0,0,0,0,0,0,0,0,0,0,0,0,0,0,0,0,0],"id":7,"left_children":[1,3,5,7,9,11,13,15,-1,17,19,21,23,25,27,-1,-1,-1,-1,-1,-1,-1,-1,-1,-1,-1,-1,-1,-1],"loss_changes":[2.1361135E3,8.244303E2,1.062022E3,6.0233765E1,3.8367944E2,7.170476E2,8.5123E2,3.1312256E1,0E0,3.1983722E2,9.7551025E1,4.74979E2,6.8599756E2,1.0529761E2,4.4856274E2,0E0,0E0,0E0,0E0,0E0,0E0,0E0,0E0,0E0,0E0,0E0,0E0,0E0,0E0],"parents":[2147483647,0,0,1,1,2,2,3,3,4,4,5,5,6,6,7,7,9,9,10,10,11,11,12,12,13,13,14,14],"right_children":[2,4,6,8,10,12,14,16,-1,18,20,22,24,26,28,-1,-1,-1,-1,-1,-1,-1,-1,-1,-1,-1,-1,-1,-1],"split_conditions":[5.119454E0,2.6865671E1,4.373178E0,3.125E-1,2.1818182E0,4.341534E0,8.053691E0,1.25E0,6.1286338E-2,4.597701E0,5.257143E0,1.1583012E1,8.486563E0,6.3626724E1,4.1666668E1,1.0074068E-1,1.8133956E-1,6.115927E-2,3.4850633E-3,2.0237463E-3,-1.5680525E-1,-4.7770724E-2,2.9800747E-2,-1.5167421E-1,-1.8433854E-2,-9.293752E-2,-1.694258E-1,-5.2325614E-2,3.642651E-2],"split_indices":[7,19,3,55,31,15,3,73,0,14,26,7,15,52,7,0,0,0,0,0,0,0,0,0,0,0,0,0,0],"split_type":[0,0,0,0,0,0,0,0,0,0,0,0,0,0,0,0,0,0,0,0,0,0,0,0,0,0,0,0,0],"sum_hessian":[1.69E3,4.77E2,1.213E3,5.9E1,4.18E2,7.43E2,4.7E2,5.2E1,7E0,4.03E2,1.5E1,5.44E2,1.99E2,8.4E1,3.86E2,1E1,4.2E1,2.77E2,1.26E2,5E0,1E1,8.3E1,4.61E2,4.4E1,1.55E2,3E1,5.4E1,3.26E2,6E1],"tree_param":{"num_deleted":"0","num_feature":"80","num_nodes":"29","size_leaf_vector":"1"}},{"base_weights":[1.4326157E-2,1.763913E0,-7.080973E-1,4.9762516E0,1.2177373E0,-1.0363349E0,1.6431911E0,5.5292873E0,2.888415E0,1.3405833E0,-2.245763E-1,-4.9941134E-1,-2.1463194E0,6.68107E-1,2.8134735E0,7.616976E-2,1.7524767E-1,1.1815406E-1,2.4342427E-2,6.773572E-2,9.562416E-3,-2.421136E-2,5.4435268E-2,-1.317365E-1,-2.8911995E-2,1.0658506E-1,3.4042615E-3,4.739114E-2,1.2215585E-1],"categories":[],"categories_nodes":[],"categories_segments":[],"categories_sizes":[],"default_left":[0,0,0,0,0,0,0,0,0,0,0,0,0,0,0,0,0,0,0,0,0,0,0,0,0,0,0,0,0],"id":8,"left_children":[1,3,5,7,9,11,13,15,17,19,-1,21,23,25,27,-1,-1,-1,-1,-1,-1,-1,-1,-1,-1,-1,-1,-1,-1],"loss_changes":[2.1235144E3,8.5478076E2,9.192901E2,6.516724E1,4.5955597E2,6.208633E2,1.6437619E2,3.569336E1,3.340564E1,3.8894092E2,0E0,5.0321115E2,8.9785925E2,1.2882709E2,9.54715E1,0E0,0E0,0E0,0E0,0E0,0E0,0E0,0E0,0E0,0E0,0E0,0E0,0E0,0E0],"parents":[2147483647,0,0,1,1,2,2,3,3,4,4,5,5,6,6,7,7,8,8,9,9,11,11,12,12,13,13,14,14],"right_children":[2,4,6,8,10,12,14,16,18,20,-1,22,24,26,28,-1,-1,-1,-1,-1,-1,-1,-1,-1,-1,-1,-1,-1,-1],"split_conditions":[5.05476E0,2.8985508E1,2.0496895E2,6.5217394E-1,5.633803E0,4.6403713E0,2.3233301E1,8.703704E0,3.0243046E0,4.521477E0,-2.245763E-1,4.6753246E1,1.058201E1,1.9112657E0,2.25E1,7.616976E-2,1.7524767E-1,1.1815406E-1,2.4342427E-2,6.773572E-2,9.562416E-3,-2.421136E-2,5.4435268E-2,-1.317365E-1,-2.8911995E-2,1.0658506E-1,3.4042615E-3,4.739114E-2,1.2215585E-1],"split_indices":[1,19,18,67,9,25,9,30,10,2,0,9,25,62,46,0,0,0,0,0,0,0,0,0,0,0,0,0,0],"split_type":[0,0,0,0,0,0,0,0,0,0,0,0,0,0,0,0,0,0,0,0,0,0,0,0,0,0,0,0,0],"sum_hessian":[1.678E3,4.9E2,1.188E3,7E1,4.2E2,1.043E3,1.45E2,5.4E1,1.6E1,4.15E2,5E0,7.04E2,3.39E2,8E1,6.5E1,6E0,4.8E1,1E1,6E0,2.18E2,1.97E2,6.22E2,8.2E1,1.16E2,2.23E2,1.2E1,6.8E1,3.4E1,3.1E1],"tree_param":{"num_deleted":"0","num_feature":"80","num_nodes":"29","size_leaf_vector":"1"}},{"base_weights":[-3.490113E-2,4.6864123E0,-2.9940826E-1,4.992224E0,4.308776E-2,7.18962E-1,-1.2378578E0,5.561971E-2,5.175387E0,2.095858E0,9.897616E-2,-3.9091434E0,-7.995969E-1,1.61582E-1,7.035181E-2,7.557162E-2,-1.6652841E-2,-1.4816634E-1,9.935517E-3,-1.761504E-1,-8.70491E-2,-1.1990356E-2,-7.353258E-2],"categories":[],"categories_nodes":[],"categories_segments":[],"categories_sizes":[],"default_left":[0,0,0,0,0,0,0,0,0,0,0,0,0,0,0,0,0,0,0,0,0,0,0],"id":9,"left_children":[1,3,5,7,-1,9,11,-1,13,15,17,19,21,-1,-1,-1,-1,-1,-1,-1,-1,-1,-1],"loss_changes":[2.0715098E3,7.9653564E1,1.5023296E3,3.568628E1,0E0,6.4322974E2,9.5405237E2,0E0,3.1318115E1,2.641129E2,6.106557E2,2.0947095E2,4.636997E2,0E0,0E0,0E0,0E0,0E0,0E0,0E0,0E0,0E0,0E0],"parents":[2147483647,0,0,1,1,2,2,3,3,5,5,6,6,8,8,9,9,10,10,11,11,12,12],"right_children":[2,4,6,8,-1,10,12,-1,14,16,18,20,22,-1,-1,-1,-1,-1,-1,-1,-1,-1,-1],"split_conditions":[2.6865671E1,6.388889E0,4.521477E0,3.65E0,4.308776E-2,5.119454E0,8.633094E0,5.561971E-2,3.3448277E0,4.375E-1,8.1081085E0,9.202454E0,6.2941175E0,1.61582E-1,7.035181E-2,7.557162E-2,-1.6652841E-2,-1.4816634E-1,9.935517E-3,-1.761504E-1,-8.70491E-2,-1.1990356E-2,-7.353258E-2],"split_indices":[19,64,2,70,0,7,2,0,48,35,7,6,26,0,0,0,0,0,0,0,0,0,0],"split_type":[0,0,0,0,0,0,0,0,0,0,0,0,0,0,0,0,0,0,0,0,0,0,0],"sum_hessian":[1.657E3,8.7E1,1.57E3,7.9E1,8E0,7.53E2,8.17E2,5E0,7.4E1,2.33E2,5.2E2,1.14E2,7.03E2,6.8E1,6E0,2.01E2,3.2E1,2.2E1,4.98E2,3.7E1,7.7E1,5.67E2,1.36E2],"tree_param":{"num_deleted":"0","num_feature":"80","num_nodes":"23","size_leaf_vector":"1"}},{"base_weights":[3.3637616E-3,1.6764351E0,-6.6606444E-1,3.447639E0,7.542679E-1,-1.1565195E0,8.4923047E-1,4.147071E0,1.5191935E0,-2.6465142E0,1.0697241E0,-4.413684E-1,-2.1536283E0,1.4644649E0,-5.2468795E-1,1.4465821E-2,1.3657932E-1,-4.4551563E-2,7.268509E-2,-1.1999632E-1,-9.158098E-3,6.1406426E-2,8.712871E-3,9.2171505E-3,-5.6478582E-2,-1.6255756E-1,-4.474141E-2,7.722661E-2,1.6464602E-2,-6.4639084E-2,3.343478E-2],"categories":[],"categories_nodes":[],"categories_segments":[],"categories_sizes":[],"default_left":[0,0,0,0,0,0,0,0,0,0,0,0,0,0,0,0,0,0,0,0,0,0,0,0,0,0,0,0,0,0,0],"id":10,"left_children":[1,3,5,7,9,11,13,15,17,19,21,23,25,27,29,-1,-1,-1,-1,-1,-1,-1,-1,-1,-1,-1,-1,-1,-1,-1,-1],"loss_changes":[1.8693794E3,7.760856E2,8.868883E2,2.1299036E2,3.4060468E2,6.412783E2,2.4768468E2,1.7418005E2,1.2585629E2,8.389937E1,2.1924341E2,5.682533E2,8.0421936E2,2.0353561E2,2.4563727E2,0E0,0E0,0E0,0E0,0E0,0E0,0E0,0E0,0E0,0E0,0E0,0E0,0E0,0E0,0E0,0E0],"parents":[2147483647,0,0,1,1,2,2,3,3,4,4,5,5,6,6,7,7,8,8,9,9,10,10,11,11,12,12,13,13,14,14],"right_children":[2,4,6,8,10,12,14,16,18,20,22,24,26,28,30,-1,-1,-1,-1,-1,-1,-1,-1,-1,-1,-1,-1,-1,-1,-1,-1],"split_conditions":[5.05476E0,4.487659E0,1.6129033E2,5.119454E0,9.33126E0,4.373178E0,4.597701E0,1.5389798E1,2.1E0,1.1076923E1,4.521477E0,4.418262E0,7.594937E0,4.930156E0,1.869159E1,1.4465821E-2,1.3657932E-1,-4.4551563E-2,7.268509E-2,-1.1999632E-1,-9.158098E-3,6.1406426E-2,8.712871E-3,9.2171505E-3,-5.6478582E-2,-1.6255756E-1,-4.474141E-2,7.722661E-2,1.6464602E-2,-6.4639084E-2,3.343478E-2],"split_indices":[1,0,18,4,0,3,14,63,40,22,2,16,3,21,14,0,0,0,0,0,0,0,0,0,0,0,0,0,0,0,0],"split_type":[0,0,0,0,0,0,0,0,0,0,0,0,0,0,0,0,0,0,0,0,0,0,0,0,0,0,0,0,0,0,0],"sum_hessian":[1.667E3,4.76E2,1.191E3,1.62E2,3.14E2,9E2,2.91E2,1.18E2,4.4E1,2.6E1,2.88E2,5.25E2,3.75E2,2.01E2,9E1,1.2E1,1.06E2,1E1,3.4E1,1.6E1,1E1,1.27E2,1.61E2,3.46E2,1.79E2,6.2E1,3.13E2,9E1,1.11E2,4.5E1,4.5E1],"tree_param":{"num_deleted":"0","num_feature":"80","num_nodes":"31","size_leaf_vector":"1"}},{"base_weights":[-1.4677434E-2,4.378865E0,-2.9124832E-1,4.568584E0,3.655414E-2,1.1718633E0,-8.357622E-1,4.8383455E0,2.336164E0,1.813486E0,-1.8424122E-1,-1.1969678E0,1.8800677E0,1.1460596E-1,1.6332096E-1,2.4749061E-2,9.850352E-2,7.7824764E-2,1.461663E-3,-1.6083556E-1,1.0516697E-2,-1.112924E-1,-2.659955E-2,6.6498935E-2,-1.7417595E-2],"categories":[],"categories_nodes":[],"categories_segments":[],"categories_sizes":[],"default_left":[0,0,0,0,0,0,0,0,0,0,0,0,0,0,0,0,0,0,0,0,0,0,0,0,0],"id":11,"left_children":[1,3,5,7,-1,9,11,13,15,17,19,21,23,-1,-1,-1,-1,-1,-1,-1,-1,-1,-1,-1,-1],"loss_changes":[2.0313418E3,5.3213623E1,1.2541306E3,4.3986084E1,0E0,3.720329E2,1.127358E3,2.8843872E1,1.4058838E1,3.9914337E2,3.844498E2,7.861438E2,1.1325305E2,0E0,0E0,0E0,0E0,0E0,0E0,0E0,0E0,0E0,0E0,0E0,0E0],"parents":[2147483647,0,0,1,1,2,2,3,3,5,5,6,6,7,7,8,8,9,9,10,10,11,11,12,12],"right_children":[2,4,6,8,-1,10,12,14,16,18,20,22,24,-1,-1,-1,-1,-1,-1,-1,-1,-1,-1,-1,-1],"split_conditions":[3.187251E1,3.445E1,4.487659E0,1.19E1,3.655414E-2,4.8115478E0,4.9586777E1,1.4975E0,2.588294E0,4.373178E0,6.5789475E0,9.202454E0,1.6875E0,1.1460596E-1,1.6332096E-1,2.4749061E-2,9.850352E-2,7.7824764E-2,1.461663E-3,-1.6083556E-1,1.0516697E-2,-1.112924E-1,-2.659955E-2,6.6498935E-2,-1.7417595E-2],"split_indices":[19,66,0,45,0,16,7,32,62,3,16,7,31,0,0,0,0,0,0,0,0,0,0,0,0],"split_type":[0,0,0,0,0,0,0,0,0,0,0,0,0,0,0,0,0,0,0,0,0,0,0,0,0],"sum_hessian":[1.67E3,9.8E1,1.572E3,9.2E1,6E0,4.26E2,1.146E3,8.1E1,1.1E1,2.89E2,1.37E2,1.012E3,1.34E2,3.3E1,4.8E1,5E0,6E0,2E2,8.9E1,1.2E1,1.25E2,1.1E2,9.02E2,1.18E2,1.6E1],"tree_param":{"num_deleted":"0","num_feature":"80","num_nodes":"25","size_leaf_vector":"1"}},{"base_weights":[8.819388E-2,1.7693384E0,-6.021144E-1,3.515674E0,8.214118E-1,-9.430573E-1,1.9307115E0,-1.1945901E0,3.847596E0,2.3742361E-1,2.701248E0,5.1497597E-1,-1.4664757E0,2.5656364E0,7.4013434E-2,-1.1006992E-1,5.62395E-2,1.3373932E-1,6.0725756E-2,-1.22934595E-1,1.4424102E-2,1.04444504E-1,1.9763855E-2,5.719959E-3,7.641211E-2,-5.2059617E-2,2.9230962E-2,9.96182E-2,3.0707803E-2,-3.215307E-2,3.6634907E-2],"categories":[],"categories_nodes":[],"categories_segments":[],"categories_sizes":[],"default_left":[0,0,0,0,0,0,0,0,0,0,0,0,0,0,0,0,0,0,0,0,0,0,0,0,0,0,0,0,0,0,0],"id":12,"left_children":[1,3,5,7,9,11,13,15,17,19,21,23,25,27,29,-1,-1,-1,-1,-1,-1,-1,-1,-1,-1,-1,-1,-1,-1,-1,-1],"loss_changes":[1.9415513E3,8.0285754E2,1.0258912E3,2.7220972E2,3.47068E2,7.9911725E2,1.6576587E2,9.8192116E1,1.6840356E2,2.5800043E2,1.1681195E2,1.8179187E2,5.0704663E2,1.1840723E2,4.9955975E1,0E0,0E0,0E0,0E0,0E0,0E0,0E0,0E0,0E0,0E0,0E0,0E0,0E0,0E0,0E0,0E0],"parents":[2147483647,0,0,1,1,2,2,3,3,4,4,5,5,6,6,7,7,8,8,9,9,10,10,11,11,12,12,13,13,14,14],"right_children":[2,4,6,8,10,12,14,16,18,20,22,24,26,28,30,-1,-1,-1,-1,-1,-1,-1,-1,-1,-1,-1,-1,-1,-1,-1,-1],"split_conditions":[5.05476E0,4.487659E0,4.528302E1,4.1328808E1,5.328597E1,4.487659E0,5.710159E0,2.36E1,5.119454E0,7.6923075E0,1.09E1,2.5E2,4.9586777E1,1.1254999E2,4.84E1,-1.1006992E-1,5.62395E-2,1.3373932E-1,6.0725756E-2,-1.22934595E-1,1.4424102E-2,1.04444504E-1,1.9763855E-2,5.719959E-3,7.641211E-2,-5.2059617E-2,2.9230962E-2,9.96182E-2,3.0707803E-2,-3.215307E-2,3.6634907E-2],"split_indices":[1,0,9,41,0,0,28,46,4,0,60,18,7,39,47,0,0,0,0,0,0,0,0,0,0,0,0,0,0,0,0],"split_type":[0,0,0,0,0,0,0,0,0,0,0,0,0,0,0,0,0,0,0,0,0,0,0,0,0,0,0,0,0,0,0],"sum_hessian":[1.671E3,4.86E2,1.185E3,1.7E2,3.16E2,1.045E3,1.4E2,1.1E1,1.59E2,2.42E2,7.4E1,2.76E2,7.69E2,1.04E2,3.6E1,6E0,5E0,1.18E2,4.1E1,1.2E1,2.3E2,5.3E1,2.1E1,2.39E2,3.7E1,6.93E2,7.6E1,6.9E1,3.5E1,1.8E1,1.8E1],"tree_param":{"num_deleted":"0","num_feature":"80","num_nodes":"31","size_leaf_vector":"1"}},{"base_weights":[5.1354305E-3,1.6428207E0,-6.523102E-1,3.2841792E0,7.883788E-1,2.5237095E-1,-1.4381319E0,-9.941341E-1,3.5968778E0,-3.2657857E0,1.0563618E0,8.51866E-1,-7.4277425E-1,-3.9901726E0,-1.0374765E0,-1.3331848E-1,6.271752E-2,1.22556806E-1,5.639765E-2,-5.7701122E-2,-1.8182576E-1,4.935832E-2,-1.0715816E-2,1.618759E-2,1.0197046E-1,-1.3122226E-1,-1.3261248E-2,-1.5734188E-1,-7.556247E-2,-1.4675206E-3,-5.1298883E-2],"categories":[],"categories_nodes":[],"categories_segments":[],"categories_sizes":[],"default_left":[0,0,0,0,0,0,0,0,0,0,0,0,0,0,0,0,0,0,0,0,0,0,0,0,0,0,0,0,0,0,0],"id":13,"left_children":[1,3,5,7,9,11,13,15,17,19,21,23,25,27,29,-1,-1,-1,-1,-1,-1,-1,-1,-1,-1,-1,-1,-1,-1,-1,-1],"loss_changes":[1.8153917E3,6.7438477E2,8.5571594E2,2.2457666E2,3.498056E2,3.3473105E2,6.5384033E2,1.3722629E2,1.2084851E2,6.258725E1,2.5045593E2,2.761701E2,2.2800754E2,1.4661401E2,3.706947E2,0E0,0E0,0E0,0E0,0E0,0E0,0E0,0E0,0E0,0E0,0E0,0E0,0E0,0E0,0E0,0E0],"parents":[2147483647,0,0,1,1,2,2,3,3,4,4,5,5,6,6,7,7,8,8,9,9,10,10,11,11,12,12,13,13,14,14],"right_children":[2,4,6,8,10,12,14,16,18,20,22,24,26,28,30,-1,-1,-1,-1,-1,-1,-1,-1,-1,-1,-1,-1,-1,-1,-1,-1],"split_conditions":[5.05476E0,5.119454E0,5.249344E0,4.1328808E1,8.915304E0,4.597701E0,8.141112E0,1.6436663E1,5.119454E0,8.862629E0,4.373178E0,4.528302E1,7.894737E0,1.1214953E1,4.6332045E0,-1.3331848E-1,6.271752E-2,1.22556806E-1,5.639765E-2,-5.7701122E-2,-1.8182576E-1,4.935832E-2,-1.0715816E-2,1.618759E-2,1.0197046E-1,-1.3122226E-1,-1.3261248E-2,-1.5734188E-1,-7.556247E-2,-1.4675206E-3,-5.1298883E-2],"split_indices":[1,7,6,41,7,14,2,51,4,15,3,9,14,6,23,0,0,0,0,0,0,0,0,0,0,0,0,0,0,0,0],"split_type":[0,0,0,0,0,0,0,0,0,0,0,0,0,0,0,0,0,0,0,0,0,0,0,0,0,0,0,0,0,0,0],"sum_hessian":[1.684E3,4.82E2,1.202E3,1.64E2,3.18E2,5.59E2,6.43E2,1.1E1,1.53E2,1.9E1,2.99E2,3.49E2,2.1E2,8.6E1,5.57E2,5E0,6E0,1.18E2,3.5E1,1.4E1,5E0,2.11E2,8.8E1,3.12E2,3.7E1,1.5E1,1.95E2,4.5E1,4.1E1,2.26E2,3.31E2],"tree_param":{"num_deleted":"0","num_feature":"80","num_nodes":"31","size_leaf_vector":"1"}},{"base_weights":[4.6392202E-2,4.0525985E0,-1.9999231E-1,4.487625E0,2.1483638E0,6.7216605E-1,-1.0020018E0,5.398624E-2,4.810715E0,3.273264E0,1.180667E-3,1.0881212E0,-8.591022E-1,-2.6279645E0,-4.3244094E-1,1.5166539E-1,4.14326E-2,5.7849105E-2,1.2408989E-1,7.085562E-2,1.7685486E-2,-1.4051212E-1,1.3457538E-3,-4.549382E-2,-1.04771264E-1,-3.6741695E-3,-9.655534E-2],"categories":[],"categories_nodes":[],"categories_segments":[],"categories_sizes":[],"default_left":[0,0,0,0,0,0,0,0,0,0,0,0,0,0,0,0,0,0,0,0,0,0,0,0,0,0,0],"id":14,"left_children":[1,3,5,7,9,11,13,-1,15,17,-1,19,21,23,25,-1,-1,-1,-1,-1,-1,-1,-1,-1,-1,-1,-1],"loss_changes":[1.6525592E3,7.004944E1,1.1037853E3,5.842444E1,4.6988388E1,4.824835E2,7.597991E2,0E0,5.030432E1,6.5076904E0,0E0,3.7619086E2,5.607598E2,1.9885266E2,5.260643E2,0E0,0E0,0E0,0E0,0E0,0E0,0E0,0E0,0E0,0E0,0E0,0E0],"parents":[2147483647,0,0,1,1,2,2,3,3,4,4,5,5,6,6,8,8,9,9,11,11,12,12,13,13,14,14],"right_children":[2,4,6,8,10,12,14,-1,16,18,-1,20,22,24,26,-1,-1,-1,-1,-1,-1,-1,-1,-1,-1,-1,-1],"split_conditions":[2.8985508E1,3.5E-1,5.249344E0,4.2753952E1,3.05E0,4.341534E0,1.1152416E1,5.398624E-2,1.632653E1,1.6285714E0,1.180667E-3,5.633803E0,8.928572E0,1.0771993E1,1.3416667E1,1.5166539E-1,4.14326E-2,5.7849105E-2,1.2408989E-1,7.085562E-2,1.7685486E-2,-1.4051212E-1,1.3457538E-3,-4.549382E-2,-1.04771264E-1,-3.6741695E-3,-9.655534E-2],"split_indices":[19,35,6,41,69,12,6,0,11,72,0,9,24,1,8,0,0,0,0,0,0,0,0,0,0,0,0],"split_type":[0,0,0,0,0,0,0,0,0,0,0,0,0,0,0,0,0,0,0,0,0,0,0,0,0,0,0],"sum_hessian":[1.672E3,9.6E1,1.576E3,7.7E1,1.9E1,7.55E2,8.21E2,9E0,6.8E1,1.2E1,7E0,5.94E2,1.61E2,2.12E2,6.09E2,6.3E1,5E0,6E0,6E0,1.66E2,4.28E2,3E1,1.31E2,9.4E1,1.18E2,5.49E2,6E1],"tree_param":{"num_deleted":"0","num_feature":"80","num_nodes":"27","size_leaf_vector":"1"}},{"base_weights":[-6.754339E-2,1.3672336E0,-6.5949106E-1,2.491589E0,-3.8860295E-2,-3.3721297E0,-3.562605E-1,3.77279E0,1.3746696E0,-4.2776513E0,4.0590706E-1,-4.9563527E0,-1.7036339E0,-6.8921477E-1,1.5676908E0,1.2109154E-1,-1.9206928E-2,6.2086765E-2,-8.0114044E-4,-1.8636674E-1,-4.5551956E-2,1.8625576E-2,-1.2640758E-1,-1.9079296E-1,-1.2503015E-1,-3.5733636E-2,-9.886143E-2,-2.703832E-3,-5.842394E-2,6.763255E-2,1.8421922E-2],"categories":[],"categories_nodes":[],"categories_segments":[],"categories_sizes":[],"default_left":[0,0,0,0,0,0,0,0,0,0,0,0,0,0,0,0,0,0,0,0,0,0,0,0,0,0,0,0,0,0,0],"id":15,"left_children":[1,3,5,7,9,11,13,15,17,19,21,23,25,27,29,-1,-1,-1,-1,-1,-1,-1,-1,-1,-1,-1,-1,-1,-1,-1,-1],"loss_changes":[1.4336218E3,7.797502E2,9.813791E2,3.8639246E2,4.1688422E2,3.0808252E2,6.902651E2,1.5065662E2,1.4438196E2,1.01891815E2,2.0084454E2,3.9959473E1,4.4573593E1,6.9161035E2,1.0245499E2,0E0,0E0,0E0,0E0,0E0,0E0,0E0,0E0,0E0,0E0,0E0,0E0,0E0,0E0,0E0,0E0],"parents":[2147483647,0,0,1,1,2,2,3,3,4,4,5,5,6,6,7,7,8,8,9,9,10,10,11,11,12,12,13,13,14,14],"right_children":[2,4,6,8,10,12,14,16,18,20,22,24,26,28,30,-1,-1,-1,-1,-1,-1,-1,-1,-1,-1,-1,-1,-1,-1,-1,-1],"split_conditions":[4.487659E0,5.119454E0,8.253095E0,5.05476E0,8.823529E0,1.1059908E1,5.3932583E1,1.36E1,4.373178E0,1.2363636E2,7.486E0,7.5471697E0,1.153125E1,4.341534E0,4.1899443E0,1.2109154E-1,-1.9206928E-2,6.2086765E-2,-8.0114044E-4,-1.8636674E-1,-4.5551956E-2,1.8625576E-2,-1.2640758E-1,-1.9079296E-1,-1.2503015E-1,-3.5733636E-2,-9.886143E-2,-2.703832E-3,-5.842394E-2,6.763255E-2,1.8421922E-2],"split_indices":[0,4,0,1,4,7,0,45,3,52,76,7,30,12,34,0,0,0,0,0,0,0,0,0,0,0,0,0,0,0,0],"split_type":[0,0,0,0,0,0,0,0,0,0,0,0,0,0,0,0,0,0,0,0,0,0,0,0,0,0,0,0,0,0,0],"sum_hessian":[1.686E3,4.92E2,1.194E3,2.73E2,2.19E2,1.19E2,1.075E3,1.26E2,1.47E2,2E1,1.99E2,6E1,5.9E1,9.17E2,1.58E2,1.19E2,7E0,9.8E1,4.9E1,1.1E1,9E0,1.91E2,8E0,1.9E1,4.1E1,4.6E1,1.3E1,6.22E2,2.95E2,9.1E1,6.7E1],"tree_param":{"num_deleted":"0","num_feature":"80","num_nodes":"31","size_leaf_vector":"1"}},{"base_weights":[-6.69157E-2,6.750838E-1,-1.2637792E0,1.521865E0,-3.6893305E-1,-3.2351563E0,-3.587957E-1,4.228701E0,1.1728444E0,-2.3043861E0,4.900852E-1,-4.408663E0,-2.1198504E0,1.2522599E0,-8.7550205E-1,1.4077492E-1,5.4586273E-2,7.179257E-2,1.9625377E-2,-1.7404929E-1,-5.7999317E-2,-7.512644E-3,4.338625E-2,-1.4433879E-1,-4.380693E-2,-1.1563841E-1,-3.773559E-2,6.326512E-2,-2.3740554E-2,-1.1988273E-1,-1.5799798E-2],"categories":[],"categories_nodes":[],"categories_segments":[],"categories_sizes":[],"default_left":[0,0,0,0,0,0,0,0,0,0,0,0,0,0,0,0,0,0,0,0,0,0,0,0,0,0,0,0,0,0,0],"id":16,"left_children":[1,3,5,7,9,11,13,15,17,19,21,23,25,27,29,-1,-1,-1,-1,-1,-1,-1,-1,-1,-1,-1,-1,-1,-1,-1,-1],"loss_changes":[1.4688953E3,9.032957E2,1.1277924E3,5.273346E2,7.6277673E2,2.504563E2,3.631712E2,6.232141E1,3.1521106E2,1.7099237E2,2.2563068E2,1.0631152E2,1.501578E2,1.8735486E2,3.5667874E2,0E0,0E0,0E0,0E0,0E0,0E0,0E0,0E0,0E0,0E0,0E0,0E0,0E0,0E0,0E0,0E0],"parents":[2147483647,0,0,1,1,2,2,3,3,4,4,5,5,6,6,7,7,8,8,9,9,10,10,11,11,12,12,13,13,14,14],"right_children":[2,4,6,8,10,12,14,16,18,20,22,24,26,28,30,-1,-1,-1,-1,-1,-1,-1,-1,-1,-1,-1,-1,-1,-1,-1,-1],"split_conditions":[4.373178E0,5.119454E0,9.375E0,2.8985508E1,1.2170385E1,7.6923075E0,5.119454E0,1.1666667E1,4.487659E0,6.1538463E0,2.6431719E1,3.97351E1,1.0322581E2,5.717949E0,8.253095E0,1.4077492E-1,5.4586273E-2,7.179257E-2,1.9625377E-2,-1.7404929E-1,-5.7999317E-2,-7.512644E-3,4.338625E-2,-1.4433879E-1,-4.380693E-2,-1.1563841E-1,-3.773559E-2,6.326512E-2,-2.3740554E-2,-1.1988273E-1,-1.5799798E-2],"split_indices":[3,4,3,19,4,3,7,45,0,4,4,4,19,26,0,0,0,0,0,0,0,0,0,0,0,0,0,0,0,0,0],"split_type":[0,0,0,0,0,0,0,0,0,0,0,0,0,0,0,0,0,0,0,0,0,0,0,0,0,0,0,0,0,0,0],"sum_hessian":[1.652E3,1.02E3,6.32E2,5.63E2,4.57E2,1.98E2,4.34E2,6.3E1,5E2,1.4E2,3.17E2,9.5E1,1.03E2,1.05E2,3.29E2,5.2E1,1.1E1,1.48E2,3.52E2,1.2E1,1.28E2,1.79E2,1.38E2,8.3E1,1.2E1,3.3E1,7E1,7.4E1,3.1E1,3.2E1,2.97E2],"tree_param":{"num_deleted":"0","num_feature":"80","num_nodes":"31","size_leaf_vector":"1"}},{"base_weights":[7.708257E-2,4.0629663E0,-1.3561839E-1,4.571409E0,2.3151894E0,5.33155E-1,-1.2164837E0,6.0159523E-2,4.849608E0,2.9918962E0,3.2431907E-3,1.4302219E0,-3.3936575E-1,-4.0899343E0,-6.4260393E-1,1.5429933E-1,7.185785E-2,1.0775016E-1,4.130971E-2,7.340082E-2,2.3860088E-2,-7.624998E-2,4.121862E-3,-6.651068E-2,-1.3675402E-1,-2.7207205E-2,6.610763E-2],"categories":[],"categories_nodes":[],"categories_segments":[],"categories_sizes":[],"default_left":[0,0,0,0,0,0,0,0,0,0,0,0,0,0,0,0,0,0,0,0,0,0,0,0,0,0,0],"id":17,"left_children":[1,3,5,7,9,11,13,-1,15,17,-1,19,21,23,25,-1,-1,-1,-1,-1,-1,-1,-1,-1,-1,-1,-1],"loss_changes":[1.4057505E3,6.337378E1,1.1384891E3,3.5278076E1,3.0731071E1,7.621708E2,9.896055E2,0E0,2.8015015E1,1.0054749E1,0E0,3.074947E2,5.1927545E2,7.696838E1,3.802539E2,0E0,0E0,0E0,0E0,0E0,0E0,0E0,0E0,0E0,0E0,0E0,0E0],"parents":[2147483647,0,0,1,1,2,2,3,3,4,4,5,5,6,6,8,8,9,9,11,11,12,12,13,13,14,14],"right_children":[2,4,6,8,10,12,14,-1,16,18,-1,20,22,24,26,-1,-1,-1,-1,-1,-1,-1,-1,-1,-1,-1,-1],"split_conditions":[2.6865671E1,3.2258064E-1,4.373178E0,1.155E1,5.712E0,4.521477E0,8.053691E0,6.0159523E-2,1.8409091E0,4.86E1,3.2431907E-3,5.633803E0,9.966778E0,1.3076923E1,2.3809525E2,1.5429933E-1,7.185785E-2,1.0775016E-1,4.130971E-2,7.340082E-2,2.3860088E-2,-7.624998E-2,4.121862E-3,-6.651068E-2,-1.3675402E-1,-2.7207205E-2,6.610763E-2],"split_indices":[19,35,3,57,76,2,3,0,72,13,0,9,2,57,18,0,0,0,0,0,0,0,0,0,0,0,0],"split_type":[0,0,0,0,0,0,0,0,0,0,0,0,0,0,0,0,0,0,0,0,0,0,0,0,0,0,0],"sum_hessian":[1.656E3,8.3E1,1.573E3,6.3E1,2E1,9.72E2,6.01E2,7E0,5.6E1,1.5E1,5E0,4.79E2,4.93E2,9.9E1,5.02E2,4.9E1,7E0,1E1,5E0,1.83E2,2.96E2,8.7E1,4.06E2,2.1E1,7.8E1,4.6E2,4.2E1],"tree_param":{"num_deleted":"0","num_feature":"80","num_nodes":"27","size_leaf_vector":"1"}},{"base_weights":[-8.642079E-3,6.825123E-1,-1.2001656E0,1.8883252E0,5.5337034E-2,-3.9607399E0,-6.348055E-1,2.6579993E0,7.01523E-1,-2.2263372E-1,2.193861E0,-3.3944018E0,-2.2177012E-1,3.7252563E-1,-1.6879826E0,-5.1817495E-2,8.75558E-2,-9.3742885E-2,4.1265875E-2,2.976864E-2,-2.0099025E-2,7.7282995E-2,-3.4175143E-2,-1.3448411E-1,-7.7366404E-2,1.3348094E-1,5.318702E-3,-6.3319206E-2,2.0157987E-2],"categories":[],"categories_nodes":[],"categories_segments":[],"categories_sizes":[],"default_left":[0,0,0,0,0,0,0,0,0,0,0,0,0,0,0,0,0,0,0,0,0,0,0,0,0,0,0,0,0],"id":18,"left_children":[1,3,5,7,9,11,13,15,17,19,21,23,-1,25,27,-1,-1,-1,-1,-1,-1,-1,-1,-1,-1,-1,-1,-1,-1],"loss_changes":[1.3885135E3,8.066262E2,9.631109E2,3.312091E2,4.185819E2,1.778905E2,5.471229E2,2.576477E2,3.7806967E2,3.3921786E2,1.062735E2,6.93938E1,0E0,2.0887773E2,2.5291602E2,0E0,0E0,0E0,0E0,0E0,0E0,0E0,0E0,0E0,0E0,0E0,0E0,0E0,0E0],"parents":[2147483647,0,0,1,1,2,2,3,3,4,4,5,5,6,6,7,7,8,8,9,9,10,10,11,11,13,13,14,14],"right_children":[2,4,6,8,10,12,14,16,18,20,22,24,-1,26,28,-1,-1,-1,-1,-1,-1,-1,-1,-1,-1,-1,-1,-1,-1],"split_conditions":[4.373178E0,5.05476E0,8.053691E0,4.9261084E0,4.8E1,1.2720848E2,4.597701E0,4.4444447E0,9.6E0,4.487659E0,1.5246596E2,6.451613E0,-2.2177012E-1,3.508772E1,2.4640657E1,-5.1817495E-2,8.75558E-2,-9.3742885E-2,4.1265875E-2,2.976864E-2,-2.0099025E-2,7.7282995E-2,-3.4175143E-2,-1.3448411E-1,-7.7366404E-2,1.3348094E-1,5.318702E-3,-6.3319206E-2,2.0157987E-2],"split_indices":[3,1,3,11,9,52,14,79,11,0,20,3,0,19,3,0,0,0,0,0,0,0,0,0,0,0,0,0,0],"split_type":[0,0,0,0,0,0,0,0,0,0,0,0,0,0,0,0,0,0,0,0,0,0,0,0,0,0,0,0,0],"sum_hessian":[1.684E3,1.066E3,6.18E2,3.64E2,7.02E2,1.04E2,5.14E2,2.2E2,1.44E2,6.22E2,8E1,9.1E1,1.3E1,2.63E2,2.51E2,1.2E1,2.08E2,2.1E1,1.23E2,1.67E2,4.55E2,7.2E1,8E0,3.7E1,5.4E1,1.1E1,2.52E2,2.13E2,3.8E1],"tree_param":{"num_deleted":"0","num_feature":"80","num_nodes":"29","size_leaf_vector":"1"}},{"base_weights":[-4.9627196E-2,3.7155805E0,-2.5343978E-1,4.2050257E0,2.2718043E0,5.85261E-1,-1.0173602E0,2.3808815E0,4.5023947E0,-0E0,3.0260909E0,1.1936533E0,-4.8727414E-1,-3.5741436E0,-7.329197E-1,4.0173177E-2,9.02753E-2,8.276389E-2,1.4992781E-1,1.0809751E-1,4.7702692E-2,6.7849666E-2,1.8706948E-2,-7.802563E-2,6.9843824E-3,-1.8076308E-1,-8.403259E-2,-1.3574153E-2,-8.9399494E-2],"categories":[],"categories_nodes":[],"categories_segments":[],"categories_sizes":[],"default_left":[0,0,0,0,0,0,0,0,0,0,0,0,0,0,0,0,0,0,0,0,0,0,0,0,0,0,0,0,0],"id":19,"left_children":[1,3,5,7,9,11,13,15,17,-1,19,21,23,25,27,-1,-1,-1,-1,-1,-1,-1,-1,-1,-1,-1,-1,-1,-1],"loss_changes":[1.2852177E3,5.0571167E1,1.0187119E3,2.2765991E1,4.0963753E1,4.952641E2,6.0202405E2,2.7355385E0,3.1198853E1,0E0,8.669617E0,2.9298737E2,4.1938174E2,1.3952368E2,4.7094653E2,0E0,0E0,0E0,0E0,0E0,0E0,0E0,0E0,0E0,0E0,0E0,0E0,0E0,0E0],"parents":[2147483647,0,0,1,1,2,2,3,3,4,4,5,5,6,6,7,7,8,8,10,10,11,11,12,12,13,13,14,14],"right_children":[2,4,6,8,10,12,14,16,18,-1,20,22,24,26,28,-1,-1,-1,-1,-1,-1,-1,-1,-1,-1,-1,-1,-1,-1],"split_conditions":[2.7906977E1,1.6666666E0,4.521477E0,2.025E1,6.4444447E0,4.373178E0,7.8226857E0,5.0569563E0,1.37E0,-0E0,1.39375E1,5.05476E0,9.090909E0,8.849558E0,1.2875E1,4.0173177E-2,9.02753E-2,8.276389E-2,1.4992781E-1,1.0809751E-1,4.7702692E-2,6.7849666E-2,1.8706948E-2,-7.802563E-2,6.9843824E-3,-1.8076308E-1,-8.403259E-2,-1.3574153E-2,-8.9399494E-2],"split_indices":[19,29,2,46,79,3,2,28,32,0,57,1,3,6,8,0,0,0,0,0,0,0,0,0,0,0,0,0,0],"split_type":[0,0,0,0,0,0,0,0,0,0,0,0,0,0,0,0,0,0,0,0,0,0,0,0,0,0,0,0,0],"sum_hessian":[1.673E3,8.5E1,1.588E3,6.2E1,2.3E1,7.57E2,8.31E2,1E1,5.2E1,6E0,1.7E1,4.83E2,2.74E2,8.2E1,7.49E2,5E0,5E0,1.3E1,3.9E1,1.1E1,6E0,1.67E2,3.16E2,6.9E1,2.05E2,1.8E1,6.4E1,6.67E2,8.2E1],"tree_param":{"num_deleted":"0","num_feature":"80","num_nodes":"29","size_leaf_vector":"1"}},{"base_weights":[4.66606E-3,8.982896E-1,-8.8465524E-1,2.396045E0,2.3290342E-1,-1.5655123E0,9.659513E-1,4.278889E0,1.8952296E0,-2.6020687E0,5.7759035E-1,-4.4670734E0,-1.1608053E0,5.9410447E-1,2.950512E0,7.6421335E-2,1.4814836E-1,-2.85514E-2,6.560984E-2,-1.10768735E-1,-3.72022E-2,3.7803862E-3,5.8542784E-2,-2.0053497E-1,-1.12880535E-1,-9.312622E-2,-2.6520498E-2,3.941968E-2,-1.4349263E-2,1.3392602E-1,6.010477E-2],"categories":[],"categories_nodes":[],"categories_segments":[],"categories_sizes":[],"default_left":[0,0,0,0,0,0,0,0,0,0,0,0,0,0,0,0,0,0,0,0,0,0,0,0,0,0,0,0,0,0,0],"id":20,"left_children":[1,3,5,7,9,11,13,15,17,19,21,23,25,27,29,-1,-1,-1,-1,-1,-1,-1,-1,-1,-1,-1,-1,-1,-1,-1,-1],"loss_changes":[1.3526122E3,8.452804E2,1.0763511E3,2.3738501E2,5.768582E2,7.2700354E2,1.6762173E2,4.8325745E1,1.7497772E2,8.9960266E1,3.2587317E2,9.2510376E1,2.9217065E2,1.5125482E2,4.2014984E1,0E0,0E0,0E0,0E0,0E0,0E0,0E0,0E0,0E0,0E0,0E0,0E0,0E0,0E0,0E0,0E0],"parents":[2147483647,0,0,1,1,2,2,3,3,4,4,5,5,6,6,7,7,8,8,9,9,10,10,11,11,12,12,13,13,14,14],"right_children":[2,4,6,8,10,12,14,16,18,20,22,24,26,28,30,-1,-1,-1,-1,-1,-1,-1,-1,-1,-1,-1,-1,-1,-1,-1,-1],"split_conditions":[5.119454E0,4.487659E0,2.3529411E1,3.1290743E1,9.708738E0,7.594937E0,2.232558E1,8.166537E0,6.1538464E-1,1.5047021E2,4.897959E1,7.290401E0,7.3619633E0,6.3626723E0,4.7619048E-1,7.6421335E-2,1.4814836E-1,-2.85514E-2,6.560984E-2,-1.10768735E-1,-3.72022E-2,3.7803862E-3,5.8542784E-2,-2.0053497E-1,-1.12880535E-1,-9.312622E-2,-2.6520498E-2,3.941968E-2,-1.4349263E-2,1.3392602E-1,6.010477E-2],"split_indices":[4,0,21,52,0,4,23,74,75,19,0,21,21,14,67,0,0,0,0,0,0,0,0,0,0,0,0,0,0,0,0],"split_type":[0,0,0,0,0,0,0,0,0,0,0,0,0,0,0,0,0,0,0,0,0,0,0,0,0,0,0,0,0,0,0],"sum_hessian":[1.7E3,8.48E2,8.52E2,2.6E2,5.88E2,6.23E2,2.29E2,5.3E1,2.07E2,6.3E1,5.25E2,7.5E1,5.48E2,1.94E2,3.5E1,1.6E1,3.7E1,1.9E1,1.88E2,3.4E1,2.9E1,3.96E2,1.29E2,1.6E1,5.9E1,6.7E1,4.81E2,1.16E2,7.8E1,1.2E1,2.3E1],"tree_param":{"num_deleted":"0","num_feature":"80","num_nodes":"31","size_leaf_vector":"1"}},{"base_weights":[-2.6271963E-3,7.748513E-1,-1.0219318E0,1.4331338E0,-4.777367E-1,-3.0794392E0,-2.6179376E-1,2.6028044E0,7.310011E-1,-3.1551433E0,1.4307277E-1,-4.8976655E0,-2.3706024E0,-8.676016E-1,1.456552E0,1.0393581E-1,4.4741303E-2,-4.978953E-3,5.3667165E-2,1.8132275E-2,-1.0711593E-1,-1.3970767E-2,4.5203224E-2,-1.5864536E-1,-2.6265804E-2,-1.4175906E-2,-9.156213E-2,5.2471505E-3,-5.6716036E-2,9.170228E-2,2.0465463E-2],"categories":[],"categories_nodes":[],"categories_segments":[],"categories_sizes":[],"default_left":[0,0,0,0,0,0,0,0,0,0,0,0,0,0,0,0,0,0,0,0,0,0,0,0,0,0,0,0,0,0,0],"id":21,"left_children":[1,3,5,7,9,11,13,15,17,19,21,23,25,27,29,-1,-1,-1,-1,-1,-1,-1,-1,-1,-1,-1,-1,-1,-1,-1,-1],"loss_changes":[1.3314028E3,7.86583E2,1.1358801E3,5.1105396E2,5.47603E2,2.4027258E2,5.550101E2,2.1844922E2,3.7242975E2,9.927838E1,2.2329237E2,7.957153E1,1.8317255E2,4.2066956E2,1.6978125E2,0E0,0E0,0E0,0E0,0E0,0E0,0E0,0E0,0E0,0E0,0E0,0E0,0E0,0E0,0E0,0E0],"parents":[2147483647,0,0,1,1,2,2,3,3,4,4,5,5,6,6,7,7,8,8,9,9,10,10,11,11,12,12,13,13,14,14],"right_children":[2,4,6,8,10,12,14,16,18,20,22,24,26,28,30,-1,-1,-1,-1,-1,-1,-1,-1,-1,-1,-1,-1,-1,-1,-1,-1],"split_conditions":[4.597701E0,4.8115478E0,1.0398614E1,4.487659E0,8.086253E0,6.976744E0,2.6666666E1,4.6332045E0,2.3809525E1,7E0,2.0134228E1,5.3932583E1,7.2289154E1,5.119454E0,5.05476E0,1.0393581E-1,4.4741303E-2,-4.978953E-3,5.3667165E-2,1.8132275E-2,-1.0711593E-1,-1.3970767E-2,4.5203224E-2,-1.5864536E-1,-2.6265804E-2,-1.4175906E-2,-9.156213E-2,5.2471505E-3,-5.6716036E-2,9.170228E-2,2.0465463E-2],"split_indices":[14,16,14,0,16,14,14,23,0,78,16,0,19,4,1,0,0,0,0,0,0,0,0,0,0,0,0,0,0,0,0],"split_type":[0,0,0,0,0,0,0,0,0,0,0,0,0,0,0,0,0,0,0,0,0,0,0,0,0,0,0,0,0,0,0],"sum_hessian":[1.678E3,9.52E2,7.26E2,6.24E2,3.28E2,1.95E2,5.31E2,2.33E2,3.91E2,6.1E1,2.67E2,5.3E1,1.42E2,3.93E2,1.38E2,1.3E2,1.03E2,2.12E2,1.79E2,6E0,5.5E1,1.85E2,8.2E1,4.8E1,5E0,3.8E1,1.04E2,1.95E2,1.98E2,4.4E1,9.4E1],"tree_param":{"num_deleted":"0","num_feature":"80","num_nodes":"31","size_leaf_vector":"1"}},{"base_weights":[9.493831E-3,1.3906925E0,-5.3876305E-1,2.2406754E0,3.5672823E-1,-1.3228613E0,4.5664084E-1,-1.1345002E-1,2.3734622E0,-1.4372906E-1,2.2638822E0,-3.3045592E0,-9.111591E-1,8.6838776E-1,-8.943744E-1,8.116343E-2,-9.556839E-4,1.9705331E-2,-3.567686E-2,-2.5420738E-2,1.02718495E-1,-1.3030097E-1,-5.285964E-2,-1.3245994E-2,-5.8252912E-2,1.7023219E-2,7.678572E-2,-1.07961096E-1,1.7788696E-4],"categories":[],"categories_nodes":[],"categories_segments":[],"categories_sizes":[],"default_left":[0,0,0,0,0,0,0,0,0,0,0,0,0,0,0,0,0,0,0,0,0,0,0,0,0,0,0,0,0],"id":22,"left_children":[1,3,5,7,9,11,13,-1,15,17,19,21,23,25,27,-1,-1,-1,-1,-1,-1,-1,-1,-1,-1,-1,-1,-1,-1],"loss_changes":[1.2684738E3,4.1727448E2,9.365035E2,2.175531E2,2.066984E2,5.4401575E2,2.9504425E2,0E0,2.0477722E2,1.4479823E2,1.6557521E2,1.7601624E2,2.6849158E2,2.048656E2,3.022856E2,0E0,0E0,0E0,0E0,0E0,0E0,0E0,0E0,0E0,0E0,0E0,0E0,0E0,0E0],"parents":[2147483647,0,0,1,1,2,2,3,3,4,4,5,5,6,6,8,8,9,9,10,10,11,11,12,12,13,13,14,14],"right_children":[2,4,6,8,10,12,14,-1,16,18,20,22,24,26,28,-1,-1,-1,-1,-1,-1,-1,-1,-1,-1,-1,-1,-1,-1],"split_conditions":[4.487659E0,4.6332045E0,2.4793388E1,1.03176775E1,2.5423729E1,9.202454E0,4.6403713E0,-1.1345002E-1,4.1463414E-1,1.55E0,2.0666666E1,9.756098E0,4.341534E0,1.6956522E2,8.571428E0,8.116343E-2,-9.556839E-4,1.9705331E-2,-3.567686E-2,-2.5420738E-2,1.02718495E-1,-1.3030097E-1,-5.285964E-2,-1.3245994E-2,-5.8252912E-2,1.7023219E-2,7.678572E-2,-1.07961096E-1,1.7788696E-4],"split_indices":[0,23,0,44,23,7,25,0,35,29,46,0,12,18,25,0,0,0,0,0,0,0,0,0,0,0,0,0,0],"split_type":[0,0,0,0,0,0,0,0,0,0,0,0,0,0,0,0,0,0,0,0,0,0,0,0,0,0,0,0,0],"sum_hessian":[1.673E3,4.75E2,1.198E3,2.6E2,2.15E2,6.7E2,5.28E2,5E0,2.55E2,1.71E2,4.4E1,1.14E2,5.56E2,4.05E2,1.23E2,2.24E2,3.1E1,9.7E1,7.4E1,1.2E1,3.2E1,6.7E1,4.7E1,3.83E2,1.73E2,3.45E2,6E1,3E1,9.3E1],"tree_param":{"num_deleted":"0","num_feature":"80","num_nodes":"29","size_leaf_vector":"1"}},{"base_weights":[-4.5117058E-2,7.913499E-1,-8.6499727E-1,2.094707E0,1.3924253E-1,-1.2060701E0,1.9043795E0,2.7579563E0,6.701288E-1,-4.3899913E0,2.6382834E-1,-3.1078424E0,-9.0014595E-1,3.2168684E0,4.627201E-1,1.0784803E-1,5.420382E-2,-2.0024884E-2,5.124202E-2,-1.5465681E-1,-7.0988E-2,1.3438651E-3,7.288072E-2,-1.5452E-1,-6.1669055E-2,-1.6997335E-2,-7.500291E-2,1.1082714E-1,2.0209268E-2,-3.4790307E-2,4.652034E-2],"categories":[],"categories_nodes":[],"categories_segments":[],"categories_sizes":[],"default_left":[0,0,0,0,0,0,0,0,0,0,0,0,0,0,0,0,0,0,0,0,0,0,0,0,0,0,0,0,0,0,0],"id":23,"left_children":[1,3,5,7,9,11,13,15,17,19,21,23,25,27,29,-1,-1,-1,-1,-1,-1,-1,-1,-1,-1,-1,-1,-1,-1,-1,-1],"loss_changes":[1.1596985E3,7.108754E2,8.0888043E2,2.6142212E2,3.1617715E2,4.3955017E2,1.7600674E2,1.44224E2,1.2619774E2,1.0278595E1,2.5814926E2,2.1438641E2,3.489129E2,5.65636E1,8.303198E1,0E0,0E0,0E0,0E0,0E0,0E0,0E0,0E0,0E0,0E0,0E0,0E0,0E0,0E0,0E0,0E0],"parents":[2147483647,0,0,1,1,2,2,3,3,4,4,5,5,6,6,7,7,8,8,9,9,10,10,11,11,12,12,13,13,14,14],"right_children":[2,4,6,8,10,12,14,16,18,20,22,24,26,28,30,-1,-1,-1,-1,-1,-1,-1,-1,-1,-1,-1,-1,-1,-1,-1,-1],"split_conditions":[4.521477E0,5.05476E0,4.8582996E1,5.119454E0,7.0422535E0,8.415147E0,4.9261084E0,5.119454E0,1.624E0,9.584664E0,4.9586777E1,9.202454E0,1.19E1,4.25E-1,1.05625E1,1.0784803E-1,5.420382E-2,-2.0024884E-2,5.124202E-2,-1.5465681E-1,-7.0988E-2,1.3438651E-3,7.288072E-2,-1.5452E-1,-6.1669055E-2,-1.6997335E-2,-7.500291E-2,1.1082714E-1,2.0209268E-2,-3.4790307E-2,4.652034E-2],"split_indices":[2,1,2,4,1,2,11,7,32,9,7,6,8,35,56,0,0,0,0,0,0,0,0,0,0,0,0,0,0,0,0],"split_type":[0,0,0,0,0,0,0,0,0,0,0,0,0,0,0,0,0,0,0,0,0,0,0,0,0,0,0,0,0,0,0],"sum_hessian":[1.689E3,8.36E2,8.53E2,2.78E2,5.58E2,7.6E2,9.3E1,1.89E2,8.9E1,1.4E1,5.44E2,1.04E2,6.56E2,4.8E1,4.5E1,9.9E1,9E1,3.9E1,5E1,9E0,5E0,4.95E2,4.9E1,3.4E1,7E1,5.44E2,1.12E2,4E1,8E0,1.8E1,2.7E1],"tree_param":{"num_deleted":"0","num_feature":"80","num_nodes":"31","size_leaf_vector":"1"}},{"base_weights":[4.620234E-2,8.918958E-1,-8.0945927E-1,2.171649E0,2.6921225E-1,-3.106703E0,-2.7490273E-1,2.9039757E0,1.0692579E0,-2.0978897E0,5.492588E-1,-5.487535E0,-2.2594693E0,-8.633427E-1,9.976929E-1,1.04816474E-1,4.808961E-2,-1.1763397E-2,8.9640915E-2,-1.1494512E-1,-3.2683633E-2,3.9221697E-2,-3.1947142E-3,-1.862397E-1,-1.1454641E-1,-1.24454826E-1,-4.0658794E-2,-4.818557E-3,-5.4216105E-2,5.2696478E-2,-1.04661975E-2],"categories":[],"categories_nodes":[],"categories_segments":[],"categories_sizes":[],"default_left":[0,0,0,0,0,0,0,0,0,0,0,0,0,0,0,0,0,0,0,0,0,0,0,0,0,0,0,0,0,0,0],"id":24,"left_children":[1,3,5,7,9,11,13,15,17,19,21,23,25,27,29,-1,-1,-1,-1,-1,-1,-1,-1,-1,-1,-1,-1,-1,-1,-1,-1],"loss_changes":[1.2272786E3,6.7891095E2,1.0340173E3,2.217373E2,3.8216425E2,3.075487E2,5.138075E2,1.22055786E2,3.1828763E2,1.01976166E2,2.5628842E2,2.4603394E1,1.9708057E2,3.105884E2,2.2249507E2,0E0,0E0,0E0,0E0,0E0,0E0,0E0,0E0,0E0,0E0,0E0,0E0,0E0,0E0,0E0,0E0],"parents":[2147483647,0,0,1,1,2,2,3,3,4,4,5,5,6,6,7,7,8,8,9,9,10,10,11,11,12,12,13,13,14,14],"right_children":[2,4,6,8,10,12,14,16,18,20,22,24,26,28,30,-1,-1,-1,-1,-1,-1,-1,-1,-1,-1,-1,-1,-1,-1,-1,-1],"split_conditions":[5.119454E0,4.487659E0,9.478673E0,4.6332045E0,9.708738E0,8E0,2.3529411E1,4.597701E0,1.9575857E1,9.724473E0,4.521477E0,4.50625E1,6.880734E0,4.9261084E0,4.341534E0,1.04816474E-1,4.808961E-2,-1.1763397E-2,8.9640915E-2,-1.1494512E-1,-3.2683633E-2,3.9221697E-2,-3.1947142E-3,-1.862397E-1,-1.1454641E-1,-1.24454826E-1,-4.0658794E-2,-4.818557E-3,-5.4216105E-2,5.2696478E-2,-1.04661975E-2],"split_indices":[4,0,4,23,0,21,21,14,23,7,2,61,4,11,15,0,0,0,0,0,0,0,0,0,0,0,0,0,0,0,0],"split_type":[0,0,0,0,0,0,0,0,0,0,0,0,0,0,0,0,0,0,0,0,0,0,0,0,0,0,0,0,0,0,0],"sum_hessian":[1.694E3,8.52E2,8.42E2,2.78E2,5.74E2,1.58E2,6.84E2,1.66E2,1.12E2,6E1,5.14E2,4E1,1.18E2,4.68E2,2.16E2,1.13E2,5.3E1,6.4E1,4.8E1,2.1E1,3.9E1,2.38E2,2.76E2,2.6E1,1.4E1,3.7E1,8.1E1,2.69E2,1.99E2,1.38E2,7.8E1],"tree_param":{"num_deleted":"0","num_feature":"80","num_nodes":"31","size_leaf_vector":"1"}},{"base_weights":[2.7760572E-3,1.3003687E0,-5.001204E-1,2.6290321E0,7.042659E-1,6.863135E-1,-9.479098E-1,3.9510536E-1,3.1049576E0,-2.7967575E0,9.1553247E-1,8.4507704E-1,-3.3278763E0,-3.211256E0,-7.146929E-1,-1.0809591E-1,4.4164125E-2,1.0095918E-1,3.9251864E-2,-1.2821852E-1,9.955568E-3,-4.8514076E-2,3.455337E-2,4.5871686E-2,-1.0630573E-3,-1.4015077E-1,-2.8944274E-2,-1.5039237E-1,-7.039355E-2,-3.398415E-2,1.2979491E-2],"categories":[],"categories_nodes":[],"categories_segments":[],"categories_sizes":[],"default_left":[0,0,0,0,0,0,0,0,0,0,0,0,0,0,0,0,0,0,0,0,0,0,0,0,0,0,0,0,0,0,0],"id":25,"left_children":[1,3,5,7,9,11,13,15,17,19,21,23,25,27,29,-1,-1,-1,-1,-1,-1,-1,-1,-1,-1,-1,-1,-1,-1,-1,-1],"loss_changes":[1.112031E3,3.748166E2,6.5307935E2,1.5471106E2,2.464567E2,2.1733652E2,4.6815503E2,1.21361404E2,5.172522E1,8.962218E1,1.8849628E2,1.9593546E2,3.6210907E1,1.1683368E2,3.8913168E2,0E0,0E0,0E0,0E0,0E0,0E0,0E0,0E0,0E0,0E0,0E0,0E0,0E0,0E0,0E0,0E0],"parents":[2147483647,0,0,1,1,2,2,3,3,4,4,5,5,6,6,7,7,8,8,9,9,10,10,11,11,12,12,13,13,14,14],"right_children":[2,4,6,8,10,12,14,16,18,20,22,24,26,28,30,-1,-1,-1,-1,-1,-1,-1,-1,-1,-1,-1,-1,-1,-1,-1,-1],"split_conditions":[5.633803E0,4.487659E0,5.119454E0,4.797075E1,7.863696E0,1.7058823E0,7.380074E0,1.8447196E0,4.373178E0,6.8965516E0,8.2E0,5.249344E0,4.605E1,8.915304E0,1.4814815E2,-1.0809591E-1,4.4164125E-2,1.0095918E-1,3.9251864E-2,-1.2821852E-1,9.955568E-3,-4.8514076E-2,3.455337E-2,4.5871686E-2,-1.0630573E-3,-1.4015077E-1,-2.8944274E-2,-1.5039237E-1,-7.039355E-2,-3.398415E-2,1.2979491E-2],"split_indices":[9,0,7,41,0,75,0,10,3,37,60,6,61,7,18,0,0,0,0,0,0,0,0,0,0,0,0,0,0,0,0],"split_type":[0,0,0,0,0,0,0,0,0,0,0,0,0,0,0,0,0,0,0,0,0,0,0,0,0,0,0,0,0,0,0],"sum_hessian":[1.702E3,4.75E2,1.227E3,1.46E2,3.29E2,3.36E2,8.91E2,2.6E1,1.2E2,1.8E1,3.11E2,3.24E2,1.2E1,8.2E1,8.09E2,5E0,2.1E1,1.04E2,1.6E1,1.2E1,6E0,2.6E1,2.85E2,1.82E2,1.42E2,7E0,5E0,2.5E1,5.7E1,5.93E2,2.16E2],"tree_param":{"num_deleted":"0","num_feature":"80","num_nodes":"31","size_leaf_vector":"1"}},{"base_weights":[3.3729475E-2,5.330687E-1,-1.2700772E0,1.0422887E0,-4.6753627E-1,-3.3263512E0,-3.8180354E-1,1.5657811E0,-3.3648062E-1,-2.8257806E0,2.170745E-1,-4.702232E0,-1.562332E0,-6.904109E-1,2.0777383E0,5.919848E-2,1.4029048E-2,-8.98374E-2,2.487208E-2,-1.1544043E-1,-2.1597266E-2,2.909045E-2,-1.5662065E-2,-2.9693307E-2,-1.5001835E-1,-6.512595E-2,5.427376E-2,-7.585041E-2,-1.06308935E-2,1.3339376E-1,2.9754844E-2],"categories":[],"categories_nodes":[],"categories_segments":[],"categories_sizes":[],"default_left":[0,0,0,0,0,0,0,0,0,0,0,0,0,0,0,0,0,0,0,0,0,0,0,0,0,0,0,0,0,0,0],"id":26,"left_children":[1,3,5,7,9,11,13,15,17,19,21,23,25,27,29,-1,-1,-1,-1,-1,-1,-1,-1,-1,-1,-1,-1,-1,-1,-1,-1],"loss_changes":[1.0767756E3,6.099402E2,8.3491174E2,5.7301776E2,6.53124E2,3.269641E2,2.4494527E2,2.5614343E2,6.8119366E2,1.9266803E2,1.7522435E2,7.974609E1,1.3116539E2,1.7545921E2,8.764589E1,0E0,0E0,0E0,0E0,0E0,0E0,0E0,0E0,0E0,0E0,0E0,0E0,0E0,0E0,0E0,0E0],"parents":[2147483647,0,0,1,1,2,2,3,3,4,4,5,5,6,6,7,7,8,8,9,9,10,10,11,11,12,12,13,13,14,14],"right_children":[2,4,6,8,10,12,14,16,18,20,22,24,26,28,30,-1,-1,-1,-1,-1,-1,-1,-1,-1,-1,-1,-1,-1,-1,-1,-1],"split_conditions":[4.6403713E0,4.373178E0,1.058201E1,4.341534E0,8.955224E0,9.419152E0,4.4444443E1,4.418262E0,1.242236E1,1.9310345E2,4.521477E0,1.3571428E0,2.1818182E1,1.2842548E1,1.8867925E-1,5.919848E-2,1.4029048E-2,-8.98374E-2,2.487208E-2,-1.1544043E-1,-2.1597266E-2,2.909045E-2,-1.5662065E-2,-2.9693307E-2,-1.5001835E-1,-6.512595E-2,5.427376E-2,-7.585041E-2,-1.06308935E-2,1.3339376E-1,2.9754844E-2],"split_indices":[25,3,25,12,3,15,25,16,12,19,2,38,15,51,65,0,0,0,0,0,0,0,0,0,0,0,0,0,0,0,0],"split_type":[0,0,0,0,0,0,0,0,0,0,0,0,0,0,0,0,0,0,0,0,0,0,0,0,0,0,0,0,0,0,0],"sum_hessian":[1.652E3,1.195E3,4.57E2,7.92E2,4.03E2,1.37E2,3.2E2,5.74E2,2.18E2,9E1,3.13E2,7.6E1,6.1E1,2.85E2,3.5E1,4.18E2,1.56E2,6.6E1,1.52E2,6E1,3E1,1.55E2,1.58E2,6E0,7E1,5.2E1,9E0,4.3E1,2.42E2,1E1,2.5E1],"tree_param":{"num_deleted":"0","num_feature":"80","num_nodes":"31","size_leaf_vector":"1"}},{"base_weights":[-7.492975E-3,1.2052983E0,-5.1541346E-1,3.414082E0,8.4178346E-1,-9.1319394E-1,8.865681E-1,3.7022812E0,-9.253666E-3,9.4401515E-1,-1.9825348E-1,-1.5692006E0,-1.702968E-1,9.394759E-3,1.8101324E0,1.1635932E-1,3.826625E-2,1.1702947E-2,6.3003846E-2,-1.3941668E-1,-4.128418E-2,1.2219407E-2,-4.7271542E-2,-2.1253996E-2,5.7593368E-2,3.1091519E-2,1.1396727E-1],"categories":[],"categories_nodes":[],"categories_segments":[],"categories_sizes":[],"default_left":[0,0,0,0,0,0,0,0,0,0,0,0,0,0,0,0,0,0,0,0,0,0,0,0,0,0,0],"id":27,"left_children":[1,3,5,7,9,11,13,15,-1,17,-1,19,21,23,25,-1,-1,-1,-1,-1,-1,-1,-1,-1,-1,-1,-1],"loss_changes":[1.0539148E3,4.021778E2,6.733754E2,7.7652466E1,3.369897E2,4.5766364E2,2.1610466E2,2.2784424E1,0E0,2.742997E2,0E0,2.8953174E2,3.5956802E2,1.9073317E2,1.9562503E2,0E0,0E0,0E0,0E0,0E0,0E0,0E0,0E0,0E0,0E0,0E0,0E0],"parents":[2147483647,0,0,1,1,2,2,3,3,4,4,5,5,6,6,7,7,9,9,11,11,12,12,13,13,14,14],"right_children":[2,4,6,8,10,12,14,16,-1,18,-1,20,22,24,26,-1,-1,-1,-1,-1,-1,-1,-1,-1,-1,-1,-1],"split_conditions":[5.05476E0,3.7267082E1,1.6744186E2,6.388889E0,5.633803E0,2.3622047E1,1.875E1,5.225E1,-9.253666E-3,1.821E0,-1.9825348E-1,6.936416E0,4.418262E0,5.8333335E0,1.1590909E1,1.1635932E-1,3.826625E-2,1.1702947E-2,6.3003846E-2,-1.3941668E-1,-4.128418E-2,1.2219407E-2,-4.7271542E-2,-2.1253996E-2,5.7593368E-2,3.1091519E-2,1.1396727E-1],"split_indices":[1,18,18,64,9,9,9,5,0,32,0,1,16,64,22,0,0,0,0,0,0,0,0,0,0,0,0],"split_type":[0,0,0,0,0,0,0,0,0,0,0,0,0,0,0,0,0,0,0,0,0,0,0,0,0,0,0],"sum_hessian":[1.709E3,5.04E2,1.205E3,7E1,4.34E2,9.39E2,2.66E2,6.5E1,5E0,4.29E2,5E0,4.98E2,4.41E2,1.37E2,1.29E2,6E1,5E0,2.91E2,1.38E2,2.8E1,4.7E2,3.13E2,1.28E2,1E2,3.7E1,9.4E1,3.5E1],"tree_param":{"num_deleted":"0","num_feature":"80","num_nodes":"27","size_leaf_vector":"1"}},{"base_weights":[-3.210299E-2,6.395517E-1,-9.26174E-1,1.2330883E0,-4.8962724E-1,-2.7080522E0,-2.107224E-1,1.8808717E0,3.740363E-1,-2.1131015E0,3.1285384E-1,-4.5407987E0,-1.9708403E0,6.8307906E-1,-1.1288159E0,6.7924954E-2,1.8347574E-2,-3.7811503E-2,2.6032783E-2,-1.1904325E-1,-4.16943E-2,-9.786953E-3,4.2041395E-2,-1.464606E-1,-2.2596331E-2,-2.5546484E-2,-7.596592E-2,3.703814E-2,-2.8657895E-2,-5.6964125E-2,7.146469E-3],"categories":[],"categories_nodes":[],"categories_segments":[],"categories_sizes":[],"default_left":[0,0,0,0,0,0,0,0,0,0,0,0,0,0,0,0,0,0,0,0,0,0,0,0,0,0,0,0,0,0,0],"id":28,"left_children":[1,3,5,7,9,11,13,15,17,19,21,23,25,27,29,-1,-1,-1,-1,-1,-1,-1,-1,-1,-1,-1,-1,-1,-1,-1,-1],"loss_changes":[1.0022666E3,6.393872E2,9.119283E2,3.468708E2,4.2946472E2,2.6737976E2,4.2095947E2,1.7152478E2,2.1893117E2,1.4019577E2,1.5430585E2,7.071875E1,9.049701E1,2.3614017E2,2.669257E2,0E0,0E0,0E0,0E0,0E0,0E0,0E0,0E0,0E0,0E0,0E0,0E0,0E0,0E0,0E0,0E0],"parents":[2147483647,0,0,1,1,2,2,3,3,4,4,5,5,6,6,7,7,8,8,9,9,10,10,11,11,12,12,13,13,14,14],"right_children":[2,4,6,8,10,12,14,16,18,20,22,24,26,28,30,-1,-1,-1,-1,-1,-1,-1,-1,-1,-1,-1,-1,-1,-1,-1,-1],"split_conditions":[4.597701E0,4.418262E0,1.0434783E1,4.521477E0,9.950249E0,6.976744E0,5.119454E0,4.4444447E0,1.1396011E1,6.615215E0,2.0134228E1,5.3932583E1,2.7547169E0,4.137931E0,1.9933556E1,6.7924954E-2,1.8347574E-2,-3.7811503E-2,2.6032783E-2,-1.1904325E-1,-4.16943E-2,-9.786953E-3,4.2041395E-2,-1.464606E-1,-2.2596331E-2,-2.5546484E-2,-7.596592E-2,3.703814E-2,-2.8657895E-2,-5.6964125E-2,7.146469E-3],"split_indices":[14,16,14,2,16,14,4,37,6,16,16,0,48,27,21,0,0,0,0,0,0,0,0,0,0,0,0,0,0,0,0],"split_type":[0,0,0,0,0,0,0,0,0,0,0,0,0,0,0,0,0,0,0,0,0,0,0,0,0,0,0,0,0,0,0],"sum_hessian":[1.667E3,9.52E2,7.15E2,6.24E2,3.28E2,2.04E2,5.11E2,3.55E2,2.69E2,1.08E2,2.2E2,5.7E1,1.47E2,2.59E2,2.52E2,2.72E2,8.3E1,6.2E1,2.07E2,2.9E1,7.9E1,1.39E2,8.1E1,5.2E1,5E0,5E1,9.7E1,1.94E2,6.5E1,1.61E2,9.1E1],"tree_param":{"num_deleted":"0","num_feature":"80","num_nodes":"31","size_leaf_vector":"1"}},{"base_weights":[-5.346675E-2,6.0312855E-1,-9.274759E-1,1.1772636E0,-5.185064E-1,-3.7737944E0,-4.1504118E-1,2.219053E0,5.272029E-1,-3.314097E0,-5.8664173E-2,-4.27349E0,-1.306491E0,-9.1807896E-1,1.4786671E0,8.812871E-2,3.514785E-2,-1.0507068E-2,4.4886015E-2,-1.274639E-1,-1.8206226E-2,-1.9133598E-2,3.988009E-2,-1.6224186E-1,-8.456033E-2,-6.870497E-2,-8.531358E-3,4.7193144E-2,-3.6248043E-2,8.430086E-2,2.0402445E-2],"categories":[],"categories_nodes":[],"categories_segments":[],"categories_sizes":[],"default_left":[0,0,0,0,0,0,0,0,0,0,0,0,0,0,0,0,0,0,0,0,0,0,0,0,0,0,0,0,0,0,0],"id":29,"left_children":[1,3,5,7,9,11,13,15,17,19,21,23,25,27,29,-1,-1,-1,-1,-1,-1,-1,-1,-1,-1,-1,-1,-1,-1,-1,-1],"loss_changes":[9.658418E2,6.195314E2,1.0510898E3,4.2927142E2,4.185513E2,1.2947778E2,5.852495E2,1.7979956E2,3.347813E2,1.1333621E2,2.2665273E2,1.341372E2,1.9199795E1,3.524778E2,1.3489362E2,0E0,0E0,0E0,0E0,0E0,0E0,0E0,0E0,0E0,0E0,0E0,0E0,0E0,0E0,0E0,0E0],"parents":[2147483647,0,0,1,1,2,2,3,3,4,4,5,5,6,6,7,7,8,8,9,9,10,10,11,11,12,12,13,13,14,14],"right_children":[2,4,6,8,10,12,14,16,18,20,22,24,26,28,30,-1,-1,-1,-1,-1,-1,-1,-1,-1,-1,-1,-1,-1,-1,-1,-1],"split_conditions":[4.597701E0,4.418262E0,8.310249E0,4.487659E0,7.518797E0,1.1605416E1,2.6845638E1,5.119454E0,2.3809525E1,4.50625E1,2.0134228E1,6.976744E0,2.1621622E1,5.2173912E1,5.05476E0,8.812871E-2,3.514785E-2,-1.0507068E-2,4.4886015E-2,-1.274639E-1,-1.8206226E-2,-1.9133598E-2,3.988009E-2,-1.6224186E-1,-8.456033E-2,-6.870497E-2,-8.531358E-3,4.7193144E-2,-3.6248043E-2,8.430086E-2,2.0402445E-2],"split_indices":[14,16,14,0,16,12,14,4,0,61,16,14,0,19,1,0,0,0,0,0,0,0,0,0,0,0,0,0,0,0,0],"split_type":[0,0,0,0,0,0,0,0,0,0,0,0,0,0,0,0,0,0,0,0,0,0,0,0,0,0,0,0,0,0,0],"sum_hessian":[1.681E3,9.6E2,7.21E2,6.35E2,3.25E2,1.09E2,6.12E2,2.43E2,3.92E2,4.5E1,2.8E2,9E1,1.9E1,4.84E2,1.28E2,1.43E2,1E2,2.06E2,1.86E2,3.3E1,1.2E1,1.98E2,8.2E1,4.9E1,4.1E1,9E0,1E1,5E1,4.34E2,4.7E1,8.1E1],"tree_param":{"num_deleted":"0","num_feature":"80","num_nodes":"31","size_leaf_vector":"1"}},{"base_weights":[-7.162664E-2,6.9618654E-1,-7.972074E-1,1.3875293E0,-1.4729305E-1,-1.3572232E0,3.3686307E-1,3.3102005E0,1.0331684E0,-3.0811355E0,1.4709616E-1,-2.4728324E0,-7.4243915E-1,9.2754585E-1,-1.5229523E0,1.0879731E-1,2.2554137E-2,4.173545E-2,-1.0961355E-2,-2.7906984E-2,-1.1109982E-1,1.7871197E-2,-3.0310266E-2,-8.315488E-2,3.7902948E-2,-5.0237827E-2,-1.0532128E-3,3.2273237E-2,-1.1166714E-1,-1.5806938E-2,-1.3774265E-1],"categories":[],"categories_nodes":[],"categories_segments":[],"categories_sizes":[],"default_left":[0,0,0,0,0,0,0,0,0,0,0,0,0,0,0,0,0,0,0,0,0,0,0,0,0,0,0,0,0,0,0],"id":30,"left_children":[1,3,5,7,9,11,13,15,17,19,21,23,25,27,29,-1,-1,-1,-1,-1,-1,-1,-1,-1,-1,-1,-1,-1,-1,-1,-1],"loss_changes":[9.4486743E2,4.8083032E2,5.543642E2,3.0478326E2,3.2203992E2,3.983839E2,3.188372E2,5.3494934E1,1.9287903E2,4.1593018E1,1.7658241E2,2.3489905E2,2.4900197E2,1.5537057E2,2.1101433E2,0E0,0E0,0E0,0E0,0E0,0E0,0E0,0E0,0E0,0E0,0E0,0E0,0E0,0E0,0E0,0E0],"parents":[2147483647,0,0,1,1,2,2,3,3,4,4,5,5,6,6,7,7,8,8,9,9,10,10,11,11,12,12,13,13,14,14],"right_children":[2,4,6,8,10,12,14,16,18,20,22,24,26,28,30,-1,-1,-1,-1,-1,-1,-1,-1,-1,-1,-1,-1,-1,-1,-1,-1],"split_conditions":[4.521477E0,5.119454E0,2.5104603E1,4.120879E1,8.130081E0,1.1583012E1,4.341534E0,1.1605263E1,4.6403713E0,7.977208E1,1.375E0,1.9396551E1,-9.0060973E-1,4.368421E0,1.1411765E1,1.0879731E-1,2.2554137E-2,4.173545E-2,-1.0961355E-2,-2.7906984E-2,-1.1109982E-1,1.7871197E-2,-3.0310266E-2,-8.315488E-2,3.7902948E-2,-5.0237827E-2,-1.0532128E-3,3.2273237E-2,-1.1166714E-1,-1.5806938E-2,-1.3774265E-1],"split_indices":[2,4,2,52,4,6,15,8,25,18,31,2,53,69,30,0,0,0,0,0,0,0,0,0,0,0,0,0,0,0,0],"split_type":[0,0,0,0,0,0,0,0,0,0,0,0,0,0,0,0,0,0,0,0,0,0,0,0,0,0,0,0,0,0,0],"sum_hessian":[1.694E3,8.23E2,8.71E2,4.52E2,3.71E2,5.83E2,2.88E2,6.9E1,3.83E2,3.3E1,3.38E2,2.06E2,3.77E2,2.19E2,6.9E1,6.1E1,8E0,3.05E2,7.8E1,8E0,2.5E1,2.44E2,9.4E1,1.91E2,1.5E1,1.62E2,2.15E2,2.13E2,6E0,5.3E1,1.6E1],"tree_param":{"num_deleted":"0","num_feature":"80","num_nodes":"31","size_leaf_vector":"1"}},{"base_weights":[-1.6233522E-2,5.5284584E-1,-9.960946E-1,9.9300146E-1,-5.730067E-1,-3.5071282E0,-5.3919774E-1,1.4165561E0,-3.2496694E-1,-2.546676E0,4.556663E-1,-3.850934E0,6.9929454E-3,6.2971693E-1,-9.248056E-1,6.971446E-2,2.5937596E-2,-5.8370426E-2,2.8844845E-2,-1.2930916E-1,-2.496039E-2,5.7844245E-3,8.4200844E-2,-1.3307394E-1,-7.306982E-2,3.7199315E-2,-3.0879302E-2,-4.4343393E-2,-1.02888E-3],"categories":[],"categories_nodes":[],"categories_segments":[],"categories_sizes":[],"default_left":[0,0,0,0,0,0,0,0,0,0,0,0,0,0,0,0,0,0,0,0,0,0,0,0,0,0,0,0,0],"id":31,"left_children":[1,3,5,7,9,11,13,15,17,19,21,23,-1,25,27,-1,-1,-1,-1,-1,-1,-1,-1,-1,-1,-1,-1,-1,-1],"loss_changes":[9.4854675E2,5.3382324E2,7.147564E2,4.3264087E2,6.165384E2,1.2470691E2,2.3950545E2,2.9112866E2,3.9603165E2,3.103988E2,1.2275346E2,6.135022E1,0E0,1.3493927E2,1.9639569E2,0E0,0E0,0E0,0E0,0E0,0E0,0E0,0E0,0E0,0E0,0E0,0E0,0E0,0E0],"parents":[2147483647,0,0,1,1,2,2,3,3,4,4,5,5,6,6,7,7,8,8,9,9,10,10,11,11,13,13,14,14],"right_children":[2,4,6,8,10,12,14,16,18,20,22,24,-1,26,28,-1,-1,-1,-1,-1,-1,-1,-1,-1,-1,-1,-1,-1,-1],"split_conditions":[4.373178E0,4.341534E0,7.6923075E0,4.341534E0,1.2552301E1,3.97351E1,5.119454E0,5.633803E0,1.1881188E1,9.646302E0,2.8213165E1,4.515E1,6.9929454E-3,5.8846154E0,2.4793388E1,6.971446E-2,2.5937596E-2,-5.8370426E-2,2.8844845E-2,-1.2930916E-1,-2.496039E-2,5.7844245E-3,8.4200844E-2,-1.3307394E-1,-7.306982E-2,3.7199315E-2,-3.0879302E-2,-4.4343393E-2,-1.02888E-3],"split_indices":[3,12,3,15,12,4,7,9,15,24,23,61,0,26,7,0,0,0,0,0,0,0,0,0,0,0,0,0,0],"split_type":[0,0,0,0,0,0,0,0,0,0,0,0,0,0,0,0,0,0,0,0,0,0,0,0,0,0,0,0,0],"sum_hessian":[1.699E3,1.075E3,6.24E2,7.73E2,3.02E2,9.5E1,5.29E2,5.85E2,1.88E2,1.03E2,1.99E2,8.7E1,8E0,1.31E2,3.98E2,2.2E2,3.65E2,8.3E1,1.05E2,5E1,5.3E1,1.8E2,1.9E1,6E1,2.7E1,9.6E1,3.5E1,2.45E2,1.53E2],"tree_param":{"num_deleted":"0","num_feature":"80","num_nodes":"29","size_leaf_vector":"1"}},{"base_weights":[1.4339517E-2,2.498335E0,-1.9113286E-1,2.7159503E0,-2.0090543E-2,-4.8675302E-1,1.1192509E0,3.1693256E0,1.5214869E0,2.1218606E-3,-1.2607638E0,2.1989846E0,4.6701208E-1,4.066615E-2,1.0505372E-1,8.37929E-2,1.6079409E-2,2.9173275E-2,-1.219326E-2,-1.0841911E-1,-2.3534404E-2,3.7132544E-3,7.604705E-2,2.8676243E-2,-3.9294753E-2],"categories":[],"categories_nodes":[],"categories_segments":[],"categories_sizes":[],"default_left":[0,0,0,0,0,0,0,0,0,0,0,0,0,0,0,0,0,0,0,0,0,0,0,0,0],"id":32,"left_children":[1,3,5,7,-1,9,11,13,15,17,19,21,23,-1,-1,-1,-1,-1,-1,-1,-1,-1,-1,-1,-1],"loss_changes":[8.5510516E2,9.026788E1,5.9975195E2,5.9693726E1,0E0,4.780407E2,1.9941605E2,4.6627197E1,4.203135E1,3.0769125E2,5.4479315E2,7.400989E1,1.5670131E2,0E0,0E0,0E0,0E0,0E0,0E0,0E0,0E0,0E0,0E0,0E0,0E0],"parents":[2147483647,0,0,1,1,2,2,3,3,5,5,6,6,7,7,8,8,9,9,10,10,11,11,12,12],"right_children":[2,4,6,8,-1,10,12,14,16,18,20,22,24,-1,-1,-1,-1,-1,-1,-1,-1,-1,-1,-1,-1],"split_conditions":[4.050633E1,3.7272727E0,1.802575E2,1.6666666E0,-2.0090543E-2,4.373178E0,5.181905E0,2.05E1,2.3333333E0,5.633803E0,8.1081085E0,2.375E0,1.1954524E2,4.066615E-2,1.0505372E-1,8.37929E-2,1.6079409E-2,2.9173275E-2,-1.219326E-2,-1.0841911E-1,-2.3534404E-2,3.7132544E-3,7.604705E-2,2.8676243E-2,-3.9294753E-2],"split_indices":[19,48,18,29,0,3,28,46,40,9,3,48,39,0,0,0,0,0,0,0,0,0,0,0,0],"split_type":[0,0,0,0,0,0,0,0,0,0,0,0,0,0,0,0,0,0,0,0,0,0,0,0,0],"sum_hessian":[1.673E3,1.27E2,1.546E3,1.19E2,8E0,1.262E3,2.84E2,8.5E1,3.4E1,7.74E2,4.88E2,1.06E2,1.78E2,1.4E1,7.1E1,1.4E1,2E1,2.29E2,5.45E2,8.1E1,4.07E2,1.5E1,9.1E1,1.4E2,3.8E1],"tree_param":{"num_deleted":"0","num_feature":"80","num_nodes":"25","size_leaf_vector":"1"}},{"base_weights":[9.131508E-3,7.337097E-1,-6.8191266E-1,1.8355839E0,2.6383597E-1,-1.9953898E0,-1.8733896E-1,1.9486765E0,-9.045247E-2,8.303394E-1,-7.6322985E-1,-2.616726E0,3.2000706E-1,8.212847E-2,-2.3152812E0,1.2999327E-2,6.8203114E-2,1.5722811E-2,8.4253624E-2,-1.1071197E-1,-1.34171145E-2,-1.1528185E-1,-6.768896E-2,4.80401E-2,-4.311783E-2,1.7222945E-2,-3.0171758E-2,-9.6680194E-2,4.641063E-3],"categories":[],"categories_nodes":[],"categories_segments":[],"categories_sizes":[],"default_left":[0,0,0,0,0,0,0,0,0,0,0,0,0,0,0,0,0,0,0,0,0,0,0,0,0,0,0,0,0],"id":33,"left_children":[1,3,5,7,9,11,13,15,-1,17,19,21,23,25,27,-1,-1,-1,-1,-1,-1,-1,-1,-1,-1,-1,-1,-1,-1],"loss_changes":[8.4821686E2,4.2747818E2,5.6262085E2,1.4126666E2,3.386873E2,3.420246E2,3.622359E2,1.17839966E2,0E0,2.2536581E2,1.894033E2,7.3352295E1,1.1715156E2,3.007764E2,1.599336E2,0E0,0E0,0E0,0E0,0E0,0E0,0E0,0E0,0E0,0E0,0E0,0E0,0E0,0E0],"parents":[2147483647,0,0,1,1,2,2,3,3,4,4,5,5,6,6,7,7,9,9,10,10,11,11,12,12,13,13,14,14],"right_children":[2,4,6,8,10,12,14,16,-1,18,20,22,24,26,28,-1,-1,-1,-1,-1,-1,-1,-1,-1,-1,-1,-1,-1,-1],"split_conditions":[4.521477E0,5.633803E0,1.1494253E1,3.7776992E0,4.597701E0,1.9396551E1,1.2875E1,1.3095E0,-9.045247E-2,4.528302E1,7.894737E0,1.1904762E-1,7.731959E1,4.418262E0,1.46875E1,1.2999327E-2,6.8203114E-2,1.5722811E-2,8.4253624E-2,-1.1071197E-1,-1.34171145E-2,-1.1528185E-1,-6.768896E-2,4.80401E-2,-4.311783E-2,1.7222945E-2,-3.0171758E-2,-9.6680194E-2,4.641063E-3],"split_indices":[2,9,6,62,14,2,8,32,0,9,14,55,18,16,49,0,0,0,0,0,0,0,0,0,0,0,0,0,0],"split_type":[0,0,0,0,0,0,0,0,0,0,0,0,0,0,0,0,0,0,0,0,0,0,0,0,0,0,0,0,0],"sum_hessian":[1.692E3,8.26E2,8.66E2,2.46E2,5.8E2,2.36E2,6.3E2,2.41E2,5E0,3.74E2,2.06E2,1.86E2,5E1,5.6E2,7E1,4.3E1,1.98E2,3.25E2,4.9E1,1.9E1,1.87E2,4E1,1.46E2,2.9E1,2.1E1,3.86E2,1.74E2,5.1E1,1.9E1],"tree_param":{"num_deleted":"0","num_feature":"80","num_nodes":"29","size_leaf_vector":"1"}},{"base_weights":[3.990934E-2,4.9029392E-1,-1.1371472E0,1.1197476E0,-2.1074519E-1,-3.0869114E0,-1.4569516E-1,1.6916736E0,3.548324E-1,-9.262653E-1,9.288081E-1,-5.983726E0,-2.4384675E0,-7.964621E-1,1.0109863E0,5.8015544E-2,-1.5535623E-2,-8.8421725E-2,1.7500399E-2,-9.602761E-2,-2.0486914E-2,1.8684994E-2,1.0307197E-1,-1.9693238E-1,-8.2314216E-2,-1.27733E-1,-4.272122E-2,-1.14605226E-1,-1.6921535E-2,4.043153E-2,-6.582746E-2],"categories":[],"categories_nodes":[],"categories_segments":[],"categories_sizes":[],"default_left":[0,0,0,0,0,0,0,0,0,0,0,0,0,0,0,0,0,0,0,0,0,0,0,0,0,0,0,0,0,0,0],"id":34,"left_children":[1,3,5,7,9,11,13,15,17,19,21,23,25,27,29,-1,-1,-1,-1,-1,-1,-1,-1,-1,-1,-1,-1,-1,-1,-1,-1],"loss_changes":[8.9269855E2,5.377958E2,9.000506E2,2.8005408E2,4.713304E2,2.7947888E2,2.3413008E2,1.9752417E2,2.0975392E2,1.9394614E2,1.685078E2,3.3736206E1,2.3328961E2,1.372528E2,1.2375454E2,0E0,0E0,0E0,0E0,0E0,0E0,0E0,0E0,0E0,0E0,0E0,0E0,0E0,0E0,0E0,0E0],"parents":[2147483647,0,0,1,1,2,2,3,3,4,4,5,5,6,6,7,7,8,8,9,9,10,10,11,11,12,12,13,13,14,14],"right_children":[2,4,6,8,10,12,14,16,18,20,22,24,26,28,30,-1,-1,-1,-1,-1,-1,-1,-1,-1,-1,-1,-1,-1,-1,-1,-1],"split_conditions":[4.6403713E0,4.521477E0,1.13852E1,4.930156E0,2.4793388E1,6.8728523E0,2.4489796E1,2.05E0,7.075472E0,7.2028813E0,1.1320755E2,3.3783785E-1,7.3170733E0,4.9438496E0,6.785714E0,5.8015544E-2,-1.5535623E-2,-8.8421725E-2,1.7500399E-2,-9.602761E-2,-2.0486914E-2,1.8684994E-2,1.0307197E-1,-1.9693238E-1,-8.2314216E-2,-1.27733E-1,-4.272122E-2,-1.14605226E-1,-1.6921535E-2,4.043153E-2,-6.582746E-2],"split_indices":[25,2,25,21,2,15,25,29,21,2,2,35,25,54,26,0,0,0,0,0,0,0,0,0,0,0,0,0,0,0,0],"split_type":[0,0,0,0,0,0,0,0,0,0,0,0,0,0,0,0,0,0,0,0,0,0,0,0,0,0,0,0,0,0,0],"sum_hessian":[1.682E3,1.217E3,4.65E2,6.41E2,5.76E2,1.56E2,3.09E2,3.66E2,2.75E2,3.54E2,2.22E2,2.7E1,1.29E2,1.98E2,1.11E2,3.3E2,3.6E1,1.7E1,2.58E2,3.3E1,3.21E2,1.99E2,2.3E1,2.2E1,5E0,4.5E1,8.4E1,1.3E1,1.85E2,1.01E2,1E1],"tree_param":{"num_deleted":"0","num_feature":"80","num_nodes":"31","size_leaf_vector":"1"}},{"base_weights":[1.7333275E-2,1.0568852E0,-4.035323E-1,2.7288115E0,7.1725714E-1,1.6726445E-1,-1.2931952E0,4.156374E0,2.324373E0,8.5546446E-1,-2.9909945E0,5.3774107E-1,-1.086214E0,-3.3900285E0,-8.6822075E-1,7.875007E-2,1.5644445E-1,4.971689E-2,9.926463E-2,4.6222545E-2,6.2635625E-3,-6.0222666E-3,-1.445324E-1,2.9932953E-2,-1.4302311E-2,-9.622497E-2,4.810018E-3,-1.7308967E-1,-8.522108E-2,-1.9501891E-2,-1.05578594E-1],"categories":[],"categories_nodes":[],"categories_segments":[],"categories_sizes":[],"default_left":[0,0,0,0,0,0,0,0,0,0,0,0,0,0,0,0,0,0,0,0,0,0,0,0,0,0,0,0,0,0,0],"id":35,"left_children":[1,3,5,7,9,11,13,15,17,19,21,23,25,27,29,-1,-1,-1,-1,-1,-1,-1,-1,-1,-1,-1,-1,-1,-1,-1,-1],"loss_changes":[7.4994916E2,2.782077E2,6.198653E2,3.7611877E1,2.1349821E2,3.460313E2,4.2168585E2,1.3081848E1,3.8023376E1,1.7588138E2,7.498753E1,2.6887305E2,4.5034717E2,8.732434E1,2.2747885E2,0E0,0E0,0E0,0E0,0E0,0E0,0E0,0E0,0E0,0E0,0E0,0E0,0E0,0E0,0E0,0E0],"parents":[2147483647,0,0,1,1,2,2,3,3,4,4,5,5,6,6,7,7,8,8,9,9,10,10,11,11,12,12,13,13,14,14],"right_children":[2,4,6,8,10,12,14,16,18,20,22,24,26,28,30,-1,-1,-1,-1,-1,-1,-1,-1,-1,-1,-1,-1,-1,-1,-1,-1],"split_conditions":[5.119454E0,5.296343E1,4.373178E0,6.25E-1,2.25E0,4.4444447E0,7.6923075E0,2.2267767E1,1.0526316E0,4.6332045E0,5.35E0,4.418262E0,9.67742E0,5.780347E0,7.0666666E0,7.875007E-2,1.5644445E-1,4.971689E-2,9.926463E-2,4.6222545E-2,6.2635625E-3,-6.0222666E-3,-1.445324E-1,2.9932953E-2,-1.4302311E-2,-9.622497E-2,4.810018E-3,-1.7308967E-1,-8.522108E-2,-1.9501891E-2,-1.05578594E-1],"split_indices":[7,18,3,17,31,37,3,51,75,23,26,16,37,3,26,0,0,0,0,0,0,0,0,0,0,0,0,0,0,0,0],"split_type":[0,0,0,0,0,0,0,0,0,0,0,0,0,0,0,0,0,0,0,0,0,0,0,0,0,0,0,0,0,0,0],"sum_hessian":[1.712E3,4.93E2,1.219E3,8.2E1,4.11E2,7.43E2,4.76E2,1.6E1,6.6E1,3.97E2,1.4E1,5.74E2,1.69E2,7.9E1,3.97E2,8E0,8E0,4.1E1,2.5E1,1.92E2,2.05E2,6E0,8E0,3.95E2,1.79E2,6.2E1,1.07E2,1.3E1,6.6E1,3.68E2,2.9E1],"tree_param":{"num_deleted":"0","num_feature":"80","num_nodes":"31","size_leaf_vector":"1"}},{"base_weights":[5.5648666E-3,1.0897939E0,-4.429399E-1,1.7017506E0,3.9956257E-2,-6.49775E-1,1.2396214E0,1.1541747E0,2.784843E0,-2.96356E0,6.9675153E-1,-2.7676028E-1,-1.539534E0,1.9129784E0,-8.149839E-1,8.1690155E-2,1.5548438E-2,9.046356E-2,1.343104E-4,-1.8275633E-1,-5.6495145E-2,-5.5259485E-2,3.0999666E-2,2.3661051E-2,-1.9717144E-2,-1.14391245E-1,-2.117119E-2,6.925227E-2,-1.9367814E-2,1.9501934E-2,-5.0636154E-2],"categories":[],"categories_nodes":[],"categories_segments":[],"categories_sizes":[],"default_left":[0,0,0,0,0,0,0,0,0,0,0,0,0,0,0,0,0,0,0,0,0,0,0,0,0,0,0,0,0,0,0],"id":36,"left_children":[1,3,5,7,9,11,13,15,17,19,21,23,25,27,29,-1,-1,-1,-1,-1,-1,-1,-1,-1,-1,-1,-1,-1,-1,-1,-1],"loss_changes":[8.2090497E2,3.1713068E2,4.1627374E2,1.8143152E2,3.6284143E2,3.525267E2,1.8290514E2,2.0676486E2,6.636694E1,9.9263794E1,1.308465E2,3.0494913E2,5.921113E2,1.018186E2,4.340216E1,0E0,0E0,0E0,0E0,0E0,0E0,0E0,0E0,0E0,0E0,0E0,0E0,0E0,0E0,0E0,0E0],"parents":[2147483647,0,0,1,1,2,2,3,3,4,4,5,5,6,6,7,7,8,8,9,9,10,10,11,11,12,12,13,13,14,14],"right_children":[2,4,6,8,10,12,14,16,18,20,22,24,26,28,30,-1,-1,-1,-1,-1,-1,-1,-1,-1,-1,-1,-1,-1,-1,-1,-1],"split_conditions":[5.05476E0,4.9261084E0,4.6753246E1,1.78E0,9.561753E0,4.597701E0,5.6701694E0,5.2910053E1,5.24E1,1.276E0,8.55E0,5.119454E0,8.955224E0,1.6506523E2,2.1212122E-1,8.1690155E-2,1.5548438E-2,9.046356E-2,1.343104E-4,-1.8275633E-1,-5.6495145E-2,-5.5259485E-2,3.0999666E-2,2.3661051E-2,-1.9717144E-2,-1.14391245E-1,-2.117119E-2,6.925227E-2,-1.9367814E-2,1.9501934E-2,-5.0636154E-2],"split_indices":[1,11,9,32,11,24,28,19,5,32,33,7,24,20,35,0,0,0,0,0,0,0,0,0,0,0,0,0,0,0,0],"split_type":[0,0,0,0,0,0,0,0,0,0,0,0,0,0,0,0,0,0,0,0,0,0,0,0,0,0,0,0,0,0,0],"sum_hessian":[1.686E3,4.93E2,1.193E3,3.11E2,1.82E2,1.063E3,1.3E2,2.08E2,1.03E2,3.2E1,1.5E2,7.5E2,3.13E2,9.8E1,3.2E1,5.9E1,1.49E2,9.5E1,8E0,7E0,2.5E1,1.7E1,1.33E2,1.97E2,5.53E2,8.3E1,2.3E2,8.5E1,1.3E1,1.2E1,2E1],"tree_param":{"num_deleted":"0","num_feature":"80","num_nodes":"31","size_leaf_vector":"1"}},{"base_weights":[-2.911404E-2,5.48749E-1,-7.999631E-1,1.0763359E0,-4.6155676E-1,-2.686424E0,-2.579343E-1,2.8556669E0,8.318815E-1,-2.7159653E0,4.722727E-2,-8.4506774E-1,-3.3076785E0,4.864494E-1,-1.273761E0,5.9580073E-2,1.1605816E-1,3.5716392E-2,-8.347597E-3,2.7487785E-2,-9.392056E-2,-1.0350671E-2,3.744545E-2,-9.604649E-2,-5.80491E-3,-1.4256999E-1,-8.111796E-2,-2.7954713E-3,5.6754053E-2,-8.351546E-2,-2.4124524E-2],"categories":[],"categories_nodes":[],"categories_segments":[],"categories_sizes":[],"default_left":[0,0,0,0,0,0,0,0,0,0,0,0,0,0,0,0,0,0,0,0,0,0,0,0,0,0,0,0,0,0,0],"id":37,"left_children":[1,3,5,7,9,11,13,15,17,19,21,23,25,27,29,-1,-1,-1,-1,-1,-1,-1,-1,-1,-1,-1,-1,-1,-1,-1,-1],"loss_changes":[7.5059375E2,5.138604E2,7.372693E2,2.7258862E2,3.8005444E2,1.8096558E2,4.25663E2,5.8681152E1,2.225993E2,9.497772E1,1.2818199E2,6.3528427E1,9.106909E1,2.650969E2,1.6618088E2,0E0,0E0,0E0,0E0,0E0,0E0,0E0,0E0,0E0,0E0,0E0,0E0,0E0,0E0,0E0,0E0],"parents":[2147483647,0,0,1,1,2,2,3,3,4,4,5,5,6,6,7,7,8,8,9,9,10,10,11,11,12,12,13,13,14,14],"right_children":[2,4,6,8,10,12,14,16,18,20,22,24,26,28,30,-1,-1,-1,-1,-1,-1,-1,-1,-1,-1,-1,-1,-1,-1,-1,-1],"split_conditions":[4.597701E0,4.418262E0,9.478673E0,4.9423393E1,8.086253E0,6.688963E1,4.373178E0,1.1510204E1,4.341534E0,7.2E0,2.1098901E2,2.073984E0,6.976744E0,2.6490067E1,8.928572E0,5.9580073E-2,1.1605816E-1,3.5716392E-2,-8.347597E-3,2.7487785E-2,-9.392056E-2,-1.0350671E-2,3.744545E-2,-9.604649E-2,-5.80491E-3,-1.4256999E-1,-8.111796E-2,-2.7954713E-3,5.6754053E-2,-8.351546E-2,-2.4124524E-2],"split_indices":[14,16,14,18,16,19,3,22,12,78,19,62,14,14,3,0,0,0,0,0,0,0,0,0,0,0,0,0,0,0,0],"split_type":[0,0,0,0,0,0,0,0,0,0,0,0,0,0,0,0,0,0,0,0,0,0,0,0,0,0,0,0,0,0,0],"sum_hessian":[1.683E3,9.62E2,7.21E2,6.32E2,3.3E2,1.6E2,5.61E2,7.5E1,5.57E2,6E1,2.7E2,4.1E1,1.19E2,3.24E2,2.37E2,4.2E1,3.3E1,4.21E2,1.36E2,6E0,5.4E1,2.04E2,6.6E1,8E0,3.3E1,3.3E1,8.6E1,2.3E2,9.4E1,5.5E1,1.82E2],"tree_param":{"num_deleted":"0","num_feature":"80","num_nodes":"31","size_leaf_vector":"1"}},{"base_weights":[-3.264819E-2,6.503368E-1,-6.996234E-1,1.1258969E0,-2.465517E-1,-9.8301065E-1,1.3389009E0,1.5980172E0,1.7727451E-2,-1.8094288E0,3.1178263E-1,-7.721825E-1,-2.9750786E0,2.5541806E0,1.1940208E-1,7.07557E-2,2.911986E-2,-3.3409543E-2,2.3415482E-2,-6.732061E-2,4.9922608E-2,3.1125568E-2,-1.9041967E-2,-7.193339E-2,-1.4167579E-2,-1.359064E-1,-5.7466768E-2,-1.7835911E-2,9.178242E-2,-9.159819E-2,2.0122496E-2],"categories":[],"categories_nodes":[],"categories_segments":[],"categories_sizes":[],"default_left":[0,0,0,0,0,0,0,0,0,0,0,0,0,0,0,0,0,0,0,0,0,0,0,0,0,0,0,0,0,0,0],"id":38,"left_children":[1,3,5,7,9,11,13,15,17,19,21,23,25,27,29,-1,-1,-1,-1,-1,-1,-1,-1,-1,-1,-1,-1,-1,-1,-1,-1],"loss_changes":[7.6439056E2,3.5395428E2,4.9174094E2,2.8337866E2,2.52025E2,3.10636E2,1.53559E2,1.7867865E2,1.415054E2,1.185188E2,1.4701283E2,3.2817468E2,1.0766388E2,8.478879E1,9.4519844E1,0E0,0E0,0E0,0E0,0E0,0E0,0E0,0E0,0E0,0E0,0E0,0E0,0E0,0E0,0E0,0E0],"parents":[2147483647,0,0,1,1,2,2,3,3,4,4,5,5,6,6,7,7,8,8,9,9,10,10,11,11,12,12,13,13,14,14],"right_children":[2,4,6,8,10,12,14,16,18,20,22,24,26,28,30,-1,-1,-1,-1,-1,-1,-1,-1,-1,-1,-1,-1,-1,-1,-1,-1],"split_conditions":[4.521477E0,4.373178E0,4.8582996E1,4.418262E0,9.063444E0,1.32E1,4.9261084E0,4.487659E0,1.2958963E1,2.3414635E2,4.597701E0,8.633094E0,5.6694565E1,2.0666666E1,6.557377E0,7.07557E-2,2.911986E-2,-3.3409543E-2,2.3415482E-2,-6.732061E-2,4.9922608E-2,3.1125568E-2,-1.9041967E-2,-7.193339E-2,-1.4167579E-2,-1.359064E-1,-5.7466768E-2,-1.7835911E-2,9.178242E-2,-9.159819E-2,2.0122496E-2],"split_indices":[2,3,2,16,3,30,11,0,16,18,14,2,41,46,11,0,0,0,0,0,0,0,0,0,0,0,0,0,0,0,0],"split_type":[0,0,0,0,0,0,0,0,0,0,0,0,0,0,0,0,0,0,0,0,0,0,0,0,0,0,0,0,0,0,0],"sum_hessian":[1.676E3,8.28E2,8.48E2,5.41E2,2.87E2,7.45E2,1.03E2,3.79E2,1.62E2,7.5E1,2.12E2,6.75E2,7E1,5.1E1,5.2E1,1.7E2,2.09E2,6.5E1,9.7E1,6.7E1,8E0,1.2E2,9.2E1,1.04E2,5.71E2,2.7E1,4.3E1,7E0,4.4E1,7E0,4.5E1],"tree_param":{"num_deleted":"0","num_feature":"80","num_nodes":"31","size_leaf_vector":"1"}},{"base_weights":[2.9524073E-2,4.6829146E-1,-1.0677147E0,8.6385536E-1,-5.897872E-1,-3.0621426E0,-1.17297255E-1,1.6418988E0,4.5350915E-1,-3.331887E0,-1.0567672E-3,-4.3713355E0,-1.5424584E0,-7.143092E-1,8.2447195E-1,6.300204E-2,1.2007466E-2,-7.7983856E-2,1.9913536E-2,-1.7586993E-1,-6.7820765E-2,-1.3218474E-2,4.0924534E-2,-1.6487826E-1,-9.661791E-2,-6.467924E-2,2.6552051E-2,-1.0159573E-1,-1.4613019E-2,1.3234589E-1,1.5051251E-2],"categories":[],"categories_nodes":[],"categories_segments":[],"categories_sizes":[],"default_left":[0,0,0,0,0,0,0,0,0,0,0,0,0,0,0,0,0,0,0,0,0,0,0,0,0,0,0,0,0,0,0],"id":39,"left_children":[1,3,5,7,9,11,13,15,17,19,21,23,25,27,29,-1,-1,-1,-1,-1,-1,-1,-1,-1,-1,-1,-1,-1,-1,-1,-1],"loss_changes":[7.8373083E2,4.8729633E2,8.807485E2,2.6946515E2,5.114145E2,2.9109998E2,1.7824812E2,1.6502411E2,3.5846426E2,1.3772833E2,1.5773216E2,8.4958374E1,1.0777754E2,1.1575018E2,1.397013E2,0E0,0E0,0E0,0E0,0E0,0E0,0E0,0E0,0E0,0E0,0E0,0E0,0E0,0E0,0E0,0E0],"parents":[2147483647,0,0,1,1,2,2,3,3,4,4,5,5,6,6,7,7,8,8,9,9,10,10,11,11,12,12,13,13,14,14],"right_children":[2,4,6,8,10,12,14,16,18,20,22,24,26,28,30,-1,-1,-1,-1,-1,-1,-1,-1,-1,-1,-1,-1,-1,-1,-1,-1],"split_conditions":[4.6403713E0,4.597701E0,1.058201E1,5.119454E0,8.333333E0,9.375E0,2.2813688E1,4.418262E0,8.510638E0,5.9820538E0,1.9354839E2,7.7220078E0,1.6736403E1,4.9438496E0,1.5974153E0,6.300204E-2,1.2007466E-2,-7.7983856E-2,1.9913536E-2,-1.7586993E-1,-6.7820765E-2,-1.3218474E-2,4.0924534E-2,-1.6487826E-1,-9.661791E-2,-6.467924E-2,2.6552051E-2,-1.0159573E-1,-1.4613019E-2,1.3234589E-1,1.5051251E-2],"split_indices":[25,24,25,7,24,15,25,16,7,24,52,25,15,54,62,0,0,0,0,0,0,0,0,0,0,0,0,0,0,0,0],"split_type":[0,0,0,0,0,0,0,0,0,0,0,0,0,0,0,0,0,0,0,0,0,0,0,0,0,0,0,0,0,0,0],"sum_hessian":[1.626E3,1.162E3,4.64E2,8.46E2,3.16E2,1.49E2,3.15E2,2.91E2,5.55E2,5.5E1,2.61E2,7.9E1,7E1,1.93E2,1.22E2,2.12E2,7.9E1,3.5E1,5.2E2,1.5E1,4E1,1.98E2,6.3E1,3.8E1,4.1E1,5.6E1,1.4E1,1.4E1,1.79E2,9E0,1.13E2],"tree_param":{"num_deleted":"0","num_feature":"80","num_nodes":"31","size_leaf_vector":"1"}},{"base_weights":[-1.0821923E-2,5.5529463E-1,-7.428306E-1,1.0559585E0,-2.6679465E-1,-2.4153702E0,-9.078393E-2,1.4480532E0,-4.251291E-2,-1.7517685E0,4.516377E-1,-4.952084E0,-2.047028E0,3.0043903E-1,-1.2981455E0,5.007802E-2,-2.0509848E-2,-6.429037E-2,2.5302269E-2,-1.871914E-2,-9.09972E-2,2.6010768E-2,-2.5951369E-2,-2.4312106E-1,-9.8116346E-2,9.966831E-4,-7.063758E-2,2.1572445E-2,-2.2493798E-2,-9.4685815E-2,4.0091603E-4],"categories":[],"categories_nodes":[],"categories_segments":[],"categories_sizes":[],"default_left":[0,0,0,0,0,0,0,0,0,0,0,0,0,0,0,0,0,0,0,0,0,0,0,0,0,0,0,0,0,0,0],"id":40,"left_children":[1,3,5,7,9,11,13,15,17,19,21,23,25,27,29,-1,-1,-1,-1,-1,-1,-1,-1,-1,-1,-1,-1,-1,-1,-1,-1],"loss_changes":[6.879245E2,3.8560928E2,7.8910547E2,2.5087238E2,3.7965405E2,1.788418E2,2.4705522E2,2.0354114E2,2.885127E2,1.6538943E2,1.3201447E2,1.04861145E2,1.1483411E2,1.7420647E2,3.1227304E2,0E0,0E0,0E0,0E0,0E0,0E0,0E0,0E0,0E0,0E0,0E0,0E0,0E0,0E0,0E0,0E0],"parents":[2147483647,0,0,1,1,2,2,3,3,4,4,5,5,6,6,7,7,8,8,9,9,10,10,11,11,12,12,13,13,14,14],"right_children":[2,4,6,8,10,12,14,16,18,20,22,24,26,28,30,-1,-1,-1,-1,-1,-1,-1,-1,-1,-1,-1,-1,-1,-1,-1,-1],"split_conditions":[4.9261084E0,4.373178E0,1.058201E1,4.597701E0,9.404388E0,3.3333335E-2,4.4444447E0,4.6785046E1,9.646302E0,8.053691E1,1.155E1,1.5E0,4.8E1,4.341534E0,1.0380623E1,5.007802E-2,-2.0509848E-2,-6.429037E-2,2.5302269E-2,-1.871914E-2,-9.09972E-2,2.6010768E-2,-2.5951369E-2,-2.4312106E-1,-9.8116346E-2,9.966831E-4,-7.063758E-2,2.1572445E-2,-2.2493798E-2,-9.4685815E-2,4.0091603E-4],"split_indices":[11,3,11,24,3,55,37,59,24,52,30,73,19,12,37,0,0,0,0,0,0,0,0,0,0,0,0,0,0,0,0],"split_type":[0,0,0,0,0,0,0,0,0,0,0,0,0,0,0,0,0,0,0,0,0,0,0,0,0,0,0,0,0,0,0],"sum_hessian":[1.658E3,9.35E2,7.23E2,5.81E2,3.54E2,2.02E2,5.21E2,4.28E2,1.53E2,1.15E2,2.39E2,2.4E1,1.78E2,3.94E2,1.27E2,3.88E2,4E1,4.5E1,1.08E2,6.2E1,5.3E1,1.82E2,5.7E1,7E0,1.7E1,2.3E1,1.55E2,2.82E2,1.12E2,5.2E1,7.5E1],"tree_param":{"num_deleted":"0","num_feature":"80","num_nodes":"31","size_leaf_vector":"1"}},{"base_weights":[3.5430456E-3,5.304121E-1,-6.9416726E-1,1.0109257E0,-2.5044987E-1,-3.0622754E0,-2.0890197E-1,1.7289718E0,4.9778867E-1,-1.9120307E0,3.7085938E-1,-4.9715114E0,-2.4662662E0,2.2430149E-1,-1.198483E0,6.273661E-2,-5.3199967E-3,3.3328578E-2,-8.900401E-3,-2.4504878E-2,-9.7805865E-2,-1.5884432E-3,4.730805E-2,-1.6642226E-1,-5.755958E-2,-1.166199E-1,-5.1469084E-2,2.071889E-2,-2.5610428E-2,-7.8227565E-2,3.5506252E-3],"categories":[],"categories_nodes":[],"categories_segments":[],"categories_sizes":[],"default_left":[0,0,0,0,0,0,0,0,0,0,0,0,0,0,0,0,0,0,0,0,0,0,0,0,0,0,0,0,0,0,0],"id":41,"left_children":[1,3,5,7,9,11,13,15,17,19,21,23,25,27,29,-1,-1,-1,-1,-1,-1,-1,-1,-1,-1,-1,-1,-1,-1,-1,-1],"loss_changes":[6.135119E2,3.5715845E2,8.241306E2,2.1593726E2,3.7560828E2,1.2582153E2,2.5629413E2,1.697486E2,1.6847418E2,1.4310394E2,1.3568903E2,3.7837524E1,9.410632E1,2.0969379E2,3.382693E2,0E0,0E0,0E0,0E0,0E0,0E0,0E0,0E0,0E0,0E0,0E0,0E0,0E0,0E0,0E0,0E0],"parents":[2147483647,0,0,1,1,2,2,3,3,4,4,5,5,6,6,7,7,8,8,9,9,10,10,11,11,12,12,13,13,14,14],"right_children":[2,4,6,8,10,12,14,16,18,20,22,24,26,28,30,-1,-1,-1,-1,-1,-1,-1,-1,-1,-1,-1,-1,-1,-1,-1,-1],"split_conditions":[4.9261084E0,4.373178E0,8.784773E0,9.85E0,9.132421E0,1.1290322E-1,4.6403713E0,5.8648386E0,4.6332045E0,8.108108E1,2.255639E1,7.083825E0,1.6666666E0,4.597701E0,1.2E1,6.273661E-2,-5.3199967E-3,3.3328578E-2,-8.900401E-3,-2.4504878E-2,-9.7805865E-2,-1.5884432E-3,4.730805E-2,-1.6642226E-1,-5.755958E-2,-1.166199E-1,-5.1469084E-2,2.071889E-2,-2.5610428E-2,-7.8227565E-2,3.5506252E-3],"split_indices":[11,3,11,33,3,55,25,28,23,52,3,27,73,24,15,0,0,0,0,0,0,0,0,0,0,0,0,0,0,0,0],"split_type":[0,0,0,0,0,0,0,0,0,0,0,0,0,0,0,0,0,0,0,0,0,0,0,0,0,0,0,0,0,0,0],"sum_hessian":[1.667E3,9.5E2,7.17E2,5.88E2,3.62E2,1.21E2,5.96E2,2.44E2,3.44E2,9.8E1,2.64E2,2.7E1,9.4E1,4.15E2,1.81E2,2.05E2,3.9E1,1.94E2,1.5E2,5.5E1,4.3E1,1.96E2,6.8E1,2.2E1,5E0,3.1E1,6.3E1,2.9E2,1.25E2,8.7E1,9.4E1],"tree_param":{"num_deleted":"0","num_feature":"80","num_nodes":"31","size_leaf_vector":"1"}},{"base_weights":[5.0719727E-2,6.431162E-1,-5.5376536E-1,1.0704005E0,-4.52511E-1,-2.4960034E0,-1.8552868E-1,2.6832328E0,8.034654E-1,-1.0746845E0,1.6353514E0,-4.921082E0,-2.0181224E0,-6.165371E-1,6.880534E-1,8.60509E-2,-7.397053E-3,1.9013982E-2,8.352949E-2,-9.232323E-2,-1.8964421E-2,-1.764256E-2,7.234069E-2,-1.64813E-1,-7.671228E-2,-1.1988956E-1,-4.8630312E-2,-3.1679418E-2,1.2281342E-2,4.125144E-2,-1.455233E-2],"categories":[],"categories_nodes":[],"categories_segments":[],"categories_sizes":[],"default_left":[0,0,0,0,0,0,0,0,0,0,0,0,0,0,0,0,0,0,0,0,0,0,0,0,0,0,0,0,0,0,0],"id":42,"left_children":[1,3,5,7,9,11,13,15,17,19,21,23,25,27,29,-1,-1,-1,-1,-1,-1,-1,-1,-1,-1,-1,-1,-1,-1,-1,-1],"loss_changes":[5.998158E2,3.9659628E2,5.9217224E2,2.5968304E2,3.1086642E2,1.4234943E2,2.6322888E2,4.761548E1,1.74001E2,1.607618E2,9.64973E1,1.3577393E1,8.094351E1,2.1148628E2,1.8692697E2,0E0,0E0,0E0,0E0,0E0,0E0,0E0,0E0,0E0,0E0,0E0,0E0,0E0,0E0,0E0,0E0],"parents":[2147483647,0,0,1,1,2,2,3,3,4,4,5,5,6,6,7,7,8,8,9,9,10,10,11,11,12,12,13,13,14,14],"right_children":[2,4,6,8,10,12,14,16,18,20,22,24,26,28,30,-1,-1,-1,-1,-1,-1,-1,-1,-1,-1,-1,-1,-1,-1,-1,-1],"split_conditions":[5.119454E0,4.418262E0,8.915304E0,4.4444443E1,2.2222221E1,7.0339975E0,2.4193548E1,4.2857143E-1,2.3414635E2,8.486563E0,9.8E0,3.529412E-1,6.1538463E0,4.995E1,4.341534E0,8.60509E-2,-7.397053E-3,1.9013982E-2,8.352949E-2,-9.232323E-2,-1.8964421E-2,-1.764256E-2,7.234069E-2,-1.64813E-1,-7.671228E-2,-1.1988956E-1,-4.8630312E-2,-3.1679418E-2,1.2281342E-2,4.125144E-2,-1.455233E-2],"split_indices":[4,16,4,52,16,21,21,65,18,16,56,55,4,5,15,0,0,0,0,0,0,0,0,0,0,0,0,0,0,0,0],"split_type":[0,0,0,0,0,0,0,0,0,0,0,0,0,0,0,0,0,0,0,0,0,0,0,0,0,0,0,0,0,0,0],"sum_hessian":[1.673E3,8.45E2,8.28E2,6.08E2,2.37E2,1.31E2,6.97E2,8.5E1,5.23E2,1.83E2,5.4E1,2E1,1.11E2,4.67E2,2.3E2,8E1,5E0,4.83E2,4E1,3.2E1,1.51E2,1.4E1,4E1,1.5E1,5E0,1.7E1,9.4E1,3.27E2,1.4E2,1.45E2,8.5E1],"tree_param":{"num_deleted":"0","num_feature":"80","num_nodes":"31","size_leaf_vector":"1"}},{"base_weights":[4.4617712E-2,5.463505E-1,-6.368779E-1,9.9585766E-1,-2.90699E-1,-3.9291205E0,-3.7871948E-1,2.6517336E0,7.6200813E-1,-7.521328E-1,1.2998289E0,-4.313909E0,-2.4747679E-2,-8.560282E-1,9.241038E-1,8.549793E-2,6.6008307E-3,1.3646378E-2,5.8518976E-2,-8.8266455E-2,-1.472687E-2,-6.5586017E-3,5.739005E-2,-5.917888E-2,-1.42568E-1,-1.5100643E-2,-5.2655663E-2,7.184713E-2,1.3221791E-2],"categories":[],"categories_nodes":[],"categories_segments":[],"categories_sizes":[],"default_left":[0,0,0,0,0,0,0,0,0,0,0,0,0,0,0,0,0,0,0,0,0,0,0,0,0,0,0,0,0],"id":43,"left_children":[1,3,5,7,9,11,13,15,17,19,21,23,-1,25,27,-1,-1,-1,-1,-1,-1,-1,-1,-1,-1,-1,-1,-1,-1],"loss_changes":[5.7819836E2,3.66837E2,6.074739E2,2.4313922E2,2.5119075E2,5.8039368E1,4.149356E2,3.665857E1,2.0221103E2,1.4982703E2,7.228015E1,3.7163696E1,0E0,1.5364032E2,1.25921295E2,0E0,0E0,0E0,0E0,0E0,0E0,0E0,0E0,0E0,0E0,0E0,0E0,0E0,0E0],"parents":[2147483647,0,0,1,1,2,2,3,3,4,4,5,5,6,6,7,7,8,8,9,9,10,10,11,11,13,13,14,14],"right_children":[2,4,6,8,10,12,14,16,18,20,22,24,-1,26,28,-1,-1,-1,-1,-1,-1,-1,-1,-1,-1,-1,-1,-1,-1],"split_conditions":[4.597701E0,4.418262E0,6.976744E0,4.9423393E1,2.1978022E1,4.0909092E1,2.3225807E1,3.3882355E1,1.8502203E2,6.615215E0,2.4683545E0,7.317073E1,-2.4747679E-2,4.6403713E0,4.487659E0,8.549793E-2,6.6008307E-3,1.3646378E-2,5.8518976E-2,-8.8266455E-2,-1.472687E-2,-6.5586017E-3,5.739005E-2,-5.917888E-2,-1.42568E-1,-1.5100643E-2,-5.2655663E-2,7.184713E-2,1.3221791E-2],"split_indices":[14,16,14,18,16,9,14,66,18,16,48,18,0,25,0,0,0,0,0,0,0,0,0,0,0,0,0,0,0],"split_type":[0,0,0,0,0,0,0,0,0,0,0,0,0,0,0,0,0,0,0,0,0,0,0,0,0,0,0,0,0],"sum_hessian":[1.689E3,9.73E2,7.16E2,6.33E2,3.4E2,5.1E1,6.65E2,7.7E1,5.56E2,2.64E2,7.6E1,4.5E1,6E0,4.87E2,1.78E2,7.1E1,6E0,4.43E2,1.13E2,2.7E1,2.37E2,2.2E1,5.4E1,8E0,3.7E1,3.51E2,1.36E2,4.3E1,1.35E2],"tree_param":{"num_deleted":"0","num_feature":"80","num_nodes":"29","size_leaf_vector":"1"}},{"base_weights":[2.1124475E-2,5.257118E-1,-6.3980293E-1,9.7678834E-1,-3.3181226E-1,-3.7397738E0,-3.9628673E-1,-4.4340485E-1,1.1932285E0,-2.663206E0,2.2967485E-1,-4.0680256E0,-1.585519E-2,-7.7914935E-1,1.1997871E0,-4.7172006E-2,4.099989E-2,2.7110627E-2,6.124644E-2,-9.279776E-2,3.614472E-2,-7.9004755E-3,3.8362257E-2,-2.9695008E-2,-1.3225585E-1,-3.1786275E-3,-4.121019E-2,7.144073E-2,1.8025571E-2],"categories":[],"categories_nodes":[],"categories_segments":[],"categories_sizes":[],"default_left":[0,0,0,0,0,0,0,0,0,0,0,0,0,0,0,0,0,0,0,0,0,0,0,0,0,0,0,0,0],"id":44,"left_children":[1,3,5,7,9,11,13,15,17,19,21,23,-1,25,27,-1,-1,-1,-1,-1,-1,-1,-1,-1,-1,-1,-1,-1,-1],"loss_changes":[5.5159314E2,3.6321542E2,5.386079E2,1.8964697E2,4.2498645E2,5.2203735E1,4.0725897E2,1.6974129E2,1.2902338E2,1.0871344E2,1.359487E2,4.4358765E1,0E0,2.1463019E2,8.956212E1,0E0,0E0,0E0,0E0,0E0,0E0,0E0,0E0,0E0,0E0,0E0,0E0,0E0,0E0],"parents":[2147483647,0,0,1,1,2,2,3,3,4,4,5,5,6,6,7,7,8,8,9,9,10,10,11,11,13,13,14,14],"right_children":[2,4,6,8,10,12,14,16,18,20,22,24,-1,26,28,-1,-1,-1,-1,-1,-1,-1,-1,-1,-1,-1,-1,-1,-1],"split_conditions":[4.597701E0,4.418262E0,6.976744E0,1.2160783E1,8.196721E0,4.6753246E1,2.6845638E1,1.821E0,1.5918367E2,8.910891E1,2.0477816E1,6.6E0,-1.585519E-2,5.119454E0,5.05476E0,-4.7172006E-2,4.099989E-2,2.7110627E-2,6.124644E-2,-9.279776E-2,3.614472E-2,-7.9004755E-3,3.8362257E-2,-2.9695008E-2,-1.3225585E-1,-3.1786275E-3,-4.121019E-2,7.144073E-2,1.8025571E-2],"split_indices":[14,16,14,51,16,9,14,32,18,4,16,78,0,4,1,0,0,0,0,0,0,0,0,0,0,0,0,0,0],"split_type":[0,0,0,0,0,0,0,0,0,0,0,0,0,0,0,0,0,0,0,0,0,0,0,0,0,0,0,0,0],"sum_hessian":[1.652E3,9.37E2,7.15E2,6.14E2,3.23E2,5.1E1,6.64E2,8.1E1,5.33E2,6.2E1,2.61E2,4.6E1,5E0,5.36E2,1.28E2,5E1,3.1E1,3.99E2,1.34E2,5.6E1,6E0,1.78E2,8.3E1,5E0,4.1E1,2.52E2,2.84E2,4.2E1,8.6E1],"tree_param":{"num_deleted":"0","num_feature":"80","num_nodes":"29","size_leaf_vector":"1"}},{"base_weights":[2.1290772E-2,2.4927523E0,-1.0013033E-1,9.90644E-3,2.6669886E0,2.9308525E-1,-7.3902416E-1,4.019613E0,2.1398246E0,8.337574E-1,-2.328047E-1,-2.1442478E0,-1.243318E-1,1.495862E-1,4.9079794E-2,2.0742642E-2,7.353061E-2,-3.84667E-2,2.9140726E-2,-6.0760666E-2,-1.3826381E-3,-6.993601E-2,5.2165493E-2,7.637842E-3,-3.6879268E-2],"categories":[],"categories_nodes":[],"categories_segments":[],"categories_sizes":[],"default_left":[0,0,0,0,0,0,0,0,0,0,0,0,0,0,0,0,0,0,0,0,0,0,0,0,0],"id":45,"left_children":[1,3,5,-1,7,9,11,13,15,17,19,21,23,-1,-1,-1,-1,-1,-1,-1,-1,-1,-1,-1,-1],"loss_changes":[4.9983463E2,2.8209412E1,3.9895206E2,0E0,4.212274E1,2.7975458E2,5.220936E2,3.495627E1,2.2330841E1,1.424267E2,1.6671446E2,1.3768848E2,1.7710403E2,0E0,0E0,0E0,0E0,0E0,0E0,0E0,0E0,0E0,0E0,0E0,0E0],"parents":[2147483647,0,0,1,1,2,2,4,4,5,5,6,6,7,7,8,8,9,9,10,10,11,11,12,12],"right_children":[2,4,6,-1,8,10,12,14,16,18,20,22,24,-1,-1,-1,-1,-1,-1,-1,-1,-1,-1,-1,-1],"split_conditions":[2.6865671E1,4.2062206E1,4.373178E0,9.90644E-3,9.307745E0,4.521477E0,9.404388E0,9.789474E0,2.174064E1,4.2857143E-1,8.415147E0,2.5471698E2,1.16E1,1.495862E-1,4.9079794E-2,2.0742642E-2,7.353061E-2,-3.84667E-2,2.9140726E-2,-6.0760666E-2,-1.3826381E-3,-6.993601E-2,5.2165493E-2,7.637842E-3,-3.6879268E-2],"split_indices":[19,41,3,0,54,2,3,33,43,17,2,18,30,0,0,0,0,0,0,0,0,0,0,0,0],"split_type":[0,0,0,0,0,0,0,0,0,0,0,0,0,0,0,0,0,0,0,0,0,0,0,0,0],"sum_hessian":[1.663E3,7.7E1,1.586E3,6E0,7.1E1,9.82E2,6.04E2,1.8E1,5.3E1,4.84E2,4.98E2,1.83E2,4.21E2,1.2E1,6E0,1E1,4.3E1,2.9E1,4.55E2,4.6E1,4.52E2,1.75E2,8E0,3.14E2,1.07E2],"tree_param":{"num_deleted":"0","num_feature":"80","num_nodes":"25","size_leaf_vector":"1"}},{"base_weights":[-4.7138814E-2,4.0910596E-1,-8.05224E-1,8.6384094E-1,-4.0806222E-1,-2.6976516E0,-4.010771E-1,2.1055775E0,6.2081116E-1,-8.977527E-1,1.8216792E0,-3.3965707E0,-1.2629766E0,2.1318461E-1,-1.0554233E0,7.072733E-2,-1.920555E-2,2.6454022E-2,-1.1623394E-2,-5.949001E-2,-1.3267471E-2,8.7732725E-2,4.1494253E-3,1.2886535E-2,-1.1044501E-1,-6.2030207E-2,3.0621078E-3,2.151981E-2,-3.7930522E-2,-4.8575785E-2,5.481549E-3],"categories":[],"categories_nodes":[],"categories_segments":[],"categories_sizes":[],"default_left":[0,0,0,0,0,0,0,0,0,0,0,0,0,0,0,0,0,0,0,0,0,0,0,0,0,0,0,0,0,0,0],"id":46,"left_children":[1,3,5,7,9,11,13,15,17,19,21,23,25,27,29,-1,-1,-1,-1,-1,-1,-1,-1,-1,-1,-1,-1,-1,-1,-1,-1],"loss_changes":[5.817806E2,3.9057278E2,4.819737E2,2.0212094E2,4.1209106E2,1.06546326E2,2.101218E2,7.77937E1,1.4933101E2,1.5162979E2,1.25519165E2,8.257965E1,4.2148666E1,2.0197206E2,1.7704022E2,0E0,0E0,0E0,0E0,0E0,0E0,0E0,0E0,0E0,0E0,0E0,0E0,0E0,0E0,0E0,0E0],"parents":[2147483647,0,0,1,1,2,2,3,3,4,4,5,5,6,6,7,7,8,8,9,9,10,10,11,11,12,12,13,13,14,14],"right_children":[2,4,6,8,10,12,14,16,18,20,22,24,26,28,30,-1,-1,-1,-1,-1,-1,-1,-1,-1,-1,-1,-1,-1,-1,-1,-1],"split_conditions":[4.373178E0,4.1899443E0,8.053691E0,5.753425E1,2.690583E1,1.107011E1,4.597701E0,3.6166666E0,5.5452867E0,9.523809E0,4.930156E0,8.35E0,1.405E1,1.155E1,1.7804153E1,7.072733E-2,-1.920555E-2,2.6454022E-2,-1.1623394E-2,-5.949001E-2,-1.3267471E-2,8.7732725E-2,4.1494253E-3,1.2886535E-2,-1.1044501E-1,-6.2030207E-2,3.0621078E-3,2.151981E-2,-3.7930522E-2,-4.8575785E-2,5.481549E-3],"split_indices":[3,34,3,18,34,25,14,48,37,34,21,56,49,30,14,0,0,0,0,0,0,0,0,0,0,0,0,0,0,0,0],"split_type":[0,0,0,0,0,0,0,0,0,0,0,0,0,0,0,0,0,0,0,0,0,0,0,0,0,0,0,0,0,0,0],"sum_hessian":[1.68E3,1.049E3,6.31E2,6.74E2,3.75E2,1.1E2,5.21E2,1.09E2,5.65E2,3.08E2,6.7E1,7.3E1,3.7E1,2.69E2,2.52E2,1E2,9E0,4.49E2,1.16E2,9E1,2.18E2,4E1,2.7E1,5E0,6.8E1,2.3E1,1.4E1,2.01E2,6.8E1,1.73E2,7.9E1],"tree_param":{"num_deleted":"0","num_feature":"80","num_nodes":"31","size_leaf_vector":"1"}},{"base_weights":[-7.109188E-2,7.854905E-1,-4.018262E-1,2.2786586E0,5.331711E-1,-2.1338289E0,-2.085657E-1,2.7104478E0,1.123432E0,9.121451E-1,-6.4297456E-1,-3.4017339E0,-4.9584067E-1,-3.9934626E-1,1.2488904E0,1.0088757E-1,4.596934E-2,-2.6626615E-3,7.063485E-2,2.1070104E-2,8.600412E-2,-6.4441185E-3,-7.99369E-2,-1.9191784E-1,-9.021149E-2,-3.7684202E-2,3.266964E-2,-2.1595052E-3,-3.5175342E-2,4.5977414E-2,-2.8377628E-2],"categories":[],"categories_nodes":[],"categories_segments":[],"categories_sizes":[],"default_left":[0,0,0,0,0,0,0,0,0,0,0,0,0,0,0,0,0,0,0,0,0,0,0,0,0,0,0,0,0,0,0],"id":47,"left_children":[1,3,5,7,9,11,13,15,17,19,21,23,25,27,29,-1,-1,-1,-1,-1,-1,-1,-1,-1,-1,-1,-1,-1,-1,-1,-1],"loss_changes":[4.7395685E2,1.740719E2,4.033371E2,2.9992157E1,1.7890482E2,2.492179E2,3.026588E2,3.1255066E1,3.0281128E1,1.2189099E2,8.396702E1,6.02182E1,6.645163E1,2.4327863E2,7.996178E1,0E0,0E0,0E0,0E0,0E0,0E0,0E0,0E0,0E0,0E0,0E0,0E0,0E0,0E0,0E0,0E0],"parents":[2147483647,0,0,1,1,2,2,3,3,4,4,5,5,6,6,7,7,8,8,9,9,10,10,11,11,12,12,13,13,14,14],"right_children":[2,4,6,8,10,12,14,16,18,20,22,24,26,28,30,-1,-1,-1,-1,-1,-1,-1,-1,-1,-1,-1,-1,-1,-1,-1,-1],"split_conditions":[5.119454E0,2.6865671E1,9.202454E0,4.6332045E0,1.3829787E0,9.756098E0,4.9586777E1,4.417169E1,1.734104E1,2.3904383E1,1.195E1,4.930156E0,2.058319E1,4.341534E0,3.5757575E0,1.0088757E-1,4.596934E-2,-2.6626615E-3,7.063485E-2,2.1070104E-2,8.600412E-2,-6.4441185E-3,-7.99369E-2,-1.9191784E-1,-9.021149E-2,-3.7684202E-2,3.266964E-2,-2.1595052E-3,-3.5175342E-2,4.5977414E-2,-2.8377628E-2],"split_indices":[7,19,7,23,31,0,7,59,9,14,60,0,0,15,48,0,0,0,0,0,0,0,0,0,0,0,0,0,0,0,0],"split_type":[0,0,0,0,0,0,0,0,0,0,0,0,0,0,0,0,0,0,0,0,0,0,0,0,0,0,0,0,0,0,0],"sum_hessian":[1.671E3,4.65E2,1.206E3,6.6E1,3.99E2,1.2E2,1.086E3,4.7E1,1.9E1,3.02E2,9.7E1,6.7E1,5.3E1,9.61E2,1.25E2,2.9E1,1.8E1,1E1,9E0,2.74E2,2.8E1,8.1E1,1.6E1,6E0,6.1E1,3.6E1,1.7E1,6.76E2,2.85E2,1.11E2,1.4E1],"tree_param":{"num_deleted":"0","num_feature":"80","num_nodes":"31","size_leaf_vector":"1"}},{"base_weights":[2.4786301E-2,8.648044E-1,-3.142283E-1,1.357665E0,6.895954E-2,-4.7597858E-1,1.5150757E0,6.2919426E-1,1.8809875E0,-2.5191314E0,5.6056565E-1,-2.1441433E0,-3.2256448E-1,2.3245082E0,-3.06101E-1,-2.4008944E-3,5.645877E-2,6.378929E-2,-1.0731369E-2,-1.5679961E-1,-4.3905277E-2,-1.6221192E-2,3.670053E-2,-7.1612105E-2,5.2784264E-2,1.7573803E-3,-3.353316E-2,3.729528E-2,9.143583E-2,8.622747E-2,-3.0963026E-2],"categories":[],"categories_nodes":[],"categories_segments":[],"categories_sizes":[],"default_left":[0,0,0,0,0,0,0,0,0,0,0,0,0,0,0,0,0,0,0,0,0,0,0,0,0,0,0,0,0,0,0],"id":48,"left_children":[1,3,5,7,9,11,13,15,17,19,21,23,25,27,29,-1,-1,-1,-1,-1,-1,-1,-1,-1,-1,-1,-1,-1,-1,-1,-1],"loss_changes":[4.813175E2,1.9039264E2,3.5686932E2,1.12933044E2,2.3914038E2,2.823651E2,1.4537706E2,1.1316916E2,9.649878E1,7.742537E1,1.1605505E2,9.245404E1,3.0780615E2,4.897043E1,7.435925E1,0E0,0E0,0E0,0E0,0E0,0E0,0E0,0E0,0E0,0E0,0E0,0E0,0E0,0E0,0E0,0E0],"parents":[2147483647,0,0,1,1,2,2,3,3,4,4,5,5,6,6,7,7,8,8,9,9,10,10,11,11,12,12,13,13,14,14],"right_children":[2,4,6,8,10,12,14,16,18,20,22,24,26,28,30,-1,-1,-1,-1,-1,-1,-1,-1,-1,-1,-1,-1,-1,-1,-1,-1],"split_conditions":[5.05476E0,4.9261084E0,2.3414635E2,6.882353E0,9.6E0,8.571428E0,3.1111112E0,1.4934127E1,3.4375E-1,1.276E0,1.5335E0,6.6666664E1,4.6403713E0,8.5714287E-1,8.248815E0,-2.4008944E-3,5.645877E-2,6.378929E-2,-1.0731369E-2,-1.5679961E-1,-4.3905277E-2,-1.6221192E-2,3.670053E-2,-7.1612105E-2,5.2784264E-2,1.7573803E-3,-3.353316E-2,3.729528E-2,9.143583E-2,8.622747E-2,-3.0963026E-2],"split_indices":[1,11,18,79,11,1,40,68,55,32,32,2,25,75,68,0,0,0,0,0,0,0,0,0,0,0,0,0,0,0,0],"split_type":[0,0,0,0,0,0,0,0,0,0,0,0,0,0,0,0,0,0,0,0,0,0,0,0,0,0,0,0,0,0,0],"sum_hessian":[1.688E3,4.85E2,1.203E3,2.99E2,1.86E2,1.106E3,9.7E1,1.26E2,1.73E2,2.9E1,1.57E2,9.2E1,1.014E3,6.7E1,3E1,8.1E1,4.5E1,1.56E2,1.7E1,7E0,2.2E1,